{"use_imu": true, "control_orientation": true, "observation_history": 4, "action_scale": 0.75, "kp": 5.0, "kd": 0.25, "default_joint_pos": [0.25999999046325684, 0.0, -0.5199999809265137, -0.25999999046325684, 0.0, 0.5199999809265137, 0.25999999046325684, 0.0, -0.5199999809265137, -0.25999999046325684, 0.0, 0.5199999809265137], "joint_upper_limits": [1.5099999904632568, 3.140000104904175, Infinity, 1.5099999904632568, 3.140000104904175, Infinity, 1.909999966621399, 3.140000104904175, Infinity, 1.909999966621399, 3.140000104904175, Infinity], "joint_lower_limits": [-2.2200000286102295, -0.41999998688697815, -Infinity, -2.2200000286102295, -0.41999998688697815, -Infinity, -1.8200000524520874, -0.41999998688697815, -Infinity, -1.8200000524520874, -0.41999998688697815, -Infinity], "maximum_pitch_command": 0.0, "maximum_roll_command": 0.0, "in_shape": [null, 144], "layers": [{"type": "dense", "activation": "elu", "shape": [null, 256], "weights": [[[0.11509609967470169, -0.14687684178352356, 0.09025521576404572, 0.12120077013969421, 0.13405564427375793, -0.1868591606616974, -0.0148892467841506, 0.02177773043513298, -0.17581889033317566, -0.06316211074590683, 0.08361905813217163, 0.19417762756347656, -0.35865533351898193, 0.31506893038749695, -0.024480590596795082, -0.320146381855011, 0.09928204119205475, -0.02309119701385498, -0.5495368242263794, -0.18070101737976074, -0.1080513522028923, -0.04547739401459694, -0.015350683592259884, -0.11583968251943588, -0.2906031310558319, 0.016169896349310875, -0.2823878526687622, 0.16263894736766815, 0.01832907274365425, -0.06867583841085434, 0.13124272227287292, 0.35929086804389954, 0.18607299029827118, 0.012118992395699024, -0.17704935371875763, 0.256565123796463, -0.24288177490234375, -0.06075703725218773, -0.17377136647701263, -0.15689809620380402, -0.399932861328125, 0.11583718657493591, 0.058345068246126175, 0.22187398374080658, 1.199451208114624, -0.014078360982239246, 0.15459632873535156, -0.07848238199949265, 0.05383065342903137, -0.27904918789863586, -0.06776271760463715, 0.1401917040348053, -0.4069710075855255, -0.19227951765060425, -0.06173928827047348, 0.03924306482076645, 0.18456293642520905, 0.018874960020184517, -0.07523749023675919, -0.21414552628993988, 0.3696116805076599, -0.012838771566748619, 0.009014274924993515, 0.005656098015606403, 0.028432561084628105, -0.29019320011138916, 0.0995776504278183, 0.10073036700487137, -0.13373616337776184, -0.08846814185380936, 0.3073693811893463, 0.11377980560064316, -0.03650197014212608, -0.20656029880046844, -0.031697265803813934, 0.0069122170098125935, -0.15719254314899445, -0.29400959610939026, 0.37348267436027527, 0.14237213134765625, -0.02698405832052231, -0.17413285374641418, 0.1783924549818039, 0.43291613459587097, -0.1811688095331192, 0.06288660317659378, 0.17650309205055237, -0.08166816085577011, 0.04607519879937172, -0.21311067044734955, 0.03683697059750557, -0.3592948317527771, -0.026446189731359482, 0.11982528120279312, -0.05251096934080124, -0.3384809195995331, 0.04453692585229874, -0.020920749753713608, 0.04957744851708412, -0.03320693597197533, 0.14035944640636444, -0.11282238364219666, -0.41330012679100037, 0.12274223566055298, -0.2290283739566803, 0.018323710188269615, -0.24840182065963745, -0.4084978699684143, -0.08977997303009033, -0.15505875647068024, -0.2203335016965866, -0.1508169323205948, -0.22964639961719513, -0.2789057493209839, 0.38653498888015747, 0.06495215743780136, -0.06433390825986862, 0.012225979939103127, 0.4999985694885254, 0.08113764226436615, 0.23118087649345398, 0.14511165022850037, 0.08216327428817749, 0.48683446645736694, -0.119117870926857, 0.10211116820573807, -0.4212844669818878, 0.18132321536540985, -0.016419468447566032, -0.3220343589782715, -0.33214423060417175, 0.04049762710928917, -0.12574870884418488, 0.24568361043930054, -0.08750269562005997, 0.24846749007701874, -0.004169073887169361, -0.15921488404273987, -0.17935431003570557, -0.1596410721540451, 0.1602676957845688, -0.02947969175875187, 0.19313083589076996, 0.05330083146691322, -0.2028658092021942, -0.4841185212135315, 0.03847404941916466, -0.0405421257019043, -0.0042033810168504715, -0.07624645531177521, 0.2534582316875458, -0.00545944320037961, -0.13744817674160004, 0.056141823530197144, 0.15275569260120392, 0.2482554316520691, -0.04204762727022171, -0.0889703780412674, 0.0929003432393074, -0.10163276642560959, -0.054454077035188675, 0.23272451758384705, -0.3565482497215271, 0.08212081342935562, 0.03936143219470978, 0.076210618019104, 0.22742143273353577, -0.003716925159096718, -0.22156444191932678, -0.10958637297153473, -0.26540908217430115, -0.25920480489730835, -0.010579206049442291, 0.1799294799566269, -0.04729106277227402, -0.2819764018058777, -0.13703373074531555, -0.08809833973646164, 0.04455900192260742, -0.5837520956993103, 0.020654475316405296, -0.500156044960022, 0.16216716170310974, -0.30883145332336426, 0.07225147634744644, 0.17065325379371643, -0.002036000369116664, -0.1760270744562149, -0.07935534417629242, 0.3412277400493622, 0.09334133565425873, 0.054821815341711044, 0.16565223038196564, 0.11008517444133759, 0.0060617392882704735, 0.1467895805835724, 0.054376695305109024, 0.1143888607621193, 0.42897140979766846, 0.06308676302433014, 0.19631700217723846, -0.036011703312397, 0.1474197804927826, -0.2282731980085373, -0.2940971255302429, 0.27326154708862305, 0.18010902404785156, -0.024124566465616226, 0.2859257757663727, 0.4101817309856415, 0.2351960986852646, 0.0326799713075161, 0.14582459628582, 0.0548410527408123, -0.13186568021774292, -0.17507678270339966, -0.16655851900577545, 0.025058669969439507, -0.6208333373069763, -0.2665584981441498, -0.4757656455039978, -0.117367222905159, 0.48648759722709656, -0.548252522945404, -0.4465177655220032, 0.34570178389549255, 0.40774106979370117, -0.3050578832626343, 0.17302344739437103, 0.03179258853197098, -0.042063068598508835, 0.03318248689174652, -0.0542701780796051, -0.24287952482700348, 0.09238261729478836, 0.08353327214717865, 0.22697223722934723, 0.2033643126487732, 0.052446916699409485, -0.09270264208316803, -0.08087121695280075, -0.4184766709804535, 0.08916497975587845, 0.4633641839027405, 0.25068917870521545, -0.19259536266326904, -0.4003618657588959, -0.10038281232118607, -0.5223461985588074, 0.17299151420593262, -0.22083492577075958, -0.23794163763523102, 0.2678868770599365, 0.42199215292930603, 0.13462164998054504, -0.20072554051876068], [0.4205646216869354, -0.007395369932055473, 0.04593795910477638, 0.253574401140213, -0.02053070440888405, -0.38213711977005005, -0.31007710099220276, 0.18503805994987488, 0.1575348824262619, 0.3630242347717285, 0.12262840569019318, -0.34313392639160156, 0.5298835039138794, -0.0319376066327095, 0.10057995468378067, 0.22222092747688293, -0.477378785610199, -0.14201979339122772, -0.7581495642662048, -0.11483694612979889, -0.21372610330581665, 0.20838353037834167, 0.03273038938641548, -0.22599416971206665, -0.17765821516513824, 0.11232863366603851, -0.21700741350650787, 0.08684579282999039, 0.11325801908969879, 0.2972832918167114, 0.13744044303894043, -0.21359898149967194, -0.5310191512107849, -0.11202265322208405, 0.29540687799453735, -0.24523261189460754, 0.5687630772590637, 0.06415729224681854, -0.33669495582580566, 0.09854847192764282, -0.695307195186615, 0.2537069320678711, -0.32725900411605835, 0.16228395700454712, 0.661547839641571, -0.4284484386444092, -0.0734998807311058, 0.3716353476047516, 0.282707154750824, 0.27378085255622864, -0.020195314660668373, -0.12100543826818466, 0.5863193869590759, 0.4924192428588867, 0.020008618012070656, -0.023909108713269234, -0.4119254946708679, -0.12391585111618042, -0.3414139449596405, -0.10735942423343658, 0.07296629250049591, -0.2603612244129181, 0.014542232267558575, -0.35294109582901, -0.0889958068728447, -0.14597252011299133, 0.030371207743883133, -0.29850104451179504, -0.12835675477981567, 0.02647170051932335, 0.002652672817930579, -0.26958632469177246, -0.18130014836788177, -0.08214946836233139, -0.3317534327507019, 0.33599892258644104, -0.0735400915145874, 0.17307236790657043, 0.020487945526838303, -0.0834277793765068, -0.12711761891841888, -0.0225339625030756, -0.17560411989688873, -0.1664671152830124, 0.15017089247703552, 0.11758112907409668, -0.16729789972305298, 0.15856049954891205, -0.18321284651756287, 0.07887624949216843, 0.3297783136367798, 0.3952602744102478, -0.24633248150348663, -0.053290095180273056, -0.11884568631649017, -0.7879359126091003, 0.27749207615852356, -0.2558436691761017, 0.04778463765978813, 0.5588717460632324, 0.23566430807113647, 0.19903557002544403, 0.2064822018146515, -0.23267629742622375, -0.220394566655159, 0.13234052062034607, 0.7162579894065857, -0.1966322958469391, 0.1327662169933319, -0.33066505193710327, 0.18069393932819366, -0.4258330464363098, 0.04587062820792198, 0.0013969411375001073, 0.04957404360175133, 0.09552954882383347, 0.3144780099391937, -0.12394026666879654, -0.364967942237854, 0.03795628249645233, -0.08808641135692596, -0.18839290738105774, -0.14882098138332367, 0.6828725934028625, 0.1344831883907318, -0.12344823777675629, -0.33958756923675537, -0.5667537450790405, -0.17850910127162933, 0.018551765009760857, 0.3265603482723236, -0.4598431885242462, 0.2774590849876404, -0.08650336414575577, 0.21099714934825897, 0.054331205785274506, 0.03244047239422798, -0.2358623445034027, 0.21754290163516998, -0.2196875661611557, 0.377223402261734, 0.11391496658325195, 0.19981293380260468, 0.03619090095162392, -0.4015512764453888, -0.6467756032943726, -0.13158372044563293, 0.09825810045003891, -0.1487967073917389, 0.12163147330284119, -0.12677475810050964, -0.1424916833639145, 0.18281815946102142, 0.25678977370262146, -0.25421443581581116, -0.09172597527503967, 0.21489964425563812, -0.10673342645168304, 0.08346255868673325, 0.09003959596157074, 0.28901374340057373, -0.24367810785770416, 0.4825066924095154, 0.2798869013786316, 0.1500256508588791, 0.16228140890598297, -0.032903630286455154, 0.0690305083990097, 0.30970001220703125, 0.29386237263679504, -0.4733627140522003, -0.23810401558876038, -0.023955736309289932, 0.6123330593109131, -0.15889878571033478, 0.5153138041496277, 0.22881266474723816, 0.034617286175489426, 0.00012656842591241002, -0.22417867183685303, 0.25145480036735535, -0.009449958801269531, 0.12261205911636353, -0.33433783054351807, 0.24269072711467743, 0.6952996850013733, -0.5420049428939819, -0.04542481526732445, -0.04249377176165581, -0.04965388774871826, -0.10066406428813934, 0.45338597893714905, 0.04578389227390289, -0.13138645887374878, 0.1346903145313263, 0.21552740037441254, -0.01743539795279503, 0.004645001143217087, -0.11946501582860947, -0.03939135745167732, 0.15175940096378326, 0.06766624003648758, -0.230052649974823, -0.0724712386727333, -0.39349979162216187, -0.05439794436097145, -0.2901894152164459, 0.04680348560214043, -0.20292708277702332, 0.34256353974342346, -0.21232673525810242, -0.03513885289430618, 0.3764926493167877, 0.36786946654319763, -0.36060598492622375, -0.07127518206834793, -0.03724023699760437, 0.04069080948829651, -0.15751545131206512, 0.4225712716579437, 0.5081691145896912, -0.06527040898799896, 0.33805742859840393, 0.3826355040073395, -0.02363944984972477, 0.028911979869008064, 0.05840824544429779, 0.05030272901058197, -0.03155427426099777, -0.1311849057674408, -0.11630124598741531, -0.003371091093868017, -0.37401828169822693, 0.5465580821037292, -0.36382749676704407, -0.20781193673610687, -0.06736543029546738, 0.4374920725822449, 0.05330276861786842, -0.03882726654410362, -0.11612211912870407, 0.11418607085943222, 0.006456961389631033, -0.17321689426898956, -0.2624432146549225, -0.018285023048520088, 0.18930786848068237, -0.12360242754220963, -0.4572492837905884, 0.03516079857945442, -0.05126002058386803, 0.11018698662519455, -0.018990498036146164, -0.09499438107013702, -0.2526524066925049, -0.4018556475639343], [-0.0456344373524189, 0.01108210813254118, -0.1245083212852478, -0.15125396847724915, 0.12423188239336014, -0.19511406123638153, -0.13018634915351868, -0.23564209043979645, 0.18659546971321106, -0.4091349244117737, 0.30942657589912415, 0.2515504062175751, 0.07944700866937637, 0.046179234981536865, -0.5001022815704346, 0.17943395674228668, -0.25658687949180603, 0.0011435121996328235, 0.14372624456882477, 0.3669602870941162, -0.37269899249076843, 0.35378140211105347, 0.0758543312549591, 0.1857159435749054, 0.006099696736782789, -0.012148190289735794, 0.14522381126880646, -0.3597221076488495, -0.10216017067432404, 0.24235409498214722, -0.1097760871052742, -0.21562187373638153, -0.31680789589881897, -0.24623626470565796, 0.35846275091171265, 0.272870272397995, -0.07958554476499557, 4.2347892303951085e-05, 0.22692924737930298, 0.18256144225597382, -0.23843830823898315, -0.23957432806491852, -0.17256900668144226, 0.1623009443283081, 0.1696273535490036, -0.18030810356140137, 0.04354033246636391, 0.04734620079398155, -0.16648569703102112, 0.2595278322696686, 0.12174148857593536, -0.2114427536725998, 0.020452221855521202, 0.4408523440361023, -0.3057604730129242, 0.2573454678058624, 0.12899567186832428, -0.38256052136421204, -0.31261876225471497, 0.13344915211200714, -0.10748300701379776, 0.010874317027628422, -0.13149626553058624, 0.3169446289539337, 0.14632099866867065, -0.03026478737592697, -0.30638882517814636, -0.26188522577285767, 0.16292491555213928, 0.012715370394289494, 0.09340689331293106, -0.3845309615135193, -0.034177351742982864, -0.34628960490226746, 0.15143844485282898, 0.08023205399513245, 0.4582076072692871, 0.05826801434159279, -0.0838293507695198, 0.18101733922958374, 0.13052259385585785, 0.15917731821537018, 0.31865793466567993, -0.1119471937417984, -0.4406619369983673, -0.29128819704055786, 0.12744252383708954, -0.1352870762348175, 0.0026566546875983477, 0.01928604207932949, 0.04905151575803757, -0.06979157030582428, -0.21098823845386505, -0.23690198361873627, 0.0319257527589798, 0.1579628437757492, -0.03441460430622101, 0.016552846878767014, 0.018901148810982704, -0.18266063928604126, -0.2898392677307129, 0.08314377814531326, -0.17615845799446106, -0.14249548316001892, -0.06341566145420074, 0.04944351688027382, -0.20770664513111115, -0.28779926896095276, -0.3423546850681305, -0.19299964606761932, -0.17495441436767578, 0.2422572523355484, -0.09345363080501556, -0.0826396644115448, -0.0229339599609375, 0.06486443430185318, -0.28349947929382324, 0.1961219757795334, -0.09994404017925262, -0.0008014154154807329, 0.3468351662158966, -0.04356307536363602, 0.09909296035766602, -0.023180538788437843, 0.03295701742172241, -0.2782653272151947, 0.24294696748256683, -0.18959112465381622, -0.021829484030604362, -0.18671973049640656, 0.45996540784835815, 0.17930230498313904, -0.0022022495977580547, 0.06035172939300537, 0.1201903373003006, -0.26952293515205383, 0.1286524087190628, 0.39172911643981934, 0.15139521658420563, -0.030986515805125237, -0.2069271206855774, 0.30083003640174866, -0.22997944056987762, 0.17580623924732208, -0.0846281349658966, 0.16876889765262604, -0.43022722005844116, -0.07348145544528961, 0.08208029717206955, 0.11769133061170578, 0.08083531260490417, 0.14345383644104004, 0.15738309919834137, -0.006503175478428602, 0.2394743114709854, 0.012962931767106056, -0.025604745373129845, -0.13738413155078888, 0.2400350719690323, -0.13057926297187805, -0.26348307728767395, -0.3459393382072449, 0.3163210451602936, -0.014572027139365673, -0.00804947130382061, -0.03567134588956833, -0.16164010763168335, -0.20933803915977478, 0.11640162765979767, -0.1623615175485611, -0.2321396768093109, 0.07852789014577866, 0.2551578879356384, -0.04692980274558067, -0.3686162829399109, 0.43673741817474365, -0.17146381735801697, 0.008688305504620075, -0.13923966884613037, 0.22659975290298462, -0.05425611510872841, -0.10125232487916946, -0.11322197318077087, 0.1298854947090149, -0.14333496987819672, -0.0018866818863898516, 0.3944739103317261, -0.059780120849609375, 0.1845480054616928, -0.07216580957174301, -0.14781323075294495, 0.28499650955200195, -0.05338349565863609, -0.3260476589202881, -0.1072184219956398, 0.08377284556627274, 0.4173085391521454, 0.1585564762353897, 0.12260930240154266, -0.09065167605876923, -0.27707186341285706, 0.1455235481262207, -0.15149137377738953, 0.3381674289703369, -0.23282742500305176, -0.03362921625375748, -0.03871797397732735, -0.22380907833576202, 0.12468322366476059, 0.33035191893577576, 0.1264495998620987, -0.11145491898059845, -0.0477781742811203, 0.027457477524876595, -0.11460878700017929, -0.0063872323371469975, 0.38958969712257385, -0.11693691462278366, 0.16467967629432678, 0.027067501097917557, 0.12127362936735153, 0.1540229618549347, 0.04910188168287277, 0.029349885880947113, 0.06201914697885513, -0.3722047805786133, 0.2811041474342346, 0.054142072796821594, 0.17743243277072906, 0.01890772208571434, 0.047048989683389664, 0.1449602097272873, -0.08068559318780899, 0.23024988174438477, -0.2172744870185852, 0.11485522240400314, 0.013470880687236786, -0.003211704781278968, -0.17400741577148438, 0.31568384170532227, 0.08318498730659485, -0.018355267122387886, 0.23379038274288177, -0.2112782895565033, -0.08357778191566467, 0.2837878167629242, 0.07986422628164291, 0.18516138195991516, -0.03051242046058178, 0.11894327402114868, 0.17668874561786652, 0.2032584846019745, -0.08435937017202377, 0.13017483055591583, -0.15988925099372864, -0.04638351500034332], [-0.8154472708702087, 1.6960564851760864, -1.0156865119934082, 2.9224753379821777, 0.19317853450775146, 2.1653213500976562, -1.7299071550369263, 0.2857440114021301, -0.011688232421875, 0.2341487854719162, 1.1074682474136353, 0.13882149755954742, 1.8496365547180176, -1.5975630283355713, -0.9258663058280945, 0.5060854554176331, -0.8835643529891968, 1.639813780784607, -3.2427077293395996, -2.033761978149414, -0.04858484864234924, -0.09539605677127838, 1.3203681707382202, -3.7075376510620117, -2.120081663131714, 1.9609930515289307, -2.0121331214904785, 0.3692639470100403, -0.43896543979644775, -1.607701301574707, 0.23921026289463043, -0.8667095899581909, -0.7483152151107788, -1.2560648918151855, 1.7197504043579102, -0.5116158723831177, 3.727834463119507, 1.3340659141540527, 1.4242578744888306, 0.30811336636543274, -0.34197989106178284, -0.3509009778499603, -1.4514691829681396, -1.648321509361267, -1.8967385292053223, 2.2200875282287598, -2.1171963214874268, -0.49324512481689453, 0.686470091342926, -1.8964056968688965, 1.1476081609725952, -1.5756605863571167, 0.512459933757782, 1.0966368913650513, -0.21410773694515228, -1.324540138244629, 0.35948485136032104, -0.7453576922416687, -1.3397175073623657, 1.4128140211105347, 0.55225670337677, 2.792330026626587, -0.6997228860855103, -1.5223320722579956, -0.5499749779701233, 1.9024910926818848, -0.12494394928216934, -2.0766170024871826, -2.7530219554901123, -0.7940565347671509, -3.9237263202667236, -2.265321969985962, -2.3936378955841064, -1.0763407945632935, -0.6176208257675171, 2.4183804988861084, -0.22831740975379944, -1.2257434129714966, 1.4446027278900146, -0.00707134697586298, 0.14316894114017487, -2.619431972503662, -1.4203948974609375, -0.9493110775947571, 0.2594785988330841, -0.9098691940307617, -1.3598133325576782, -2.9828996658325195, 1.1258624792099, 4.0908894538879395, 2.550586462020874, 0.9181192517280579, -2.5224497318267822, -0.7517036199569702, 0.6425724029541016, 0.504419207572937, 1.9936277866363525, -1.7132869958877563, 0.706088662147522, -0.3340761959552765, 0.8387627601623535, -0.8028435111045837, -1.7116161584854126, -1.4840223789215088, -1.8632324934005737, 0.12482908368110657, 2.7726471424102783, 0.6238846778869629, 0.09168899804353714, -0.9280723929405212, 0.08965424448251724, -1.8879013061523438, 1.2710384130477905, -1.8902473449707031, -0.8477839827537537, 0.402275949716568, 2.4783217906951904, -0.41716527938842773, -1.7283880710601807, 2.11301851272583, -1.1615148782730103, 0.3310575783252716, -1.761657953262329, 4.505539417266846, -1.5639266967773438, -0.37935924530029297, -0.9398992657661438, -2.05401611328125, -2.0324740409851074, -1.177620768547058, -1.0223309993743896, -2.333526849746704, -0.5924057364463806, -1.6535050868988037, -0.32347404956817627, 1.569474697113037, 1.381327748298645, -1.1427465677261353, -0.16513335704803467, -0.1031254455447197, -1.978225588798523, -0.4186467230319977, 0.035945575684309006, -0.6403376460075378, -0.1120634451508522, -1.719449758529663, -0.15545092523097992, 1.0317375659942627, -0.941222071647644, 0.562463104724884, -1.1314703226089478, -2.639522075653076, 0.5703814625740051, 1.8964585065841675, -0.49493637681007385, 1.009701132774353, 2.105816602706909, 2.210472822189331, 1.2574338912963867, 1.642855167388916, -2.1685004234313965, 0.2897983491420746, 2.3939733505249023, 0.3875204622745514, 2.952191114425659, 1.6904776096343994, 3.4380898475646973, 1.2879661321640015, -0.3941876292228699, -0.7883796691894531, -0.7580956816673279, 1.167953372001648, 1.5466234683990479, 0.42894309759140015, -1.2381646633148193, 1.713405728340149, 0.890263020992279, -0.4808146059513092, 0.9287694692611694, -0.5754309296607971, 2.5668156147003174, -1.9907439947128296, -1.5648324489593506, 1.5117262601852417, 0.9617782235145569, 0.08039895445108414, 1.2825701236724854, -1.5668061971664429, -1.4430592060089111, -1.5785719156265259, 0.2470141351222992, -0.08784086257219315, -0.1979832649230957, -2.2480404376983643, -1.714059591293335, 1.6613988876342773, -2.7278850078582764, 0.5472462773323059, -0.9373872876167297, -0.8529409766197205, -3.4673640727996826, -0.9638926982879639, 0.9805576205253601, -0.08282983303070068, 0.15911269187927246, -0.38898152112960815, 0.7729976773262024, -0.9604603052139282, -0.5584744811058044, 2.141806125640869, 0.0929742082953453, 1.2198177576065063, 2.198385238647461, 0.8533723950386047, 1.2385987043380737, 0.972991406917572, -2.3306639194488525, 1.1809272766113281, 1.6085041761398315, 0.9047428965568542, 1.3415995836257935, 1.319929599761963, -1.2001030445098877, 1.0008156299591064, 0.5256027579307556, -0.7121192216873169, -1.6421871185302734, -1.9508057832717896, -0.6446502804756165, -0.7783619165420532, -0.8285886645317078, 0.2176724076271057, -0.9421708583831787, 1.3977577686309814, -0.23318889737129211, 0.774779736995697, -1.4594086408615112, -0.5154548287391663, 0.5487355589866638, -1.409944772720337, -1.8861603736877441, 4.8912835121154785, 3.073408365249634, 1.1407300233840942, 1.7631467580795288, 1.2545748949050903, -1.9760416746139526, -1.5770868062973022, -1.0959632396697998, -3.1686577796936035, -0.1051565557718277, 0.47475719451904297, -1.7587510347366333, 1.6673685312271118, -0.39921361207962036, 1.0830469131469727], [1.3280627727508545, 1.969395399093628, 1.60774827003479, 1.123288869857788, -0.42958399653434753, 1.018766164779663, -0.3059733211994171, 2.2463150024414062, 0.8151336908340454, -0.10262972861528397, -0.3090830445289612, 0.580937922000885, 0.7222678065299988, 2.171549081802368, 0.29860588908195496, 0.07207198441028595, -2.203702688217163, 1.8820573091506958, 4.892305850982666, 0.5119893550872803, 1.2544559240341187, -3.016714334487915, -0.34297388792037964, -1.5969321727752686, 0.06044185161590576, -2.1739306449890137, 0.29199039936065674, 0.4225326180458069, -2.1982245445251465, 1.9432566165924072, 0.622346818447113, 1.581539273262024, 0.49254557490348816, 0.2112099826335907, 0.6815969944000244, -2.676621675491333, 3.568936586380005, -1.3200021982192993, 1.0760167837142944, 0.8448305130004883, 1.4138786792755127, 1.9175493717193604, -0.055163051933050156, 0.15387338399887085, 0.39238011837005615, 0.7807547450065613, -1.0764261484146118, 1.2890554666519165, 2.15079402923584, 3.5040833950042725, -2.251309394836426, -0.07544122636318207, 2.3113629817962646, -1.2166085243225098, 0.4568193554878235, -0.027035987004637718, -0.763217031955719, -1.3911468982696533, -1.6696056127548218, 1.7760980129241943, -0.8395536541938782, -0.22427041828632355, -0.829613208770752, -0.037194494158029556, 0.2454916387796402, -0.8303796052932739, 1.1319903135299683, -1.1379942893981934, -0.2793261706829071, 0.05404946208000183, -0.0782947763800621, -0.9429704546928406, 1.9447818994522095, 0.9556755423545837, 0.6192812323570251, 0.5007604360580444, -0.5581167936325073, 2.8654401302337646, -1.8365720510482788, -1.500455379486084, -0.5102507472038269, 0.153183713555336, -2.4668407440185547, 1.6652882099151611, 0.44400158524513245, 0.1726316660642624, 0.4821520745754242, -0.10087325423955917, 1.1195178031921387, 3.6561031341552734, -1.1259238719940186, 0.6534252166748047, 0.419127494096756, 0.5699741244316101, -0.44624173641204834, 0.6060895919799805, 2.120513439178467, -1.4501670598983765, 1.2406567335128784, -0.45431721210479736, 0.3346240818500519, 0.558869481086731, -0.22085542976856232, 1.1756861209869385, -0.2822566330432892, -1.8583102226257324, -0.07165642082691193, 0.2551997900009155, -0.19296792149543762, 3.3154022693634033, 2.786609172821045, 1.3724069595336914, 0.7252965569496155, 1.2046973705291748, -0.31155115365982056, 0.19453023374080658, 1.110774278640747, 0.03440282493829727, -1.8911068439483643, -0.00032050246954895556, 1.4758334159851074, -2.3314480781555176, -2.268737554550171, 1.055178165435791, 0.6067654490470886, 2.082428216934204, -1.8392919301986694, 0.13648472726345062, -0.0836118757724762, 3.6030991077423096, 0.23632073402404785, 0.14310406148433685, 0.3733275234699249, -0.9076825380325317, 2.3718879222869873, 1.0414825677871704, 0.018787739798426628, 0.16905908286571503, 1.0486351251602173, 2.368673324584961, -0.47600769996643066, 1.7608797550201416, 3.186427116394043, 2.4375252723693848, -1.1456711292266846, 1.0648757219314575, -1.7712255716323853, 0.4844718277454376, -1.9702327251434326, -1.171908974647522, -0.4217028021812439, -0.889224648475647, 0.07222896814346313, 2.875094175338745, -1.3869322538375854, -0.7922273278236389, -0.10089670121669769, 3.729001760482788, 2.1187548637390137, 0.016930855810642242, -2.370918035507202, -0.8837233781814575, -0.6866832375526428, -0.8762825131416321, 0.6496963500976562, 0.5141435861587524, 0.33626440167427063, -1.5557805299758911, -0.32570400834083557, -1.6281981468200684, -1.6564885377883911, -1.7434813976287842, 0.317734956741333, -0.47518351674079895, -0.7656315565109253, -0.5379276275634766, -1.1399227380752563, -0.604964554309845, 0.21701180934906006, -1.2371374368667603, 1.3793095350265503, 2.261362075805664, -2.0313608646392822, 0.16240403056144714, 0.8113398551940918, -0.01602528616786003, 0.3596310317516327, 2.163037061691284, -1.1366724967956543, -1.4366458654403687, -0.3755579888820648, 0.19783112406730652, -1.0960543155670166, 1.2200781106948853, 1.2967684268951416, -1.9230144023895264, -3.0893850326538086, 1.1746411323547363, 0.15089894831180573, 2.02311110496521, 0.8616513609886169, 0.24843816459178925, 2.459437131881714, -1.3496850728988647, -0.4990331828594208, 2.711186647415161, 0.3561376631259918, 3.2718021869659424, -1.9028265476226807, -0.6864349842071533, 1.2722160816192627, -0.5215978026390076, -0.15165822207927704, 0.8171796202659607, -1.6560765504837036, -2.09879994392395, 0.06462839245796204, -1.8582693338394165, 0.7665219306945801, -3.130897283554077, 2.913018226623535, -0.4501730501651764, -1.283766508102417, -0.843856692314148, -0.7784144282341003, -1.6278631687164307, 0.5524239540100098, -1.11515474319458, -2.077296257019043, -2.6722586154937744, 1.1036176681518555, -3.823295831680298, 0.41682127118110657, -0.6315736174583435, 1.8652679920196533, 2.4099137783050537, -1.2482881546020508, 1.4858293533325195, -0.018495285883545876, -1.2758944034576416, -2.630680561065674, -0.8968605995178223, -0.9659173488616943, -4.38713264465332, 0.515433132648468, -1.4358795881271362, 2.0337631702423096, 0.42167556285858154, -0.6734591722488403, -3.97640061378479, 1.5918678045272827, 0.40517017245292664, -1.7011476755142212, 1.8772157430648804, -1.260381817817688, -0.11148890107870102], [6.454517364501953, 19.637136459350586, -8.688212394714355, -9.190153121948242, 5.794074535369873, 4.980741024017334, -14.7827730178833, -3.6305384635925293, 3.4308207035064697, -11.008133888244629, 10.957653045654297, -4.170149326324463, 14.47671890258789, 7.238481044769287, 7.512319564819336, -6.747231483459473, 7.406832695007324, 0.7603638768196106, 10.789073944091797, 0.745610773563385, -8.137564659118652, 11.911392211914062, -3.129046678543091, -5.831108093261719, 6.394577503204346, 5.878763675689697, 0.49143609404563904, -5.351097583770752, -23.37569236755371, 5.0720062255859375, -1.4835599660873413, -5.241170406341553, -2.144282102584839, -5.373426914215088, -3.06071138381958, -0.8432568907737732, 13.504439353942871, 12.732378959655762, -1.683053970336914, 0.6192108392715454, -3.1665642261505127, -12.796530723571777, -5.593818664550781, -20.588565826416016, 7.8650007247924805, 5.621062278747559, -3.6157164573669434, 13.334060668945312, 4.069097518920898, -0.6623491048812866, 0.4334108531475067, -11.65030574798584, 6.495549201965332, -6.314916610717773, -5.326004981994629, -4.351013660430908, 16.676025390625, -4.003886699676514, 17.677024841308594, 1.144170880317688, -6.866469860076904, -1.135335087776184, -21.481531143188477, -3.4341957569122314, -11.627190589904785, -10.672586441040039, -12.776742935180664, -4.620335102081299, 0.9306237697601318, -1.9581701755523682, 19.213794708251953, 0.7725943326950073, -4.700610160827637, 7.6816864013671875, -17.207380294799805, -2.375232458114624, -5.646054267883301, 11.44926929473877, 7.920503616333008, -2.9829821586608887, 7.374704360961914, -6.633106231689453, -12.096510887145996, -4.911338806152344, -1.6640444993972778, 7.07036018371582, -5.866210460662842, -3.804908514022827, 8.315286636352539, 3.0953221321105957, 2.1546924114227295, 2.8967761993408203, 0.24759449064731598, 0.2465996891260147, 4.206625461578369, 6.081429958343506, 0.21385841071605682, -14.539824485778809, 5.437302589416504, 10.331548690795898, -1.1151570081710815, -14.328459739685059, 6.1129679679870605, 10.89055347442627, -5.078838348388672, 13.044180870056152, 10.866790771484375, -14.449121475219727, -6.0271382331848145, -6.0938215255737305, 16.05548858642578, -8.144815444946289, 8.807891845703125, 11.019210815429688, -18.575618743896484, -16.722261428833008, 17.644588470458984, -6.9038920402526855, -3.692821979522705, -4.396063327789307, -6.845462322235107, -12.833781242370605, 1.6682506799697876, 17.39249610900879, -21.22647476196289, 9.077373504638672, -7.579840660095215, 0.23509614169597626, 10.873054504394531, -14.41534423828125, 2.8708274364471436, 3.6486895084381104, 10.133487701416016, 1.5071690082550049, 12.05036449432373, -11.345464706420898, -6.482920169830322, 0.6203047037124634, -6.0154337882995605, -8.554606437683105, -4.24519681930542, -5.184510231018066, 6.579858779907227, 13.278925895690918, -12.741922378540039, -14.607532501220703, 0.07720445096492767, 11.618042945861816, 1.4650287628173828, -4.872076988220215, -4.627324104309082, -6.067999362945557, 0.9362545013427734, 4.8862624168396, 6.6881208419799805, 5.570240020751953, -1.3329241275787354, -9.53427791595459, 1.192409634590149, 12.403947830200195, -19.814889907836914, -5.208172798156738, 15.74842643737793, 15.170247077941895, -1.2209306955337524, 8.193806648254395, 14.310467720031738, 4.201486110687256, -2.9035303592681885, -4.6293792724609375, -11.507193565368652, 3.7621819972991943, 8.569100379943848, 13.099695205688477, -8.474922180175781, 5.384043216705322, 0.26242122054100037, 3.5127978324890137, 6.031910419464111, -7.7315263748168945, 3.7595419883728027, 7.073920249938965, 6.353841781616211, 15.388608932495117, -1.7028504610061646, 2.991253614425659, -3.844853639602661, 2.770397901535034, -8.025542259216309, -1.0615177154541016, 6.539029121398926, 4.730071544647217, -8.243253707885742, -2.9290974140167236, 5.780817031860352, -15.173009872436523, -9.829959869384766, 17.6134033203125, -5.094206809997559, -0.5057259798049927, 3.6002798080444336, 0.8769785761833191, -14.39802360534668, -12.514436721801758, 4.496750354766846, -3.9834628105163574, -7.383594989776611, 2.55519437789917, 6.332815170288086, 11.651429176330566, -8.577912330627441, -4.492150783538818, 8.12820816040039, -10.979411125183105, 3.1125900745391846, 2.5248987674713135, -8.318105697631836, -5.247245788574219, 18.701570510864258, 9.977296829223633, 15.565742492675781, 13.865313529968262, -3.855851173400879, 11.629351615905762, 10.569368362426758, 4.139618873596191, 9.955843925476074, 2.8541507720947266, -14.765005111694336, 1.935826063156128, -6.107784271240234, -2.5956454277038574, 1.3834141492843628, 7.847716331481934, 8.303940773010254, -15.57429313659668, 11.89513874053955, 6.712442398071289, -10.072892189025879, 4.272716522216797, -0.8061449527740479, 6.062801837921143, 7.507845401763916, 10.6129150390625, -0.4383380115032196, -6.559649467468262, -10.111188888549805, 18.866886138916016, -5.304428577423096, -5.525199890136719, 8.355234146118164, 13.36203670501709, 7.9464111328125, 13.092312812805176, 7.568724155426025, -3.962158203125], [-0.13627243041992188, -0.05917184054851532, 0.4147869050502777, 0.4638288915157318, 0.9043006896972656, 0.6350911259651184, -0.1755276322364807, 0.5297461152076721, -0.416742205619812, 0.4378467798233032, 0.6774165630340576, -0.23939961194992065, -0.19681060314178467, 0.1038370355963707, -0.17037363350391388, -0.21353088319301605, 0.4750942587852478, -0.6177973747253418, 0.23786817491054535, -0.5993756651878357, 0.055223021656274796, -0.3855285346508026, 0.24910247325897217, 0.10670804232358932, 0.5903037190437317, -0.6772239208221436, -0.18809232115745544, 0.13661442697048187, 0.5176084041595459, -0.70000821352005, -0.1994970589876175, -0.10933802276849747, 0.38973796367645264, -0.5540333390235901, 0.4112846851348877, -0.6177371144294739, 0.529056191444397, 0.5449009537696838, -0.5354660153388977, -0.8762529492378235, 0.2339084893465042, 0.7366275787353516, 0.7969328165054321, 0.03750739246606827, -0.23330967128276825, -0.18143537640571594, 0.38353607058525085, -0.15096484124660492, -0.07247922569513321, 0.0717577189207077, -0.16027593612670898, -0.3152460753917694, 0.03604330122470856, -0.1884670853614807, -0.4423007369041443, -0.7878508567810059, -1.2605013847351074, -0.18152841925621033, -0.0012988371308892965, 0.0515524297952652, -0.15415193140506744, 0.13992314040660858, -0.28952598571777344, -0.10360978543758392, -0.6634411811828613, 0.6419017910957336, 0.42698991298675537, -0.15237613022327423, -1.3275189399719238, -0.6692556738853455, -0.4735400676727295, -0.42851170897483826, -0.6445541977882385, -0.10553468018770218, 0.6592552661895752, 0.7505149245262146, 0.0022179782390594482, 0.17460006475448608, 0.5083691477775574, 0.1442701518535614, 0.8607960343360901, -0.2891975939273834, -0.5342526435852051, 0.3815709948539734, 0.30058637261390686, -0.13028189539909363, 0.6846382021903992, -0.40395066142082214, -0.10260409861803055, -0.504315197467804, -0.2446177452802658, 0.21226684749126434, -0.7586101293563843, -0.9597405195236206, -0.6728764176368713, -0.28451842069625854, -1.7821463346481323, 0.2564617693424225, 0.1153598427772522, 0.24126741290092468, -0.7913773655891418, 0.5041658878326416, -0.22569088637828827, -1.2520642280578613, 0.4289964437484741, 0.21459153294563293, -0.7003275156021118, 0.3120346665382385, 0.8600894808769226, -0.004759783856570721, -0.47127172350883484, 0.007997630164027214, -0.10667304694652557, 0.30221498012542725, -0.5310414433479309, -0.6956363320350647, -0.5593562722206116, 0.6281843185424805, 0.6689237952232361, -0.18885260820388794, -0.5920412540435791, 0.38098010420799255, -0.48270532488822937, -0.01626756228506565, -0.07511980086565018, 1.1630738973617554, -0.5903815031051636, -0.35700178146362305, 0.31417590379714966, -0.5411108732223511, -0.1596786230802536, 0.4369746744632721, 0.22198131680488586, -0.3660840392112732, -0.6051411628723145, 0.5177690982818604, 0.6639007329940796, 0.41346824169158936, -1.0302804708480835, -0.32827627658843994, 0.004892890341579914, -0.1295519322156906, -0.5118748545646667, 0.23763270676136017, -0.11920224130153656, -0.4133666753768921, -0.11264356225728989, -0.9855470657348633, 0.8256626129150391, 0.06607434153556824, -0.4968377351760864, -0.4931693971157074, 0.4051477909088135, -1.4012510776519775, 0.3808354437351227, -0.33832597732543945, -0.8111138343811035, -0.6216710209846497, -0.1621467024087906, 0.39147934317588806, -0.14625921845436096, 0.6346175074577332, 0.427901953458786, 0.19581972062587738, 0.8271509408950806, 0.4007924795150757, 0.4180174767971039, 0.048457834869623184, 0.05554075539112091, 0.5585689544677734, -0.19957832992076874, -0.6888764500617981, -0.25245267152786255, -0.6222690939903259, -0.37872523069381714, -0.027253948152065277, 0.9112377166748047, -1.0804150104522705, 0.4637354612350464, -0.19134707748889923, 0.70510333776474, 0.08505244553089142, 0.37704333662986755, 0.5528189539909363, 0.13282015919685364, -0.7419747114181519, -0.4563342034816742, 0.14325550198554993, -0.4202134609222412, -0.16940809786319733, 0.21878166496753693, -0.40108197927474976, -0.11028087884187698, -0.3475537598133087, 0.4433608055114746, -0.012585802935063839, -0.3232613503932953, -0.17807644605636597, 0.1976722925901413, 0.36020055413246155, 0.272922158241272, 0.13252116739749908, -0.5393840074539185, -0.8242239952087402, -1.252192497253418, 0.8507072329521179, 1.0456914901733398, 0.33287039399147034, 0.48952722549438477, 0.44517502188682556, -1.2153947353363037, -0.5535205602645874, 0.1481768637895584, -0.3025515377521515, -0.2620466351509094, 0.9827941656112671, 0.13889916241168976, -0.2593064308166504, 0.3631618320941925, -0.056617118418216705, -0.6205539703369141, -0.7818743586540222, -0.5374380946159363, -0.10263367742300034, -0.6073286533355713, 0.502711296081543, -0.6279429793357849, 0.5359587669372559, -0.2821148931980133, -0.5531449317932129, -1.0684154033660889, 0.5707430839538574, 0.0016932168509811163, -0.623390793800354, 0.3143291473388672, -0.679826557636261, 0.32301363348960876, 0.02632410265505314, -0.2594628930091858, -0.5743409395217896, -0.2639595866203308, -0.3002513349056244, 1.0126078128814697, 0.4313413202762604, 1.4834681749343872, 0.025492018088698387, -0.6114303469657898, 0.06200942397117615, 0.5894935727119446, -1.3573880195617676, -0.470876008272171, 0.5430973768234253, -0.23954668641090393, -0.03343955799937248, 1.4970451593399048, -0.17151063680648804], [-0.3128427565097809, -0.1440780907869339, 0.2517475187778473, -0.3092897832393646, -0.07237211614847183, 0.2093859314918518, 0.05280660092830658, 0.20268614590168, -0.4300411641597748, 0.04742615297436714, -0.13790693879127502, -0.45043522119522095, 0.0919225737452507, 0.1639491468667984, -0.08190478384494781, 0.3845826983451843, -0.3550882637500763, 0.11439383029937744, -0.005481319967657328, -0.016137951985001564, -0.36738893389701843, -0.1333637237548828, 1.5745693445205688, 0.7895286083221436, 0.20671629905700684, -0.5462576746940613, 0.10374411940574646, -0.33527871966362, -0.236610546708107, -0.6952688097953796, -0.009966539219021797, 1.1202430725097656, -0.42126742005348206, 0.13436082005500793, -0.0783688947558403, 0.22676122188568115, 0.16390174627304077, -0.45653924345970154, 0.7158099412918091, 0.3226834535598755, 0.10689868777990341, 0.09206192195415497, 0.3329523801803589, -0.2256099283695221, 0.19760386645793915, -0.8923288583755493, 0.5992001891136169, -0.6268197298049927, -0.3758363723754883, -0.46776896715164185, 0.12583841383457184, -0.558901309967041, -0.6129246950149536, 0.25516754388809204, -0.05937913805246353, 0.8695114254951477, 1.0591572523117065, -0.07113096863031387, -0.10097235441207886, 0.7399415969848633, -0.11737187206745148, -0.7722854018211365, -1.2779924869537354, 0.1721765547990799, -0.2581774890422821, 0.10703907907009125, -0.5243725776672363, 0.0076089780777692795, -0.0629306435585022, -0.8134141564369202, 0.004978405777364969, 0.02348944917321205, 0.27502378821372986, -0.1050315797328949, -0.12759123742580414, -0.5108728408813477, -0.1830696314573288, 0.06593455374240875, -0.11172602325677872, -0.07442884147167206, -0.05077124759554863, 0.47177132964134216, 0.15301015973091125, 0.1497339904308319, 0.32625293731689453, 0.060513269156217575, 0.8214632272720337, -0.5122330188751221, -0.4968237578868866, 0.1527199149131775, 0.21987392008304596, 0.13805361092090607, -0.8029159903526306, 0.4154488444328308, 0.3225933611392975, 0.2519308626651764, 0.13249608874320984, 0.9409013986587524, -0.557848334312439, 0.3795541822910309, 0.44333332777023315, 0.24310535192489624, -0.2391584813594818, -0.11768830567598343, -1.137218713760376, 0.1509259045124054, 0.07728777825832367, -0.3231825530529022, -0.12975333631038666, 0.2052503526210785, -0.20798589289188385, -0.3054530620574951, -0.21556781232357025, -0.23233594000339508, -0.5443950891494751, -0.826123833656311, 0.20183658599853516, 0.1890261024236679, -0.3220407962799072, 0.4953339099884033, -0.25966203212738037, -0.20985928177833557, 0.13787895441055298, -0.13407880067825317, 0.09050650894641876, 0.15374615788459778, 0.3603356182575226, -0.004401510115712881, 0.36061549186706543, 0.23683513700962067, -0.12223006039857864, -0.12015382200479507, -1.1595361232757568, 0.2818255126476288, 0.17455150187015533, -0.7007709741592407, 0.19724592566490173, 0.3371371328830719, 0.7460190653800964, -0.5006237626075745, -0.47593626379966736, 0.03305085003376007, 0.23148205876350403, 0.47918087244033813, -0.2590334713459015, 0.6336010098457336, -0.07216506451368332, -0.033276960253715515, 0.4475104808807373, 0.006154246628284454, 0.141022190451622, -0.7621679306030273, 0.08671845495700836, 0.0004239112022332847, -0.23972754180431366, 0.04624023661017418, -0.38686898350715637, -0.43206658959388733, -0.2845900058746338, 1.5280182361602783, -0.036907315254211426, 0.06860500574111938, 0.27466294169425964, -0.4647620618343353, 0.0063241757452487946, -0.15967442095279694, -0.020354652777314186, 0.12621799111366272, 0.16554129123687744, 0.4470161199569702, 0.016706407070159912, -0.66346275806427, -0.16835080087184906, -0.46657636761665344, -0.4256373941898346, -0.18906241655349731, 0.5810679793357849, -0.7885796427726746, 0.1795688271522522, -0.19469720125198364, -0.24576686322689056, -0.6546666622161865, 0.2856675386428833, 0.31987282633781433, 0.5154814720153809, -0.43249160051345825, -0.4044983685016632, -0.2678934931755066, -0.02609322778880596, -0.23694099485874176, -0.14619652926921844, -0.18933351337909698, 0.14514347910881042, -0.6806336641311646, 0.6551037430763245, -0.3356594443321228, 0.14288605749607086, -0.3699500560760498, -0.8416051268577576, -0.2280428558588028, -0.05797022581100464, 0.5932263731956482, 0.23857906460762024, -0.4829571843147278, 1.3325194120407104, 0.8487431406974792, 0.09835182875394821, 1.2804971933364868, -0.4666196405887604, 0.25053736567497253, -0.07270538061857224, -0.059753816574811935, 1.0619715452194214, 0.013291467912495136, -0.2852865755558014, -0.8162409067153931, -0.46201640367507935, -0.07507497072219849, -0.31741464138031006, 1.1040328741073608, 0.15766188502311707, -0.6827591061592102, 0.25486183166503906, 0.2267085760831833, -0.387640118598938, -0.17835815250873566, 0.3422006666660309, 0.09487679600715637, -0.23453231155872345, 0.26553189754486084, 0.7122249603271484, 0.25968658924102783, -0.4904446303844452, -0.11089099198579788, 0.0551883764564991, -0.3631163537502289, -0.7717388272285461, 0.4110334813594818, -0.523022472858429, 0.513138473033905, -0.3373345136642456, -0.6462136507034302, -0.39240679144859314, -0.11398813128471375, 0.6145784854888916, 0.09776702523231506, -0.302310973405838, 0.5366291403770447, -0.0067029669880867004, -0.3589690923690796, -0.3417544662952423, -0.14949870109558105, -0.5310899615287781, -0.4445115923881531, 0.2305372655391693, -0.1513451486825943], [-0.3058970868587494, -0.4786618649959564, 0.13951542973518372, 0.2743232250213623, -0.19216780364513397, -0.0010484041413292289, 0.0020400751382112503, -0.11137676239013672, -0.2931945323944092, 0.2419363409280777, -0.42949962615966797, -0.006912217941135168, -0.2736780643463135, 0.09310375154018402, 0.19391058385372162, -0.08834579586982727, 0.22053103148937225, 0.2917301654815674, -0.19906584918498993, -0.07813254743814468, 0.2956521511077881, -0.24377915263175964, 0.045483577996492386, -0.23133693635463715, -0.0030823952984064817, -0.04314013570547104, -0.2550607919692993, 0.3593912124633789, -0.07460524886846542, 0.03169640898704529, -0.19218146800994873, 0.06855978816747665, 0.45803534984588623, 0.3221268057823181, -0.48027098178863525, 0.028913123533129692, -0.0067748394794762135, -0.24046063423156738, 0.09013084322214127, -0.26171520352363586, 0.2438146024942398, 0.09053866565227509, 0.40802493691444397, -0.23118092119693756, -0.4213455617427826, -0.290359228849411, 0.021459147334098816, -0.08866644650697708, 0.37272652983665466, -0.18209366500377655, -0.24230444431304932, 0.06658325344324112, -0.002734348177909851, -0.1859201192855835, 0.24697299301624298, -0.20612142980098724, 0.25420984625816345, 0.3534792959690094, 0.4083986282348633, 0.23076844215393066, 0.05459652841091156, 0.15206585824489594, 0.1734480857849121, -0.3412560522556305, 0.05759330838918686, 0.19424881041049957, 0.15253527462482452, 0.4618836045265198, 0.2614476978778839, -0.19138553738594055, -0.02524753287434578, 0.270687073469162, 0.2343984842300415, 0.14195406436920166, 0.030268490314483643, 0.011523840017616749, -0.37620800733566284, -0.09275572001934052, 0.19540253281593323, -0.3206043541431427, -0.14364218711853027, -0.14441239833831787, -0.3633118271827698, -0.09480147063732147, 0.2568027079105377, 0.05753796175122261, -0.0917336642742157, 0.3034215271472931, 0.06883865594863892, 0.19590504467487335, 0.13589854538440704, 0.06964410841464996, 0.01603129133582115, 0.38505133986473083, 0.007915867492556572, -0.39498937129974365, 0.06912106275558472, 0.3902271091938019, -0.055090900510549545, 0.2144167721271515, 0.05928383767604828, 0.06772491335868835, 0.16506975889205933, -0.22539851069450378, 0.33478423953056335, -0.15876458585262299, 0.30109700560569763, 0.10350144654512405, -0.010664066299796104, 0.02678326703608036, -0.40242326259613037, -0.2434988170862198, 0.3168034553527832, 0.008031646721065044, -0.18647867441177368, -0.192946195602417, 0.38410869240760803, -0.21663641929626465, -0.16112977266311646, -0.013893449679017067, -0.5460818409919739, 0.263021856546402, -0.08173242211341858, -0.04116065427660942, 0.10733284801244736, 0.17411746084690094, 0.07543164491653442, 0.07422708719968796, -0.05790824070572853, 0.03550507873296738, -0.13919594883918762, -0.20886997878551483, -0.04491902142763138, 0.2657809555530548, 0.2868629992008209, -0.019861726090312004, 0.004719239193946123, -0.26006579399108887, -0.029175927862524986, 0.03584624081850052, 0.1444316953420639, -0.3063562214374542, 0.4598082900047302, -0.22658628225326538, -0.09368366748094559, -0.017749428749084473, 0.2324092835187912, 0.05969303473830223, 0.26790931820869446, 0.19463397562503815, -0.0854085311293602, -0.21509873867034912, -0.22367869317531586, 0.06558570265769958, -0.09437697380781174, 0.10045403242111206, 0.25797176361083984, -0.3106316030025482, -0.18646524846553802, 0.07756484299898148, 0.1563599705696106, 0.18215373158454895, -0.2946712076663971, 0.0638836920261383, -0.025112101808190346, 0.1672540009021759, 0.22578299045562744, -0.07957975566387177, -0.1733071655035019, -0.2182096540927887, 0.3578072786331177, -0.04421307146549225, -0.08048918098211288, 0.11900540441274643, 0.02844822220504284, -0.47046375274658203, 0.2695598900318146, -0.1250665932893753, 0.3183728754520416, -0.3036307096481323, 0.012278257869184017, 0.300906240940094, 0.031098295003175735, -0.1461622416973114, 0.12318515032529831, 0.01926577463746071, -0.2971605360507965, 0.0020874710753560066, 0.16866609454154968, 0.08614406734704971, 0.14637912809848785, -0.2936420738697052, -0.017909066751599312, -0.2021348476409912, 0.16283735632896423, 0.1969711035490036, -0.17715246975421906, 0.18700432777404785, -0.19030043482780457, -0.07763198763132095, 0.2339704930782318, -0.1300259381532669, -0.12325222790241241, -0.038315918296575546, -0.0017145131714642048, 0.19009578227996826, -0.05719350278377533, -0.19331219792366028, -0.07244053483009338, -0.4293179214000702, 0.0530923530459404, -0.03535672649741173, -0.23284325003623962, 0.037016693502664566, 0.23771706223487854, -0.0733131617307663, -0.08747948706150055, 0.3418404161930084, -0.09314220398664474, -0.011672486551105976, -0.22768236696720123, 0.06477150321006775, -0.20674437284469604, 0.18633580207824707, -0.35103094577789307, 0.23638798296451569, -0.10872884839773178, 0.14267171919345856, 0.017335642129182816, -0.2642119824886322, -0.06403354555368423, -0.23879823088645935, -0.06565961986780167, -0.0933477133512497, 0.06585603952407837, -0.10065455734729767, -0.010289917699992657, -0.047424618154764175, -0.04365893080830574, -0.10920125991106033, -0.08734423667192459, -0.18412846326828003, 0.045686375349760056, 0.06209000572562218, -0.22067715227603912, -0.13950730860233307, -0.25605347752571106, -0.3438531160354614, -0.023077983409166336, -0.19383399188518524, 0.13258066773414612, -0.2607176601886749, -0.06265150755643845, -0.3303159475326538, 0.22069518268108368, -0.09757285565137863], [-30803.306640625, 110223.2734375, -59514.8671875, -103478.09375, -92500.53125, -98904.0234375, 117037.171875, -114176.84375, 40117.1875, 27433.953125, -67953.1171875, -1303.6240234375, 58483.06640625, -134251.640625, 98015.625, 96172.8828125, 124146.1171875, -20429.064453125, 136545.1875, 39495.07421875, 106325.78125, -99253.6875, 75064.3125, 40684.6171875, 118684.890625, 101959.1875, -20163.123046875, -99144.4296875, 139558.96875, -97160.8125, 64315.7578125, -138431.84375, 21914.455078125, 98363.1171875, 82267.8984375, 143413.59375, 22239.5546875, 83476.3984375, -66102.0234375, -58184.7109375, -90570.59375, 41909.40234375, -16377.203125, -123336.6640625, -57994.203125, 3666.95458984375, -126623.9140625, 97024.671875, -25553.365234375, -74974.21875, 53377.3203125, 88946.484375, 115584.5390625, 31342.41796875, 67220.4375, 29375.521484375, -56116.265625, 57651.453125, 116203.4140625, -68214.234375, 115934.859375, 112219.0703125, 43698.8671875, 50445.109375, -73281.453125, 66152.0859375, -101639.734375, -80060.3515625, -90908.109375, -100975.6328125, -88562.4375, -97449.390625, -127263.7109375, 99132.4453125, -31169.35546875, 30889.3046875, -81376.7109375, -123901.1015625, -16428.4453125, 119924.015625, -114128.15625, 21327.58203125, -105691.5625, -86037.9453125, -101316.1875, 131145.015625, -96765.78125, -2411.8525390625, 142788.96875, -51704.41015625, 40514.0703125, 37207.86328125, 57825.234375, 74652.9296875, 78020.1171875, -140207.0625, -39091.79296875, -54525.7421875, 43137.3515625, 131851.234375, 26318.56640625, -56782.59765625, -44525.9453125, -123621.0859375, -40290.80078125, 3692.04150390625, 3750.02685546875, 119996.6640625, -94197.0390625, 95964.0703125, 82839.5546875, -133045.46875, -78154.9140625, 10975.123046875, 83828.6484375, -81389.578125, -129164.5625, -62884.76953125, -38390.35546875, 8982.2802734375, 55345.14453125, -133946.5, -129443.5546875, 49487.05859375, -99952.3046875, 56230.33984375, 120116.421875, 126563.7109375, -113753.2265625, 134287.734375, -74464.109375, 11081.251953125, 106509.0703125, -108205.171875, -140460.234375, 24734.134765625, -33105.7265625, 74212.9296875, -100073.09375, 118368.4921875, -101930.5859375, 97749.328125, -92316.25, 62035.84375, 64478.49609375, -58240.5625, 88479.7421875, 32657.80859375, 141733.375, -39744.7734375, -42755.51171875, -97892.90625, -143611.125, 109149.625, 110367.59375, -67865.328125, -24792.396484375, 41508.49609375, 31546.4140625, -107659.34375, 11242.9921875, 58649.6953125, -95013.5234375, -144118.765625, 33996.671875, 44812.015625, -123666.3046875, 71051.296875, -130428.4453125, 3281.1875, 69555.7890625, 123896.734375, -52806.6171875, -103038.1640625, 136907.46875, -5982.62353515625, -96779.140625, -61459.7734375, -125222.859375, 83008.1875, -26898.21484375, 52455.74609375, 96019.0625, -137736.40625, -43614.109375, -10638.8759765625, -101744.546875, -38635.4765625, -65883.015625, -124938.234375, 91310.2890625, 38689.609375, -109529.1328125, -115192.40625, 126924.09375, 55352.33203125, 96758.078125, 59856.72265625, 85996.828125, -24260.71875, -132274.765625, 29948.458984375, -68191.1875, -141203.59375, 21643.318359375, 6265.84033203125, 15365.3994140625, -45033.49609375, 31720.369140625, -43224.66015625, -2450.9453125, -133601.8125, -143158.40625, -10487.7353515625, 58706.58203125, -34669.78515625, -134757.875, -51287.84375, -133637.6875, 38566.7890625, 75878.2734375, 138176.921875, 88089.1875, 124802.4375, 144223.65625, 83572.1328125, -137096.328125, 74720.4609375, -104006.6015625, 49634.03515625, 106891.90625, -24837.580078125, -15628.4853515625, 63529.3203125, 128130.390625, 116761.7265625, -22978.0859375, 108170.546875, -112189.234375, 36222.73046875, -70829.78125, -82067.578125, -129474.625, 12061.8095703125, -102515.7734375, 118188.4765625, 18227.232421875, -36647.3828125, -98613.4375, 43013.9140625, -1766.4412841796875, -70875.3125, -47274.94140625, -133160.6875, -63344.046875, 96829.140625], [117134.796875, -7576.51904296875, -103770.0546875, 107736.390625, -12370.3876953125, -51224.9375, 20297.5390625, 85936.5703125, -48257.28515625, -94012.625, -3706.597900390625, -142817.90625, 22743.76953125, -62716.8359375, 66480.21875, -104242.671875, -92859.625, -72405.40625, 57870.109375, -103165.8671875, 49723.78515625, -106500.25, 95257.3671875, 110649.6484375, 29183.56640625, 24202.423828125, 137511.0, 16291.515625, -101497.9453125, -127227.3359375, -44808.30078125, 116277.7109375, -90911.5859375, -63333.20703125, 97948.7890625, -108599.0859375, -55275.76953125, -121849.2109375, -17127.849609375, -15518.6396484375, -41954.69140625, -142205.828125, -71512.328125, 67795.7421875, 127958.5390625, -93691.3515625, 96433.25, 48362.5546875, 136274.359375, -136301.609375, 53338.2578125, -130994.6796875, -60225.21484375, 72202.1328125, 77121.671875, 34351.3984375, -142662.0, -11692.3193359375, -126799.375, -117867.4140625, 123951.2421875, -54034.73828125, -58005.62890625, -32351.36328125, -129481.953125, 15251.630859375, 49751.65625, 22872.748046875, -127518.4296875, -119828.390625, 50216.5390625, -52419.12890625, 141575.734375, 138724.875, -55843.1640625, 135036.03125, -98916.1015625, 108282.1875, -5781.61865234375, 23295.439453125, 4203.931640625, -103234.9296875, 81635.7265625, 55874.203125, -88708.203125, 106151.8671875, 48551.546875, 28059.98828125, 104317.59375, -32078.265625, -56536.75390625, 13244.81640625, 149.31695556640625, 125962.8671875, 18599.580078125, 19485.638671875, -32504.365234375, 103727.828125, -76662.125, 71337.6484375, 84941.046875, -30665.79296875, 107578.859375, 35066.53125, -23134.630859375, 106201.2109375, -29997.498046875, 40462.65625, 75747.3984375, 21995.912109375, 92378.984375, -22596.55078125, 43528.1484375, -83364.8359375, -111635.7734375, -70774.203125, -78565.734375, 43804.546875, -120543.453125, 52728.70703125, -17827.115234375, 47654.37109375, -62599.3828125, -82031.40625, 56621.4453125, 88803.2265625, -18328.8203125, -143106.125, -143272.25, -12061.7060546875, -1344.1622314453125, -95327.7421875, -107626.71875, -136275.546875, 36620.4375, 24413.61328125, 28936.173828125, 38536.81640625, 53964.26171875, 59721.06640625, 86593.0625, 39633.859375, -57486.9921875, 73848.8125, -127299.6328125, -143165.125, -35195.37109375, 113158.0546875, -68921.1796875, -130301.1171875, -123049.046875, 8599.64453125, -117458.7890625, 82594.78125, -36362.34375, 58953.11328125, 49550.20703125, -88827.2109375, -118941.84375, 130506.53125, 87314.4921875, -99907.390625, -141843.015625, 67625.1953125, -104238.4453125, 15603.5361328125, -9798.171875, -84050.921875, 118465.5390625, 122364.0625, 71712.265625, -118611.3828125, -103808.3203125, -13597.546875, 99841.1484375, 141485.578125, 3375.68505859375, -122426.4453125, -118727.6640625, 74748.4375, 11340.6552734375, -103528.4765625, -78378.53125, 128577.6171875, 44024.55078125, 142248.671875, -6328.2998046875, -29610.939453125, -116684.5703125, 133771.875, -102146.109375, 72315.0, 102391.3359375, 41335.125, 114803.5, 77315.34375, -17015.62890625, -55704.30859375, -70151.75, -59595.84375, 73153.609375, 68003.90625, -59539.09375, 77808.890625, 71494.0859375, -89397.8046875, -71938.8046875, -104060.4609375, -15776.90625, 4854.88330078125, 133517.78125, 103808.8984375, 48051.56640625, 56890.03125, 83473.6796875, 91855.875, 47662.4609375, 84875.828125, 35522.5, -14740.98046875, -82053.3671875, -2143.88037109375, 5983.55224609375, -30110.3359375, 27616.92578125, -61284.64453125, -130983.515625, 120960.359375, -137648.71875, -118405.5546875, -127998.6953125, 114467.1875, 59150.3671875, -95749.5703125, 88952.0859375, 51201.640625, -94810.828125, 73315.765625, -121396.78125, -80038.046875, 82285.859375, 71987.7734375, -27241.103515625, 100880.65625, 77021.5703125, -118980.0390625, 97211.6640625, 54615.96875, -87182.171875, -73979.375, 45706.12890625, 59196.65234375, 15150.5947265625, -137548.0625, -16840.01953125, -61086.80859375], [120274.0703125, -41785.03515625, -34421.32421875, 104645.4765625, -71736.625, 90267.5859375, 44435.4375, 6724.80322265625, 55310.1796875, 84659.6171875, -134927.1875, -108411.265625, 101203.3046875, 109365.2578125, -80567.046875, -107414.984375, 69948.921875, -122470.8046875, -22033.318359375, 35465.6484375, -131228.75, 137437.734375, -21638.052734375, -96475.0, -80033.09375, -124852.8203125, 79493.8828125, -68896.640625, 121045.9453125, 100551.765625, 54202.01953125, -61162.30859375, -88255.7109375, 66120.0234375, -78527.15625, -135571.15625, -140316.296875, 74271.3359375, 60031.8515625, 86176.734375, 143795.53125, -85050.9921875, 127271.203125, 54440.26171875, -14622.255859375, 123174.8203125, 31948.42578125, -90868.296875, 5707.1494140625, 2261.12451171875, -87604.5546875, -134895.484375, -31523.771484375, 98710.0, -97523.9296875, 91114.7578125, 72322.0234375, 16441.107421875, 104221.6875, -120229.125, 122148.90625, -78460.84375, 120841.640625, 32182.80859375, -115412.8515625, -21284.53125, -16169.96875, -123971.921875, 68611.640625, -13023.9892578125, 43530.625, 63426.46484375, 2321.79443359375, -2059.08740234375, 77490.6796875, 11493.9296875, -135912.59375, 95071.2265625, -77018.125, 30173.27734375, -95519.7265625, -111627.9296875, -62177.5859375, 130163.640625, 90097.515625, -45806.06640625, -118647.8203125, -123638.703125, -105217.484375, -123728.8671875, 128501.0859375, 44672.75, 89846.75, 22565.9921875, -33925.05859375, 33621.5703125, 136248.4375, -90791.828125, 71303.6171875, 109247.8046875, -117513.6796875, 115780.0, -27997.978515625, 121283.8046875, 43134.4296875, 62639.578125, 121130.2578125, 135092.46875, -71272.578125, 133030.09375, 103434.046875, -100342.6484375, -58755.65625, 23273.037109375, -39516.13671875, 48.59081268310547, -144286.15625, 32834.51953125, 97614.1640625, 92520.28125, 16880.798828125, -56366.9609375, -80093.4609375, 105096.6953125, 141180.953125, -6685.57275390625, 104774.109375, -6468.56591796875, -41950.69921875, 61098.40234375, 81246.96875, 19793.6328125, -143944.6875, 81894.28125, 100874.9765625, 84417.078125, -8490.83203125, 58043.65625, -2441.034423828125, 86968.5390625, -108211.6328125, -28631.37890625, 109658.625, -55415.89453125, 70752.6953125, -87975.3515625, -117034.4765625, -63212.86328125, -122242.1953125, -119216.046875, -70103.953125, -5613.9248046875, -94745.0625, -88049.1328125, 23652.30078125, 35929.12109375, -89568.4921875, -50744.0546875, 65583.28125, 114415.953125, 104048.1796875, -33496.0390625, 93241.1953125, 7665.47607421875, -45346.99609375, -85791.8984375, 86515.9765625, -63083.23046875, -105015.4140625, -137657.90625, -116102.7890625, 2401.322021484375, -87725.546875, -69302.3046875, -5753.12451171875, 96879.7578125, -30968.93359375, 46093.0, -82639.3125, -51312.7265625, 108694.6875, 94146.6640625, 62500.27734375, 129903.2734375, 92087.8125, 116220.203125, -43109.203125, 111852.9921875, 37037.3515625, -103695.34375, 132885.65625, 15496.71875, 53776.81640625, 56468.06640625, 24741.2578125, -90764.640625, -140520.609375, -40508.25390625, 13607.044921875, -94388.828125, -54984.53125, 25526.31640625, -57300.19921875, -97360.0234375, 29043.541015625, 22634.02734375, -74284.3359375, 27167.185546875, -39289.90625, -721.5322875976562, -124546.03125, 25520.53515625, 139290.828125, 57741.47265625, -36129.91796875, 5599.78125, 43394.625, 128225.921875, 50593.9453125, -132699.515625, 43774.98828125, -25965.45703125, 22134.009765625, 63640.06640625, -69860.1328125, 67447.21875, -25030.05078125, -31225.654296875, 73892.6875, -127294.5078125, 60700.38671875, 35884.3515625, -24018.0390625, -15364.951171875, 135345.421875, 20940.541015625, 120981.9375, -140962.5, 137582.140625, 53114.8515625, -77729.3359375, 113439.171875, 116669.703125, 93978.140625, -60346.41796875, 120879.734375, -138754.921875, -139913.328125, -8848.6552734375, -77630.53125, -126413.0625, -58654.859375, -25319.357421875, 13021.3740234375, -35429.06640625, -62270.16015625], [-0.5683380365371704, 0.20133468508720398, -0.8474423289299011, -0.4116964042186737, 0.29620230197906494, 0.6145249605178833, -1.2394922971725464, -1.6791852712631226, 0.0865061953663826, -0.073052778840065, 0.15903660655021667, 0.30831316113471985, -0.21035929024219513, -0.41372570395469666, -0.5437909364700317, 0.0564129613339901, -0.44140690565109253, -0.6262977719306946, -0.534782886505127, 1.1267675161361694, -0.0694592148065567, 0.2588164806365967, 0.280744731426239, 0.17634615302085876, -1.434561848640442, -0.567639946937561, -0.17826803028583527, -0.12157419323921204, 0.38254305720329285, -0.2551794946193695, 0.5035356879234314, 0.5555359721183777, 0.056387823075056076, -0.4055846929550171, -0.1869768649339676, 0.5089818835258484, -1.253943681716919, -0.5376747846603394, -0.009513674303889275, -0.1472305804491043, -0.38632887601852417, -1.353126049041748, -0.6222968101501465, 1.0982158184051514, 0.000595468154642731, -0.16458913683891296, 1.0566390752792358, -0.8467859029769897, 0.2991142272949219, -0.3861190974712372, -0.25912976264953613, 0.618073046207428, -0.6492754817008972, 0.4797115921974182, -1.1218442916870117, 0.8056981563568115, 0.6253090500831604, 0.805023193359375, -0.15256881713867188, -0.06344953179359436, 1.0434678792953491, 0.29388532042503357, -0.37308233976364136, 1.0019729137420654, 0.17833875119686127, -0.7225322723388672, 0.5658005475997925, 0.7980198860168457, -0.31639671325683594, 0.009766031056642532, -0.9717473983764648, -0.8865025639533997, 0.8010014295578003, 0.7606963515281677, 0.4129171073436737, -0.4536707401275635, 0.09218938648700714, -1.1169606447219849, 0.6115164160728455, 0.9976338744163513, 0.4772702753543854, -0.8398280143737793, 1.0775293111801147, -0.9227989315986633, 0.09517478942871094, -0.4013340175151825, 0.8370173573493958, 0.8102297186851501, 0.8930320143699646, 0.47238844633102417, -0.6963388323783875, -0.3768587112426758, 0.38173648715019226, 0.17278991639614105, -0.8077881932258606, 1.108862280845642, 0.3136233985424042, -0.3398790657520294, -0.5348491072654724, -0.5637569427490234, -1.117092490196228, 0.8858230113983154, -0.38517695665359497, -0.29978007078170776, 0.5221230387687683, 0.10395824164152145, -1.0493249893188477, 0.5380471348762512, 0.5263944268226624, 0.22815801203250885, -0.15156997740268707, 0.8829728960990906, -0.7233020067214966, -1.8796498775482178, 0.29590532183647156, -0.5026267170906067, -0.8450545072555542, 0.679062008857727, 0.7845436334609985, 0.6736970543861389, 0.3554571866989136, 0.5160707831382751, -0.295390784740448, -0.7106859087944031, 0.7947852611541748, 0.8679438233375549, 0.4723963439464569, 0.6481139063835144, 0.8471879363059998, 0.6471912860870361, 0.5759170055389404, 0.6742885112762451, 0.06804346293210983, 0.0926888957619667, -0.3878612518310547, 1.1452090740203857, -0.24401672184467316, 0.23824433982372284, -0.727070689201355, 0.5033277869224548, -1.4962620735168457, 0.680688738822937, -0.6497905254364014, 0.013300015591084957, 0.5748376250267029, 0.11698488146066666, -0.22160831093788147, 0.021548815071582794, 0.0961577296257019, 0.07350320369005203, 0.8255318999290466, 0.3704398274421692, -0.7289907336235046, 0.39502406120300293, 0.6216076612472534, -0.03790098428726196, -0.42715704441070557, -0.10748913884162903, -0.5240570306777954, 0.054323747754096985, -0.841383159160614, 0.20811361074447632, 0.4909103512763977, -1.4152735471725464, -0.7504944801330566, -1.3039287328720093, -1.7188122272491455, -1.0260826349258423, -0.21850739419460297, -0.3272038400173187, -0.09690143167972565, 0.5665019750595093, 0.9437872171401978, -0.8693468570709229, 0.3649326264858246, 0.3017023503780365, -0.75201416015625, -0.10372807830572128, 0.5310637354850769, 0.4498150050640106, -1.363926649093628, -0.45019450783729553, 0.7318129539489746, -0.1996559500694275, -0.16021740436553955, 0.3679409921169281, 0.9142684936523438, -0.14540702104568481, -0.01722976751625538, 0.21343234181404114, -1.5919026136398315, 0.6647353768348694, 1.001537799835205, -0.15483872592449188, 0.004173148889094591, 1.1586874723434448, 0.35567185282707214, 0.27549248933792114, -0.925769031047821, 0.17686854302883148, -1.5680361986160278, 0.8544811010360718, -0.4294796884059906, 0.6762446761131287, 0.4889284074306488, -0.6772565841674805, -0.7716014385223389, -0.1618019938468933, -0.7464854121208191, 0.4573959708213806, 1.1213740110397339, -1.7857928276062012, -0.5899825692176819, 0.7592654228210449, 1.5933493375778198, 0.17885710299015045, -0.4410065710544586, 0.4730024039745331, -0.6652527451515198, -0.3172796666622162, -0.8447796106338501, -0.46308815479278564, 0.9797013998031616, 0.43144962191581726, 0.36755552887916565, -0.16922782361507416, 0.9741371870040894, -0.03820687532424927, -0.8386489152908325, -0.3204970061779022, 0.33575817942619324, -0.09559318423271179, -1.4145675897598267, 0.6581453680992126, 1.1614441871643066, 0.7686896920204163, 0.02832208015024662, 0.7879272103309631, -0.6497692465782166, 0.600258469581604, -1.0394856929779053, 0.5129528045654297, -0.300988107919693, -0.17341220378875732, -0.6575788259506226, 0.8230952024459839, 0.5410855412483215, 1.0476454496383667, 0.5715721249580383, 0.029733167961239815, 0.40974879264831543, 0.03359901160001755, 0.4362128973007202, 0.43306294083595276, -0.14263711869716644, 0.9929512143135071], [0.6445634961128235, 0.9674192667007446, 0.8713280558586121, 0.44572728872299194, 0.9029141068458557, 2.2071568965911865, 0.48373177647590637, 1.449576497077942, -1.1664026975631714, 0.4624059498310089, 1.096244215965271, -1.2834182977676392, 1.1052743196487427, 0.45945215225219727, 1.377281904220581, -2.465820789337158, -0.4766356945037842, -0.09212459623813629, 0.06451646983623505, 0.11058153212070465, 0.9034003019332886, 0.15761123597621918, 1.1458193063735962, -0.20926818251609802, -0.48588740825653076, -1.208602786064148, 2.3230478763580322, 1.8973615169525146, -1.1457619667053223, 0.03302402049303055, -0.4405750334262848, 0.2681776285171509, 0.09686058014631271, -0.04344518110156059, 0.059810612350702286, -1.239113688468933, 0.7855775356292725, -2.166883945465088, 2.1085708141326904, -0.25608593225479126, 0.20467936992645264, -1.3625932931900024, 0.23342204093933105, -2.144542932510376, -1.3433135747909546, 0.09805577248334885, 0.6548764705657959, 0.21919213235378265, 1.9168405532836914, -0.014131154865026474, -1.2851389646530151, 0.018025895580649376, 2.1408791542053223, -1.42014479637146, -0.020040512084960938, 0.7160009741783142, -0.10575192421674728, -2.561361074447632, 0.47857779264450073, -0.2441890686750412, -1.4770565032958984, 1.136276364326477, 0.37989741563796997, -0.981365442276001, -0.13661472499370575, -1.2613792419433594, 1.8139418363571167, -0.9632420539855957, 1.065007209777832, 0.7004469037055969, -1.7000046968460083, -1.5152963399887085, -0.5712951421737671, 0.1656893938779831, -1.3691617250442505, -0.8262264132499695, -1.9547388553619385, 1.4159172773361206, 1.9553700685501099, -0.8809477090835571, 1.0493501424789429, -0.25860080122947693, -0.5017067790031433, 0.4530784785747528, 1.434159517288208, 0.0007528725545853376, 0.0843166708946228, -0.8808517456054688, -0.5133044719696045, 0.409391313791275, 1.4212267398834229, -0.06434942781925201, 1.6996519565582275, -0.29431289434432983, 1.2328730821609497, -0.81747967004776, 1.2170796394348145, 0.8764590620994568, -1.0391472578048706, 0.8695946335792542, 0.8151415586471558, -0.07981490343809128, 1.9999313354492188, 0.5385542511940002, -0.6734522581100464, 0.8144866228103638, 1.546281337738037, -1.4334044456481934, -0.8306494951248169, 0.33125847578048706, 1.5617645978927612, -0.2263081669807434, -1.8218505382537842, -1.1920260190963745, -1.369429349899292, -0.481580913066864, -0.17058849334716797, 0.38233843445777893, -0.7688184976577759, 0.6400365829467773, 0.9763912558555603, 0.347402960062027, -1.1134443283081055, -2.1757640838623047, 0.08512800931930542, 1.021978735923767, -0.07846273481845856, -1.8607381582260132, -2.2406623363494873, -0.05789068341255188, -1.48130202293396, 1.721031904220581, 0.6469622254371643, -0.8337834477424622, 0.6820936799049377, -1.3210958242416382, -1.4656577110290527, -1.8856332302093506, 0.7271144986152649, 1.3233189582824707, -0.7064725160598755, 0.25371813774108887, 1.1729578971862793, 0.8567855954170227, 0.651774525642395, 1.3180713653564453, 1.140796422958374, 0.43585696816444397, 0.25956761837005615, 1.538827896118164, -1.3104902505874634, 0.5751839280128479, 1.300309181213379, -0.8231981992721558, -1.3913016319274902, -1.6575528383255005, -0.5439766049385071, 0.17959290742874146, -0.992445170879364, 0.7290339469909668, -0.25779786705970764, -0.9625210165977478, -2.1942942142486572, 0.7723982334136963, 0.12389632314443588, 0.6994237303733826, -1.2955881357192993, -0.19029398262500763, -0.1307666152715683, -0.7093207836151123, 0.030632182955741882, 0.6227121949195862, 0.909089982509613, 0.8997460603713989, -0.09954746812582016, 0.8787980675697327, 1.2407718896865845, 2.2043027877807617, 0.7588580846786499, 0.18461203575134277, -0.5782509446144104, -1.1090306043624878, -1.6388394832611084, 0.14586392045021057, 0.17953912913799286, 2.2220635414123535, 0.1020355150103569, 0.6706156134605408, 0.6846044659614563, 0.793150007724762, -0.08240348845720291, -0.6175163388252258, -1.9155676364898682, -1.28604257106781, 1.4467248916625977, -0.06749146431684494, 0.2962872385978699, 0.9787658452987671, 0.11566799879074097, 1.1763403415679932, 0.25748759508132935, -0.030902763828635216, 1.3001041412353516, -0.7438262104988098, 1.2429860830307007, 0.9079881906509399, -1.8805351257324219, 0.01318665873259306, -1.0811443328857422, -1.674944519996643, 0.1490490883588791, 0.08084487169981003, 0.07571407407522202, -0.29376471042633057, -1.0673351287841797, -1.8113017082214355, -1.2620209455490112, 0.8535600304603577, -0.049088433384895325, 0.5681358575820923, -0.8910228610038757, 1.107865810394287, 0.5228223204612732, 1.4516808986663818, -1.081429362297058, -0.1136392131447792, 0.051724378019571304, 0.7437701225280762, 0.22097434103488922, -0.8552330732345581, 0.60944664478302, -0.8770758509635925, 0.8951341509819031, -0.14207059144973755, -0.9401933550834656, -0.5861836075782776, 0.1916632354259491, 0.7602240443229675, -0.8335965275764465, -1.235122799873352, -2.2593650817871094, 0.9378181099891663, 0.16631822288036346, -0.7285506129264832, -0.15716685354709625, 0.9995725154876709, -1.4678109884262085, 0.7557074427604675, 0.9661511182785034, 0.31082263588905334, -0.8334365487098694, 0.3529163897037506, -0.7507042288780212, -0.15572595596313477, 1.312243103981018, -0.09210462868213654], [-15367.326171875, 125750.171875, 127839.21875, -22142.40625, -117012.3203125, 78727.4765625, -45370.328125, 104726.96875, 124315.8828125, 17789.5703125, -6280.1220703125, -77918.8125, -138458.859375, 39771.375, -115536.1796875, 89958.8046875, 133804.984375, 88271.3359375, 100971.53125, -103571.3828125, -17756.36328125, 3016.484619140625, -20551.849609375, 17659.490234375, -26783.79296875, -11102.69140625, 135196.09375, 5058.95068359375, -23431.54296875, -85069.78125, -35382.265625, -116309.125, 13278.1962890625, 53843.54296875, 1193.3311767578125, -71651.1484375, 103111.9765625, -25215.5, 71457.2265625, 92127.390625, 43529.625, -23720.05859375, -116364.7421875, -144161.09375, 50310.8984375, 105153.3046875, -66313.0703125, 106531.921875, 162.0152587890625, 72251.578125, -111048.140625, -53298.78515625, -29983.009765625, -41231.95703125, 134598.140625, -104373.4140625, 20116.322265625, -50297.82421875, 100269.0, 128601.328125, 37257.96875, 51901.6328125, 61551.65625, -98265.9375, -3428.02685546875, 67405.953125, 124415.265625, 9526.96484375, 38549.99609375, 92731.0234375, 85420.2421875, 69095.6875, 64409.76953125, -101916.3046875, 130537.4375, 26597.7578125, -1274.373291015625, -127155.6875, 55408.8046875, 51765.59375, 62071.49609375, 40622.0234375, -564.8165893554688, 48552.02734375, -44955.72265625, 89169.3359375, 46051.98046875, -140557.1875, 60632.62890625, -41202.91015625, -136724.328125, 99894.8984375, -75131.9609375, 38590.5703125, 2386.318359375, 113711.96875, 80832.78125, -84619.4921875, -79486.0078125, 108005.1953125, 63833.83984375, 83001.40625, 38530.86328125, -32642.56640625, -31370.2890625, 107002.4765625, 136896.328125, 38959.12890625, -117120.6875, -31134.529296875, -13491.1767578125, -8761.900390625, 1172.9931640625, 74817.2578125, -126497.09375, 132321.015625, 16061.53515625, -59866.73828125, 113637.703125, 106384.734375, 49182.71484375, 133429.859375, -4647.58056640625, 96505.9296875, 17741.291015625, -40142.37890625, 4556.31787109375, -67022.078125, 77019.953125, 15849.724609375, 143113.8125, 46923.7890625, 128433.4375, -121674.734375, 64307.0859375, -24444.171875, -93562.78125, 85173.8046875, -36970.93359375, 34941.4765625, 124647.7890625, -105396.6328125, 143906.578125, 52703.9609375, -57708.1640625, 137036.71875, -136082.6875, -36467.61328125, -7601.15869140625, -104433.875, 142502.0, 111726.484375, -8691.5615234375, -83804.96875, -104178.21875, -15745.9697265625, 89196.25, 9423.830078125, 24010.1953125, -138775.265625, -57438.67578125, 99346.7421875, -24634.95703125, 75613.328125, 121708.25, 5878.80029296875, -76306.0234375, 118637.2578125, 59971.796875, 44538.64453125, -95600.3203125, -86777.203125, 93264.453125, -94925.3203125, 2344.197021484375, 34670.54296875, 118170.2109375, 27953.447265625, -46823.85546875, -8676.041015625, -119169.859375, -111326.296875, 24860.326171875, -84108.6015625, 129323.421875, -81903.5703125, 32512.27734375, -131219.15625, -125291.8984375, -26170.212890625, 54613.59765625, -94119.921875, 32827.94921875, 33587.1953125, 68102.8828125, 95651.421875, 40082.15625, 60419.09765625, 28279.302734375, -89141.7421875, 77920.15625, 9802.19921875, -76693.7109375, 130321.828125, -38573.70703125, -89005.1875, 70856.765625, -44347.75390625, -73285.890625, 132141.828125, 115422.421875, -28552.609375, 63707.26953125, 141339.25, 133106.09375, 11250.3212890625, -41545.8671875, -22182.705078125, 69013.0703125, -22969.517578125, 24390.626953125, -126388.8046875, 6104.75439453125, -90740.5546875, -28000.59375, 67100.8828125, -4783.4423828125, -112407.375, 84716.734375, -49165.81640625, 138405.25, 83934.984375, -8695.0029296875, 63769.31640625, -24782.140625, -115775.4921875, -27003.861328125, 43068.15234375, -10395.0615234375, -109516.53125, -52930.9140625, 143623.703125, -29729.9375, -44845.15625, 40593.32421875, -143459.03125, 16727.111328125, -86227.59375, -88027.390625, 120379.1953125, -3408.205078125, -59290.2890625, 24793.1875, 440.00152587890625, 59487.88671875, 60904.2109375], [-0.33125412464141846, 0.14957772195339203, -0.5359660983085632, 0.2855171859264374, -0.5522839426994324, 0.2576352059841156, -0.009234569035470486, -0.13606944680213928, -0.1497163623571396, 0.07460451126098633, -0.060001030564308167, 0.48036131262779236, -0.3904065489768982, 0.2715092599391937, -0.1834949553012848, -0.12143918126821518, -0.0814652144908905, 0.7587380409240723, 0.24378632009029388, 0.15506796538829803, 0.09939025342464447, -0.67686927318573, 0.2070702612400055, -0.15038979053497314, 0.0303631704300642, 0.10268620401620865, -0.3136204779148102, 0.32530224323272705, -0.625565767288208, 0.12460201978683472, -0.12394145131111145, -0.20095700025558472, 0.2770799994468689, -0.6296473145484924, -0.21922394633293152, 0.1202121376991272, -0.7712334394454956, -0.09303920716047287, -0.3195290267467499, -0.5698776245117188, 0.3884267807006836, 0.3464409410953522, -0.11303798854351044, 0.3268546164035797, -0.1598922610282898, -0.08213885128498077, 0.19179315865039825, 0.554434061050415, -0.037970252335071564, -0.5819173455238342, -0.29307445883750916, -0.03059319593012333, 0.07382459938526154, -0.445002019405365, 0.665431797504425, -0.2619762420654297, 0.6326175928115845, 0.20937085151672363, 0.4490145444869995, 0.4121370017528534, -0.3420633375644684, 0.606972873210907, -0.04600997641682625, -0.3763755261898041, -0.22936739027500153, 0.1915869116783142, -0.3102831542491913, 0.4070933759212494, 0.4262440502643585, -0.6156507134437561, 0.4016646444797516, 0.7077835202217102, -0.29055729508399963, 0.27006036043167114, 0.1895149201154709, -0.00045566438348032534, -0.390356183052063, -0.640505850315094, -0.24639664590358734, -0.31882214546203613, -0.4980807900428772, -0.11661436408758163, -0.0818859338760376, -0.3112548291683197, -0.3339272439479828, 0.35847699642181396, 0.222416952252388, 0.061981938779354095, 0.2286323755979538, 0.44309940934181213, -0.3091583251953125, -0.11602345108985901, 0.10974626988172531, 0.3059573173522949, 0.27639147639274597, -0.275983989238739, -0.2216789871454239, 0.1295267939567566, -0.11590195447206497, -0.10092834383249283, -0.07659629732370377, -0.02704121731221676, -0.19736778736114502, 0.4727383553981781, 0.18998847901821136, -0.4623696804046631, -0.11337688565254211, -0.219390869140625, 0.013330328278243542, -0.2541239857673645, -0.015424500219523907, 0.14039385318756104, 0.5150251388549805, -0.021848149597644806, 0.29804903268814087, -0.3430178463459015, 0.036035917699337006, -0.11523284763097763, 0.276650071144104, 0.10992759466171265, -0.32513171434402466, 0.1848849207162857, 0.6519758105278015, -0.30624446272850037, 0.23471398651599884, -0.2406090945005417, 0.06301175802946091, -0.03790837526321411, 0.012139336206018925, -0.1974819004535675, -0.3044973313808441, -0.24514588713645935, -0.48431894183158875, 0.29679325222969055, 0.15956734120845795, 0.17320401966571808, -0.09041644632816315, -0.14583523571491241, 0.073485367000103, 0.2694692611694336, 0.6262117624282837, 0.4094965159893036, 0.33329254388809204, -0.19126452505588531, 0.13856108486652374, -0.08545899391174316, -0.1723238080739975, 0.003251038957387209, 0.36784058809280396, -0.26990726590156555, 0.3522408902645111, -0.505085289478302, -0.5232467651367188, 0.21509453654289246, 0.33029332756996155, 0.052503131330013275, 0.10043933987617493, -0.4347912073135376, -0.089851014316082, -0.35410577058792114, 0.03498929738998413, 0.5927094221115112, -0.4368066191673279, 0.3721591532230377, -0.3360193967819214, -0.08660385757684708, 0.03740377351641655, -0.23810632526874542, -0.7574689388275146, -0.40632808208465576, 0.4146495461463928, 0.7113224864006042, -0.10167475789785385, -0.11154018342494965, 0.3818998634815216, 0.044314756989479065, -0.15274441242218018, -0.25326427817344666, 0.4465447664260864, -0.3677356541156769, 0.01650732010602951, 0.42990928888320923, -0.059378866106271744, -0.47733354568481445, -0.15804454684257507, -0.19122104346752167, -0.37078529596328735, 0.1279100626707077, -0.12345074862241745, 0.6646596193313599, 0.0704730898141861, -0.5993640422821045, -0.0844544991850853, 0.3154889941215515, 0.20913223922252655, 0.4044652581214905, -0.17200858891010284, 0.08733336627483368, 0.583895206451416, -0.32887542247772217, 0.23664705455303192, 0.30925253033638, 0.1862168163061142, -0.024543743580579758, 0.0107899634167552, -0.32424119114875793, -0.14743834733963013, 0.09333110600709915, 0.30903440713882446, -0.12381362169981003, -0.26306387782096863, 0.09380604326725006, -0.48670029640197754, 0.21607014536857605, 0.28612008690834045, -0.19893376529216766, -0.11948416382074356, 0.43062105774879456, -0.20655296742916107, 0.03356539458036423, -0.18819424510002136, 0.015773382037878036, -0.20844751596450806, -0.11326255649328232, 0.0009956753347069025, 0.14271342754364014, 0.030011160299181938, 0.5091890692710876, 0.012537749484181404, 0.014418491162359715, -0.06689374893903732, -0.31524360179901123, 0.2012408971786499, 0.19575732946395874, -0.1748773604631424, 0.15538354218006134, 0.24530428647994995, -0.3440835177898407, 0.17324182391166687, 0.35966989398002625, 0.4798316955566406, -0.2560536861419678, -0.5009673833847046, -0.15649154782295227, 0.035127125680446625, -0.1905190497636795, 0.11820972710847855, 0.2381943315267563, -0.06298672407865524, -0.3795017600059509, 0.3619244694709778, -0.5834518074989319, -0.01916448585689068, 0.3210817575454712, 0.14305393397808075, 0.19061610102653503], [1.2597854137420654, 0.317142516374588, -0.40224185585975647, -2.1210412979125977, 0.6679819226264954, 0.8004310727119446, 1.7685819864273071, -1.2425732612609863, 1.652638554573059, -1.1471978425979614, 0.43018895387649536, 0.6612051725387573, 0.5554092526435852, -0.466927170753479, 0.32263267040252686, -1.7191027402877808, 1.1932333707809448, -1.15134596824646, -1.3115147352218628, -0.3652818500995636, -1.4642291069030762, -0.5086264610290527, -0.7420663833618164, -2.25335955619812, -0.1455739289522171, -0.8162844777107239, -1.3434487581253052, -0.6423739194869995, 0.23051051795482635, 0.5167158842086792, 1.830798625946045, -0.29748469591140747, -1.4028891324996948, -0.7488718032836914, 1.1351531744003296, 2.4805033206939697, 1.3808276653289795, -1.8644877672195435, 1.714167594909668, -0.648666501045227, -3.1490159034729004, -0.8864163756370544, -0.9630882740020752, -2.158576250076294, 1.1076513528823853, -1.303736686706543, -0.05943692848086357, -1.1768488883972168, 2.606933355331421, 0.5299517512321472, -2.2653987407684326, 1.2587270736694336, 2.053396463394165, -1.8166069984436035, -0.12048911303281784, 1.8701399564743042, 1.6697731018066406, -1.4807759523391724, 1.436075210571289, 0.5962385535240173, -0.5548945069313049, -1.303792119026184, 0.4704739451408386, -1.174825668334961, -2.6344263553619385, 0.9280824065208435, -0.9799427390098572, -1.0069725513458252, -0.6856801509857178, 3.2108802795410156, -0.8526212573051453, -0.9304564595222473, 0.3277254104614258, -1.4697312116622925, -0.2809211015701294, 0.2489839792251587, 0.1672452837228775, 0.8659123778343201, -0.583447277545929, 1.4980125427246094, 0.44968122243881226, 1.502758264541626, -1.8792208433151245, -0.7530217170715332, -0.2227420210838318, -0.6124511957168579, -2.9312350749969482, -2.1819660663604736, -1.288318395614624, 1.339220404624939, 1.8778111934661865, -0.681141197681427, -1.8207604885101318, 1.4492133855819702, 0.4283559322357178, -0.6274172067642212, -1.0533565282821655, 1.6387341022491455, -2.2528891563415527, -2.357795000076294, -2.282485008239746, 0.5294395685195923, -0.02922552265226841, -1.4362341165542603, -0.5802386403083801, 3.0687782764434814, -0.30367913842201233, 1.4459596872329712, -0.7834879159927368, 1.7889615297317505, 1.665870189666748, 0.858221173286438, -2.443524122238159, 2.8292806148529053, 1.069974422454834, -1.1436896324157715, 0.1581646203994751, 0.29754382371902466, -0.45458826422691345, 0.027892127633094788, 0.7126269936561584, 2.3728690147399902, 0.656006932258606, -1.332673192024231, -2.1020400524139404, 1.9088040590286255, 0.6585093140602112, -1.6468826532363892, 0.7355619668960571, -0.48282942175865173, 0.8125544190406799, -0.2545490860939026, 0.2812558114528656, -2.0286290645599365, -2.3473117351531982, 1.2304301261901855, -1.7575879096984863, 0.17269417643547058, 1.0800169706344604, -0.7635591626167297, 0.5256989598274231, -0.05818573012948036, 0.9549921751022339, -0.3756444752216339, -0.8926708698272705, 1.6422690153121948, -0.08971240371465683, 0.4479330778121948, 0.6071019172668457, 2.2301948070526123, 0.21870219707489014, -0.8328132629394531, -1.4870773553848267, -2.163987636566162, -2.7109692096710205, 1.016883373260498, 0.22619090974330902, -1.3315449953079224, -1.368127465248108, 1.787193775177002, 0.7167724370956421, -1.001596212387085, -2.229726791381836, -0.7334024310112, 2.2898499965667725, 1.1421715021133423, -0.291439414024353, 0.478346049785614, 0.28279802203178406, 2.7436273097991943, -2.6350669860839844, -1.3827855587005615, -0.5857064127922058, 0.9593074917793274, 0.03577509522438049, -0.7136241793632507, 0.9765594005584717, 0.05329470708966255, 2.086578130722046, -1.042283296585083, -1.892277717590332, -1.0095813274383545, 0.2567039132118225, 0.5795063376426697, -1.0520488023757935, 1.5110431909561157, 1.0115786790847778, 0.6823651790618896, -0.23398250341415405, 0.4212712347507477, -2.486567974090576, -0.3470905125141144, -0.2615470886230469, -0.546271562576294, -1.057190179824829, -1.4099774360656738, -1.2153669595718384, -1.4614664316177368, -0.4114813804626465, 0.2491077482700348, -1.9091413021087646, -2.279175281524658, 0.41033172607421875, -0.315294474363327, 2.8100380897521973, -0.8762567043304443, -2.0164740085601807, 0.683458685874939, -1.4825289249420166, -2.355632781982422, 0.7039726972579956, -0.10066984593868256, -0.5760330557823181, 0.20545430481433868, 1.5258244276046753, 0.6097282767295837, 0.7989551424980164, -0.22737139463424683, -0.7210038304328918, 0.3793748617172241, -0.06727758049964905, -0.1650295853614807, -0.8638791441917419, -0.7765929102897644, 0.018141813576221466, 0.9598965048789978, 0.13940106332302094, -1.2736726999282837, 1.2879799604415894, 1.0697401762008667, -2.1054975986480713, 0.7708046436309814, 1.20417320728302, 0.19065891206264496, 1.5912060737609863, 1.428305983543396, 2.573003053665161, -0.16999351978302002, -0.6615176796913147, -0.04833493009209633, -0.7738863229751587, -1.223799228668213, 1.5457324981689453, 0.4007285237312317, -0.9182957410812378, 0.8960615992546082, 0.10610838979482651, -0.32200175523757935, -1.01298189163208, 1.324249267578125, -1.6386198997497559, 2.016818046569824, 1.2037934064865112, 0.055194199085235596, -1.5240734815597534, 0.08451864868402481], [122987.5859375, -125343.3671875, 22884.79296875, 81866.1953125, 45671.19921875, 118382.4296875, 113221.9296875, 137391.3125, 70437.234375, -55947.64453125, 2838.8115234375, -6893.4599609375, 121685.296875, -35911.328125, -125583.0546875, -143936.75, -86466.046875, -6557.66064453125, 111590.9375, -40447.82421875, 13397.6435546875, 61400.9609375, -71416.6875, -113676.6875, -73202.203125, 139838.65625, -112495.578125, 94709.03125, -16524.9375, 123439.0703125, -70988.3203125, 2228.707763671875, -90.43672943115234, -69227.2109375, 25713.486328125, -71277.421875, -78198.859375, -88541.2421875, -82183.375, 40285.671875, 60906.37890625, -42283.91796875, -74458.75, -65671.5859375, 15361.2353515625, 25.74074363708496, 51669.41015625, -51722.26953125, -2573.833251953125, 11133.146484375, -108273.3046875, -5350.3232421875, 122447.7109375, 17034.76171875, 101362.296875, 55718.5546875, 54656.54296875, 88487.2734375, 74418.578125, -9488.4580078125, 119596.3359375, -25872.990234375, -121454.625, -64680.49609375, 121617.3359375, 5421.72998046875, 33473.08203125, 31097.53515625, -118518.609375, 112513.578125, -44179.33984375, 120960.53125, 99996.65625, -15765.0, -134796.9375, -10579.5146484375, 83191.734375, -29602.4375, 142851.703125, 630.02880859375, 62765.5703125, -15072.0986328125, -8780.689453125, -44798.421875, -31734.927734375, 113885.1328125, -12815.7919921875, -65315.44921875, -59183.609375, -69818.8359375, -121192.375, 13667.54296875, 45447.859375, -21455.5625, -31237.767578125, 22276.822265625, 41328.9296875, 127197.6640625, -51067.94921875, -106815.890625, 77371.4375, -31477.037109375, -86499.1484375, -93352.03125, 10375.65234375, -132160.578125, -25286.87109375, -140143.828125, -127194.1640625, -72256.0546875, 9270.6591796875, 100883.6484375, 72595.3671875, -4255.275390625, -55335.5078125, -45643.22265625, 71723.3828125, 9124.0263671875, -128653.15625, -48140.66015625, 20635.197265625, -82284.34375, 43251.60546875, 107529.546875, -132781.515625, -106702.2890625, -133265.640625, 32852.3125, -128934.0390625, 131081.359375, 92045.28125, 31521.123046875, 65305.08984375, -92292.09375, -17379.611328125, 84173.8125, 46139.28125, 87564.2578125, 85444.953125, 96058.46875, -68284.9609375, 102956.671875, -6658.9716796875, -74501.796875, 91728.8203125, 38594.4921875, 9714.9619140625, 31937.892578125, 84520.453125, 25111.23046875, -111336.4140625, -133794.796875, -60034.5, 100394.8125, -15874.087890625, -9574.1455078125, 5284.18212890625, 97894.1796875, -91336.546875, -2184.556396484375, 108570.734375, 21028.052734375, 56383.85546875, 61932.0859375, 106909.6328125, 140015.625, -117593.2421875, 69501.8984375, -88773.5234375, -107859.765625, 112672.8046875, -100200.3828125, 98899.1640625, -137722.5625, 53987.38671875, -83860.6875, -76027.4140625, 102310.578125, 67268.75, -36636.6796875, 64321.5703125, 28023.03125, -124517.75, -76782.7109375, 52522.98828125, 75734.6328125, -27344.720703125, -76200.515625, -51278.3125, -51433.37890625, 11527.826171875, 74145.9375, -49607.84765625, -49476.6640625, -99013.484375, -7135.072265625, -42952.8671875, 88848.3671875, 141503.046875, 53972.00390625, 41609.875, 50868.6640625, 82230.484375, 55587.3046875, -108863.4140625, 114050.2109375, 124812.453125, -32020.51953125, 137603.84375, 78187.265625, -121078.671875, 11838.16015625, -74057.25, 104777.421875, 40411.03515625, -49529.55859375, -52114.12890625, -27870.822265625, -28139.345703125, 52059.30859375, 125741.9140625, 53226.453125, -23155.44921875, 118906.3984375, -45471.5703125, 12019.5849609375, -75181.2109375, -133718.140625, 54778.5, 53735.10546875, -100067.234375, -92363.2890625, 141372.59375, -92237.75, -17585.400390625, 29212.818359375, 67598.0859375, -45176.99609375, -26146.572265625, 39218.84375, -132483.328125, 105129.6640625, 107071.609375, 45158.8984375, 55704.48046875, 102869.7109375, 44756.61328125, -139134.625, 135241.0625, 97851.15625, 55888.51953125, -135386.53125, 25122.689453125, 56699.453125, -97925.8046875, -4302.0419921875], [-0.46143636107444763, -0.19345618784427643, 0.7986395955085754, -1.5567225217819214, -0.17914970219135284, -0.1490909308195114, 0.6367131471633911, -0.007717091590166092, 0.12495902925729752, -1.2226964235305786, 0.13124097883701324, 0.8165738582611084, -0.3522375524044037, 0.6528357267379761, -0.27203842997550964, -0.33490410447120667, -0.11695525795221329, -0.02248973771929741, -0.17225950956344604, 0.23794406652450562, -0.6753581762313843, 1.0144500732421875, -0.49089136719703674, 1.1936862468719482, 0.9926966428756714, -0.424855500459671, 0.8143755793571472, 0.9437646865844727, -0.9833633899688721, -0.04890151694417, -1.4747098684310913, -0.7770296335220337, -0.01681249402463436, 0.3802843391895294, -0.20264504849910736, 0.09985598921775818, -0.4409835934638977, -0.3136160969734192, -0.5773963928222656, 0.6024278998374939, 0.2489408403635025, -0.05559689179062843, -0.32521170377731323, 0.12989012897014618, 0.2844035029411316, 0.42774927616119385, 0.03390274569392204, 0.9057981371879578, -1.7831008434295654, 0.05159459635615349, 1.1980531215667725, -0.5254542827606201, 0.5930153727531433, -0.4929162859916687, -0.8634792566299438, -0.012378724291920662, 0.06988243013620377, 0.004987310152500868, -0.585022509098053, -0.7524780631065369, -0.20727746188640594, -0.26130133867263794, 0.8759502172470093, -0.6712161898612976, 1.0683202743530273, 0.28642597794532776, -0.6176397204399109, 0.15798096358776093, -0.12643685936927795, 0.3222355842590332, -0.6968545317649841, -0.48032981157302856, 0.9241549968719482, -0.8173730373382568, -0.8876348733901978, -0.19013291597366333, -0.21873120963573456, -1.1154552698135376, -0.34582456946372986, 0.7963178753852844, -0.14527855813503265, 1.429669737815857, 1.4885175228118896, 1.024620771408081, -0.6380286812782288, -0.1318053901195526, -0.4068271219730377, 0.27819371223449707, 0.337201327085495, -0.030005179345607758, 0.15398594737052917, 0.820681631565094, 0.6124288439750671, -0.5422208309173584, 0.9143134355545044, 1.0714669227600098, -0.7575348615646362, 0.6751948595046997, -0.6209612488746643, -0.18006907403469086, -0.3269806504249573, -0.7161049246788025, -0.7580946683883667, 0.08546119183301926, -0.061155494302511215, 0.4471222460269928, 0.2833808958530426, -0.676904559135437, -0.3858429789543152, 0.33683839440345764, 0.14365123212337494, 0.46443188190460205, 0.5628769397735596, 0.7786278128623962, -0.1426926702260971, 1.012341022491455, -0.19035571813583374, 0.40246930718421936, -0.9698027968406677, -1.2771475315093994, 0.3350240886211395, -0.07014196366071701, -0.9616360664367676, 0.24111539125442505, -0.7366952300071716, -0.6837926506996155, 0.50588458776474, 0.33417457342147827, -0.12130093574523926, -1.290162444114685, 0.6660560965538025, 1.1349852085113525, -0.17734619975090027, 0.32806551456451416, 1.4433550834655762, -0.7169859409332275, -0.8771510720252991, 0.04250397905707359, 0.5700613856315613, 0.22636623680591583, 0.1333627700805664, -0.9106939435005188, -0.04246058687567711, 0.8624715209007263, -0.634402871131897, 0.828832745552063, -1.1214097738265991, -0.09965381026268005, -0.5493254661560059, 0.00912397913634777, -0.7333571910858154, -0.41837289929389954, 0.2572915852069855, -0.35137489438056946, 0.10112646222114563, 0.5279603600502014, -1.4162052869796753, 0.04428446292877197, -2.139509439468384, 0.6988239884376526, 0.35038700699806213, 0.06502658128738403, -0.39130911231040955, 0.7731145024299622, -0.2588159739971161, -0.07107950747013092, 0.2124253213405609, -0.04930084943771362, 1.1101748943328857, -0.4618384540081024, 0.5916382670402527, 0.24055232107639313, 0.550929069519043, 0.7152652144432068, -0.5711449384689331, 0.003145969705656171, -0.6932007074356079, 0.923032820224762, -0.09887125343084335, 0.38375070691108704, 0.04208684340119362, 0.0076278746128082275, -0.9778550863265991, -0.5119948983192444, 1.0425423383712769, -0.03406670317053795, 0.35351887345314026, 0.33989420533180237, 1.5641146898269653, -0.5433973073959351, 1.3153735399246216, -0.23205119371414185, 0.006958434358239174, -0.7182626128196716, 0.22425442934036255, 0.07985460758209229, 0.4377003014087677, 0.5742270946502686, -0.05823350325226784, -0.5766472220420837, -0.7312151193618774, -0.6165499091148376, 0.6376811265945435, 1.0773019790649414, 0.6735608577728271, 0.8925603628158569, 0.044549912214279175, -0.26839208602905273, 0.7828624844551086, 0.29095664620399475, 0.8987655639648438, 1.1153380870819092, -0.8505690693855286, -1.8430837392807007, -0.2930549681186676, -0.9015428423881531, 1.52410089969635, -0.6091708540916443, 0.2578907310962677, -0.3140670359134674, -0.7295259237289429, 0.5764349102973938, -0.13583888113498688, -1.5612943172454834, 0.1989944577217102, -0.9746987819671631, 0.24121876060962677, 0.6568284034729004, -0.32365402579307556, 0.13223160803318024, -0.031022051349282265, -0.11348814517259598, 1.2223570346832275, -1.1065425872802734, -0.006668829824775457, -0.07340511679649353, 1.0832287073135376, -0.3577789068222046, 0.6395159959793091, 0.3426732122898102, -0.16476504504680634, 0.1153910830616951, 0.27846771478652954, -0.16640205681324005, -0.332100510597229, 0.6056061387062073, -0.7743410468101501, -0.5488082766532898, 1.353041648864746, -0.00451916828751564, -0.06628668308258057, 0.4196850061416626, 0.06452564895153046, 0.01692279241979122, -0.19580478966236115, -0.8408664464950562], [-2.080402374267578, 0.508527934551239, -0.8051153421401978, -1.3848416805267334, 0.3478012681007385, 0.6970452666282654, 3.0137369632720947, 2.0782713890075684, 2.458855628967285, -0.2848193049430847, -0.4981413185596466, -0.8900177478790283, -0.38701364398002625, -0.5222023129463196, 1.313279628753662, 0.6950619220733643, 0.3214600682258606, 1.0540156364440918, -0.31505563855171204, -0.6897671818733215, -1.122855544090271, -0.5020007491111755, 2.718919277191162, 1.0534007549285889, 1.986303687095642, 2.4926915168762207, -3.9849512577056885, -2.210062026977539, -0.9720752239227295, 1.8145806789398193, -0.37997984886169434, -0.8583911657333374, -0.16527698934078217, -2.5665223598480225, 0.6639418601989746, -0.17757412791252136, -0.4708414077758789, -1.3327006101608276, -1.521363615989685, 1.693540096282959, -3.2120301723480225, -0.36660927534103394, 1.1450105905532837, -1.2457194328308105, -0.6302119493484497, 0.4000786542892456, -2.627479076385498, 1.3381870985031128, 1.6020164489746094, 0.7671291828155518, -2.6438071727752686, -0.6297406554222107, -0.10449129343032837, -1.280603289604187, 1.0607858896255493, 0.21910803020000458, 0.8964527249336243, -0.4047708511352539, 1.0456033945083618, -0.7258991599082947, -2.2639262676239014, 1.2481281757354736, -1.9203717708587646, -0.6319720149040222, -1.7354419231414795, -0.6055425405502319, -1.6978082656860352, 0.840911865234375, -0.24358896911144257, -0.5982789993286133, -0.6811572909355164, -0.602145254611969, -1.7192460298538208, 0.6362754702568054, -1.994202733039856, 3.5312082767486572, -0.006415285635739565, 1.126107931137085, -1.1376060247421265, 0.9615610241889954, -0.5135436654090881, 1.5359762907028198, -1.5662436485290527, -2.615124225616455, -0.023205406963825226, -2.1517300605773926, -1.9720227718353271, -0.03801988810300827, 1.3972545862197876, -0.11175790429115295, 1.3135161399841309, -0.8736019730567932, -1.7827194929122925, 1.5377672910690308, -1.2380290031433105, -0.8244830369949341, 0.5638448596000671, -0.6253765821456909, 0.2986713647842407, -1.9796379804611206, -2.31392765045166, 1.203867793083191, -1.3269919157028198, 0.49558526277542114, -0.4615556001663208, 2.760129451751709, 0.5674482583999634, 0.7516005635261536, -1.2134711742401123, 0.5117393136024475, 1.0151554346084595, -0.1498827487230301, 0.8020554184913635, 0.523161768913269, 1.7967710494995117, -2.838909864425659, 0.9466385841369629, 1.063747763633728, 2.1352648735046387, -1.1287217140197754, 0.44557803869247437, 0.0418529286980629, 2.245150327682495, 0.7706552743911743, -0.32137376070022583, -0.1521698534488678, -0.8205781579017639, 1.4625673294067383, -2.741969585418701, 0.4347548186779022, -0.47633764147758484, -1.0431894063949585, -3.1950583457946777, -1.3178160190582275, -1.45093834400177, 0.4159049093723297, 0.5472429990768433, 0.648299515247345, -0.1504030078649521, 1.8139338493347168, -1.568253993988037, 1.6510342359542847, 0.661985456943512, 0.7647214531898499, -0.9290885329246521, -0.44544658064842224, -0.6147891283035278, 0.6663063168525696, 1.0434118509292603, 2.3362138271331787, 0.11926798522472382, 1.5222563743591309, 1.082371711730957, 1.6294053792953491, -1.3171697854995728, 0.49206623435020447, -0.06233612075448036, 0.7738991975784302, 4.616201877593994, 0.4835911691188812, -1.4793661832809448, 0.18352633714675903, -0.3300778865814209, -2.109225273132324, -0.23449110984802246, -0.5206490755081177, -0.21301989257335663, -0.47586381435394287, -0.8031062483787537, -1.0621211528778076, -0.7649586796760559, 0.5007651448249817, -0.5690645575523376, 1.1512964963912964, 0.848068356513977, 0.8296357989311218, 0.5565138459205627, -0.3516474664211273, -0.0019793885294348, 0.3143004775047302, 0.5672882795333862, -1.4235252141952515, 2.3450539112091064, 1.5104151964187622, -0.9414145946502686, -0.5430431365966797, -0.7749986052513123, 0.022901272401213646, 0.09224455058574677, -0.30255061388015747, -0.549631655216217, -0.49040690064430237, -2.4102933406829834, 0.6996632814407349, -0.247468501329422, 1.5361849069595337, 1.1883100271224976, -2.1213629245758057, 1.938522458076477, -0.27930718660354614, -0.38412541151046753, 1.0150049924850464, 1.0740200281143188, -0.06627842038869858, -0.4243311285972595, 2.2863874435424805, -1.0948907136917114, -0.3701211214065552, -1.243301272392273, 0.27522438764572144, 0.7698958516120911, -0.3470118045806885, 0.01779191382229328, -0.7081748843193054, -1.3448939323425293, 1.2302488088607788, 0.525208055973053, 