{"use_imu": true, "control_orientation": true, "observation_history": 4, "action_scale": 0.75, "kp": 5.0, "kd": 0.25, "default_joint_pos": [0.25999999046325684, 0.0, -0.5199999809265137, -0.25999999046325684, 0.0, 0.5199999809265137, 0.25999999046325684, 0.0, -0.5199999809265137, -0.25999999046325684, 0.0, 0.5199999809265137], "joint_upper_limits": [2.509999990463257, 3.140000104904175, 0.7099999785423279, 1.2200000286102295, 0.41999998688697815, 2.7899999618530273, 2.509999990463257, 3.140000104904175, 0.7099999785423279, 1.2200000286102295, 0.41999998688697815, 2.7899999618530273], "joint_lower_limits": [-1.2200000286102295, -0.41999998688697815, -2.7899999618530273, -2.509999990463257, -3.140000104904175, -0.7099999785423279, -1.2200000286102295, -0.41999998688697815, -2.7899999618530273, -2.509999990463257, -3.140000104904175, -0.7099999785423279], "maximum_pitch_command": 0.0, "maximum_roll_command": 0.0, "in_shape": [null, 144], "layers": [{"type": "dense", "activation": "elu", "shape": [null, 256], "weights": [[[0.3312309682369232, 0.20236827433109283, -0.17476695775985718, -0.044333990663290024, 0.17843592166900635, -0.013413959182798862, 0.38422471284866333, -0.08239656686782837, -0.11734561622142792, -0.07659440487623215, -0.37600356340408325, -0.04208971932530403, -0.4373537600040436, -0.16929732263088226, 0.6718401908874512, -0.11411615461111069, 0.03158267214894295, -0.02526085264980793, -0.17629359662532806, -0.48664650321006775, -0.18791042268276215, -0.19616591930389404, 0.2654682695865631, -0.24778035283088684, -0.4436435103416443, 0.10080825537443161, -0.21587610244750977, -0.008416046388447285, -0.22328941524028778, 0.11282553523778915, -0.2208339124917984, 0.49090462923049927, 0.010753823444247246, -0.2234937697649002, -0.127481147646904, 0.06773027032613754, 0.08318664133548737, -0.08164587616920471, 0.5931134223937988, 0.48505523800849915, -0.09967125207185745, -0.12509840726852417, -0.3218647539615631, 0.33438000082969666, -0.024418199434876442, -0.586531400680542, -0.2675730884075165, -0.22527675330638885, -0.10384640097618103, -0.03321032598614693, 0.37772390246391296, 0.23437948524951935, -0.8141102194786072, 0.4068138897418976, -0.0766422301530838, -0.1874103844165802, -0.030268531292676926, -0.10178589075803757, -0.12947134673595428, -0.18955524265766144, -0.3749016523361206, -0.38966238498687744, -0.4775082468986511, -0.26604029536247253, -0.12690262496471405, 0.2813831865787506, -0.3571833074092865, 0.27112382650375366, -0.2016519159078598, -0.021286899223923683, -0.23868341743946075, 0.009833413176238537, 0.3759155869483948, 0.1448831409215927, 0.202420175075531, 0.23468853533267975, 0.31102678179740906, 0.285310298204422, -0.6484130024909973, 0.2853224575519562, -0.0736297145485878, 0.23213228583335876, 0.026660902425646782, 0.001425284193828702, -0.514509916305542, 0.09034736454486847, 0.15457512438297272, 0.3907047510147095, -0.11629045754671097, 0.4518086910247803, 0.03583517298102379, -0.03573998436331749, -0.21420297026634216, -0.34540054202079773, 0.6460210680961609, -0.5858568549156189, 0.2906888425350189, -0.21279092133045197, -0.19978365302085876, 0.1237911656498909, 0.09477170556783676, 0.15358427166938782, 0.023725179955363274, -0.3176066279411316, 0.10462217032909393, 0.01941717602312565, 0.23517203330993652, 0.19204415380954742, 0.39928939938545227, -0.43816661834716797, 0.1850464642047882, -0.02058575674891472, 0.3967118561267853, 0.015865148976445198, 0.22852499783039093, -0.31454989314079285, 0.060194339603185654, 0.11649779975414276, 0.2984021008014679, -0.5198184251785278, 0.03939498960971832, 0.17181292176246643, -0.17780737578868866, -0.4585694968700409, 0.2175116389989853, -0.0406937450170517, -0.07729543745517731, 0.014654628001153469, 0.5910004377365112, -0.27962160110473633, -0.2727278769016266, 0.2961747646331787, -0.4611450433731079, 0.06191721186041832, -0.37972599267959595, 0.05504418909549713, 0.20971694588661194, -0.49960288405418396, 0.20864982903003693, 0.09685433655977249, -0.07156781852245331, 0.06626062095165253, 0.42629972100257874, 0.48522934317588806, 0.5588069558143616, 0.19338473677635193, -0.5358854532241821, -0.27445921301841736, 0.12677599489688873, 0.20624543726444244, -0.4337611496448517, -0.20044097304344177, -0.1187143474817276, -0.06641165912151337, -0.07261846959590912, -0.10796798020601273, -0.5298836827278137, 0.5807076692581177, -0.013650689274072647, -0.15145370364189148, -0.10381142795085907, -0.027301866561174393, -0.2528771162033081, 0.30120500922203064, 0.07392947375774384, 0.445617139339447, 0.054107021540403366, -0.04602029547095299, -0.09671604633331299, -0.3404039442539215, -0.144095778465271, 0.019562775269150734, -0.2841273546218872, 0.14241589605808258, 0.041986823081970215, 0.1069432720541954, 0.4035441279411316, 0.061072152107954025, -0.22431212663650513, 0.2194232940673828, 0.06270308792591095, -0.1705394983291626, -0.40461838245391846, -0.3444676399230957, -0.27168411016464233, 0.003709202166646719, -0.17352022230625153, -0.3322339951992035, -0.23579718172550201, 0.00570392981171608, 0.10789812356233597, 0.28553342819213867, -0.41657283902168274, 0.04231677204370499, -0.2463458776473999, 0.10801795870065689, 0.1836768239736557, 0.12166505306959152, -0.23221655189990997, 0.14136241376399994, 0.11205019801855087, 0.3295705020427704, 0.3019217252731323, -0.22643952071666718, -0.18001249432563782, 0.06755167245864868, -0.41946810483932495, 0.1671743392944336, 0.3384595513343811, -0.07321800291538239, -0.1752605140209198, 0.15352566540241241, 0.6926798224449158, -0.2191110998392105, 0.048641055822372437, -0.13859474658966064, -0.06390082091093063, 0.382608562707901, -0.3182794749736786, -0.06844983249902725, 0.07710640132427216, -0.30040475726127625, 0.002752557396888733, 0.14448848366737366, -0.26289206743240356, -0.16079090535640717, -0.21543346345424652, -0.039616383612155914, -0.30779752135276794, -0.17033915221691132, 0.1266174018383026, 0.07857367396354675, 0.2918550372123718, -0.10565021634101868, -0.3414677679538727, -0.33001357316970825, 0.11780297011137009, -0.08441156893968582, 0.031831830739974976, 0.1948174089193344, -0.022639891132712364, -0.14051608741283417, 0.11821085959672928, -0.02192414551973343, -0.1853277087211609, 0.07952455431222916, -0.07179009169340134, -0.2510600686073303, 0.15766088664531708, -0.44143012166023254, -0.06712383776903152, -0.2789649963378906, -0.44378232955932617, -0.10846761614084244, -0.04120759293437004, -0.2999204099178314], [0.09118860214948654, 0.1805325746536255, -0.19663387537002563, 0.26842954754829407, 0.01284375786781311, 0.09521076083183289, -0.010976031422615051, 0.24789771437644958, 0.16002167761325836, 0.3196110725402832, -0.06936664134263992, -0.34987807273864746, -0.019006647169589996, -0.3061809837818146, -0.19784870743751526, -0.45452287793159485, 0.08138605952262878, -0.06831279397010803, 0.2704841196537018, -0.05530211701989174, -0.2633320093154907, -0.3148232102394104, 0.06628244370222092, 0.04929583519697189, 0.10835006833076477, -0.28853121399879456, -0.2978544235229492, 0.05432208627462387, -0.23634275794029236, 0.3859219253063202, 0.5105288028717041, -0.2342384308576584, 0.0843644067645073, 0.21001937985420227, -0.1667274534702301, -0.21846716105937958, 0.16934584081172943, -0.0007383374031633139, 0.6406090259552002, -0.1783134490251541, -0.17887119948863983, 0.22224901616573334, -0.34676361083984375, -0.13576091825962067, -0.1649489849805832, -0.0738501325249672, 0.09481341391801834, -0.4144347012042999, 0.3837597668170929, -0.2870238423347473, -0.375409871339798, 0.22527310252189636, 0.5246293544769287, 0.23907487094402313, -0.6760803461074829, 0.32080864906311035, -0.2474783957004547, -0.18791091442108154, -0.17504578828811646, 0.18126076459884644, 0.1053452342748642, -0.33031269907951355, 0.2944980263710022, -0.29133155941963196, 0.32797396183013916, -0.17146675288677216, 0.1880132257938385, 0.11238805204629898, 0.34783950448036194, -0.029473470523953438, -0.0022665811702609062, 0.34483978152275085, -0.41902217268943787, 0.503446638584137, -0.09011050313711166, -0.5889560580253601, 0.05297812819480896, 0.17699961364269257, 0.08640441298484802, -0.08095744997262955, -0.037628158926963806, 0.2645735740661621, 0.23327715694904327, 0.3119232654571533, -0.22505034506320953, 0.5474535226821899, -0.24150365591049194, -0.1038239374756813, -0.22867196798324585, 0.25195568799972534, 0.045557502657175064, -0.21217665076255798, -0.28772491216659546, 0.3342939615249634, 0.46952271461486816, -0.13584163784980774, 0.10828511416912079, 0.7096142172813416, 0.16481506824493408, -0.2588254511356354, 0.4808153510093689, -0.7143623232841492, -0.01370914001017809, -0.09879988431930542, 0.05549147352576256, -0.10740654170513153, -0.3636961281299591, -0.1346338838338852, -0.7343335151672363, -0.030879244208335876, -0.5296834111213684, 0.04264302924275398, 0.06867878139019012, 0.422950804233551, -0.18264096975326538, -0.4368962347507477, -0.3629605770111084, -0.5239546298980713, -0.22058413922786713, 0.12727822363376617, 0.3879639506340027, 0.3974807858467102, 0.21119430661201477, -0.07250795513391495, -0.30256712436676025, 0.4016861021518707, 0.09208131581544876, 0.9313857555389404, 0.24185031652450562, 0.5694440007209778, -0.4032769799232483, -0.14574337005615234, -0.4692039489746094, -0.052032679319381714, -0.5289335250854492, 0.046369459480047226, 0.2821638584136963, 0.06860611587762833, 0.3275194764137268, -0.1597738415002823, 0.3569900095462799, 0.32867491245269775, -0.13785870373249054, 0.15306326746940613, 0.039591044187545776, -0.15195497870445251, 0.06752684712409973, -0.4569977819919586, 0.05048392713069916, 0.17017851769924164, 0.15709437429904938, -0.16733688116073608, 0.011976765468716621, 0.24105913937091827, -0.14533710479736328, -0.16082049906253815, 0.5158246755599976, -0.28634652495384216, -0.03973718732595444, 0.24116624891757965, 0.3309847116470337, -0.09696599096059799, -0.239205464720726, -0.28476011753082275, -0.4911959767341614, 0.14895163476467133, 0.3233632445335388, -0.47532564401626587, -0.24724531173706055, -0.09294594824314117, -0.06207161769270897, -0.5060070157051086, -0.4141125977039337, -0.2923370897769928, -0.1292082965373993, 0.24099363386631012, -1.0882750749588013, -1.1366463899612427, -0.3635447919368744, 0.37268608808517456, -0.008560586720705032, -0.5732278823852539, -0.09987107664346695, -0.05931044742465019, -0.17995098233222961, -0.4242304265499115, 0.05271902680397034, 0.015167954377830029, -0.09543172270059586, -0.5071277022361755, 0.16852068901062012, 0.14149482548236847, 0.18512357771396637, -0.2675285339355469, 0.02985629439353943, -0.288118451833725, 0.21150995790958405, 0.1858801543712616, -0.23703016340732574, -0.105099618434906, -0.14194437861442566, 0.35747453570365906, -0.4641595482826233, 0.11380083858966827, 0.055752646178007126, 0.039638958871364594, 0.02244003862142563, -0.17538757622241974, 0.14213882386684418, -0.298159658908844, -0.15633723139762878, 0.19387570023536682, 0.14793579280376434, 0.04534892365336418, -0.21512848138809204, 0.16918401420116425, 0.3213113844394684, -0.613949716091156, -0.23447389900684357, 0.15504515171051025, -0.15493611991405487, 0.685854971408844, 0.08181288093328476, 0.01378266979008913, -0.15000060200691223, 0.3415478467941284, 0.18390069901943207, 0.10431358963251114, 0.023441804572939873, 0.14352570474147797, 0.007493456359952688, 0.2541251480579376, 0.09005541354417801, 0.12183132022619247, 0.26809704303741455, -0.19668875634670258, -0.40243762731552124, 0.18511633574962616, -0.13729366660118103, 0.25464877486228943, 0.3329649269580841, 0.5408757925033569, 0.44332414865493774, -0.47671082615852356, 0.13144828379154205, 0.15850993990898132, -0.16932512819766998, -0.11443516612052917, 0.21861523389816284, -0.22251038253307343, 0.4162225127220154, -0.244948610663414, 0.28176620602607727, 0.1465938836336136, -0.19461113214492798, 0.5134391188621521], [0.16855290532112122, 0.03011357970535755, 0.36471208930015564, -0.22932934761047363, 0.014445684850215912, -0.15125881135463715, -0.07959064841270447, -0.10612544417381287, 0.16365811228752136, 0.5281749367713928, 0.3961590528488159, 0.04529249668121338, -0.003988879732787609, 0.0172277819365263, -0.0617058165371418, 0.096469946205616, -0.09055259823799133, 0.05249122157692909, -0.18510259687900543, 0.05087544396519661, 0.2831014394760132, 0.24578452110290527, 0.1495770812034607, 0.010224781930446625, 0.10256210714578629, -0.023607982322573662, 0.146869495511055, -0.1452254205942154, -0.09240805357694626, 0.41943293809890747, -0.2547970414161682, 0.021261882036924362, -0.20336171984672546, -0.03179556131362915, -0.19332526624202728, -0.23498812317848206, -0.24419189989566803, -0.022317945957183838, -0.13304924964904785, -0.028256220743060112, -0.6844726800918579, 0.22256939113140106, 0.6451732516288757, -0.12574537098407745, -0.31438422203063965, 0.5455329418182373, 0.09168603271245956, 0.07919412106275558, 0.08488526940345764, 0.20760640501976013, -0.36390420794487, 0.4432084858417511, -0.11580166965723038, 0.32963794469833374, 0.5376788973808289, 0.05559272691607475, 0.12850436568260193, 0.04110519587993622, 0.08439650386571884, 0.2819252610206604, -0.15139183402061462, 0.09433712065219879, 0.19307971000671387, 0.05130919814109802, 0.030141085386276245, -0.020137198269367218, -0.017351413145661354, 0.3351443111896515, -0.14342930912971497, -0.015116319060325623, 0.42783522605895996, -0.030980773270130157, -0.22400762140750885, -0.12605565786361694, -0.052973423153162, 0.22225911915302277, -0.20819127559661865, -0.01283793244510889, 0.3298419713973999, 0.2154880166053772, -0.4708273708820343, -0.23303161561489105, -0.10066427290439606, 0.04590758681297302, 0.28542447090148926, 0.11068439483642578, 0.4897101819515228, -0.35527917742729187, -0.2953626811504364, -0.21622397005558014, -0.15735843777656555, 0.2104233205318451, -0.14030589163303375, -0.04543423280119896, 0.2527042329311371, -0.4255121946334839, -0.3164803981781006, 0.07913614064455032, 0.20077483355998993, 0.05001486465334892, 0.3093058466911316, -0.285211980342865, 0.1287258118391037, 0.09419826418161392, -0.11780437082052231, 0.2376059591770172, 0.18339323997497559, -0.2268037647008896, -0.14481358230113983, -0.12424886226654053, -0.24862009286880493, -0.017410511150956154, -0.2375197410583496, 0.18503673374652863, -0.5504494905471802, 0.22427643835544586, -0.04543664678931236, -0.3374781906604767, -0.2637912631034851, 0.24268591403961182, 0.24087266623973846, 0.10206343978643417, 0.07123834639787674, -0.059327609837055206, 0.21334275603294373, 0.2998464107513428, -0.1074041947722435, -0.14526262879371643, 0.02392364665865898, 0.034004755318164825, 0.1440020650625229, -0.16496919095516205, 0.3468840420246124, -0.2020748257637024, -0.3309938609600067, -0.6297662854194641, 0.2931116819381714, -0.04722431302070618, 0.03900567442178726, -0.01589292660355568, 0.011393129825592041, -0.05135521665215492, -0.11855781078338623, -0.3029508590698242, 0.24656690657138824, 0.14145809412002563, 0.06076463684439659, -0.01946336217224598, 0.09430240094661713, -0.6489338874816895, 0.007041283883154392, 0.6864050030708313, 0.2562425434589386, 0.286592572927475, -0.3383401334285736, 0.07094885408878326, -0.34819725155830383, -0.18816861510276794, -0.06005549430847168, -0.40399956703186035, -0.20566049218177795, 0.028862079605460167, 0.3417331576347351, -0.03853724151849747, 0.443358451128006, 0.02778184413909912, 0.211002916097641, 0.5733001828193665, -0.12285345792770386, -0.18663039803504944, 0.44934311509132385, -0.02817551977932453, -0.3050594627857208, 0.51014643907547, -0.07220714539289474, -0.07606296986341476, 0.11252830177545547, -0.05553482472896576, -0.548339307308197, 0.05941323935985565, -0.007785621099174023, -0.17842242121696472, 0.08150286227464676, 0.02611447311937809, -0.1367841362953186, -0.3487527072429657, 0.1184188723564148, 0.23526813089847565, -0.4167713522911072, 0.07497069239616394, 0.17976990342140198, 0.6406620740890503, 0.05891893431544304, 0.15834985673427582, 0.15397515892982483, -0.3728718161582947, -0.3250483274459839, -0.09487531334161758, -0.15045948326587677, 0.05601814016699791, -0.08583924174308777, 0.43935099244117737, 0.4657924175262451, 0.06318790465593338, 0.005099093541502953, 0.2802092134952545, 0.4035324156284332, -0.19590847194194794, 0.22671164572238922, -0.04270293191075325, 0.051169294863939285, 0.3210781514644623, 0.1762930005788803, 0.16075889766216278, -0.11315922439098358, -0.6978771686553955, 0.21562473475933075, 0.004070885945111513, 0.025975381955504417, 0.09194178879261017, 0.30219417810440063, -0.06362047791481018, -0.24130026996135712, -0.1548546403646469, 0.5222101211547852, -0.1333249807357788, -0.1716766208410263, -0.2029813528060913, -0.30543193221092224, 0.3671180307865143, 0.25245460867881775, -0.12752220034599304, -0.18154455721378326, 0.06252351403236389, 0.47406163811683655, 0.24447409808635712, 0.012220225296914577, 0.044950809329748154, -0.25906893610954285, 0.04279308393597603, -0.20816880464553833, 0.07025954127311707, -0.06623709201812744, 0.14759935438632965, 0.08294728398323059, 0.0913393646478653, 0.4234548807144165, 0.23001250624656677, -0.7699441909790039, 0.20269474387168884, -0.14223679900169373, 0.02116324007511139, 0.42285194993019104, -0.00366804376244545, -0.16323839128017426, 0.10888690501451492], [0.07169236242771149, -0.6389667987823486, -2.8768129348754883, 1.9247570037841797, 2.5809526443481445, -0.4945376217365265, 0.42289960384368896, 0.9440575242042542, -1.4762723445892334, 2.8120346069335938, -0.9895537495613098, -4.632320880889893, 1.5935767889022827, -0.5982370376586914, 1.7816492319107056, -0.3076677918434143, -0.2482689619064331, 0.13288046419620514, -2.1270341873168945, -2.8214170932769775, 0.9851316213607788, -2.715768575668335, 2.4691569805145264, 0.22228604555130005, 0.8284592628479004, 0.5518701672554016, 0.646063506603241, 2.6883108615875244, -1.1107022762298584, -0.6844469308853149, 2.0123937129974365, -1.3414692878723145, -1.4614793062210083, -1.774505376815796, 1.1975011825561523, 0.026943810284137726, 0.24272377789020538, 1.6510124206542969, -0.5389658212661743, -1.0664927959442139, 0.14338010549545288, 1.6235144138336182, -1.5263493061065674, -1.5204949378967285, -2.5093348026275635, 0.7449418902397156, -0.5804566144943237, -2.0186150074005127, 0.4224884510040283, -3.5354504585266113, 1.2750649452209473, 1.7232309579849243, 2.6481807231903076, 1.7574349641799927, 1.1333590745925903, 0.74976646900177, -1.743963599205017, 1.9865636825561523, -4.093421936035156, 3.324833631515503, 1.240959644317627, -1.973132848739624, 2.861649513244629, -3.8804399967193604, -0.5940532088279724, -1.9999315738677979, 2.5433695316314697, -1.0476582050323486, 3.7889726161956787, -2.3220906257629395, -0.4866061806678772, 0.08246782422065735, -0.9605177640914917, 1.229101300239563, -0.7363260388374329, 2.268048048019409, 0.2251409888267517, 0.773249626159668, 0.8965358138084412, -0.10628355294466019, -1.7990795373916626, 3.567901611328125, -0.5016486644744873, -0.7091158628463745, 1.5779550075531006, 0.0037220551166683435, -1.093802571296692, 0.969744086265564, -0.2542676329612732, -1.2166591882705688, 0.9136099219322205, -2.7441701889038086, -2.3858020305633545, -0.5335913896560669, 1.7316248416900635, 0.5825148224830627, 0.6345716714859009, 1.5367791652679443, -0.40517860651016235, -1.083479404449463, 2.489431619644165, -4.314072132110596, 1.1179739236831665, 0.5992172360420227, -1.4808059930801392, -0.16874949634075165, -3.144425392150879, -0.15940551459789276, -2.9593513011932373, -0.0074759116396307945, 0.14008788764476776, 1.252475619316101, 6.229236602783203, 1.2466100454330444, 1.650598406791687, 0.7860180139541626, -1.3816779851913452, 1.0043429136276245, 0.00043346339953131974, 2.9693191051483154, 0.9219008684158325, 2.914562702178955, -0.5216279625892639, 2.174830913543701, -1.0824718475341797, -0.014555608853697777, -0.6609225869178772, 2.784684896469116, 1.6402039527893066, 1.1283913850784302, -0.4684047996997833, -0.00628337636590004, -1.43098783493042, -4.348972797393799, 0.2760203778743744, -0.5316842198371887, -2.000075101852417, -0.2966196835041046, 0.7726303339004517, -2.606480360031128, -0.19772370159626007, 2.7921788692474365, 2.8685216903686523, 4.260554313659668, 0.8071919679641724, -1.6767457723617554, 0.7028664946556091, -5.061054706573486, -1.7397871017456055, 1.054935097694397, -0.40861666202545166, 2.009237051010132, -0.6293115019798279, -0.9324361681938171, -3.248365879058838, 2.9535608291625977, 0.9109355807304382, 0.09137297421693802, 3.9136388301849365, -1.0587674379348755, 1.7839075326919556, -0.0821092426776886, 1.4378758668899536, -1.6181273460388184, -3.19895601272583, -2.17427921295166, 2.8969733715057373, 1.3477236032485962, 2.2319462299346924, -0.027830176055431366, -1.6534944772720337, -0.6107062101364136, -3.1143741607666016, -4.154325485229492, -0.3841102719306946, 0.7778118848800659, -1.5830771923065186, -1.0719358921051025, -2.9635918140411377, 3.0127832889556885, -1.0798100233078003, -7.120229721069336, -1.0898804664611816, 0.5450352430343628, -3.171402931213379, 0.9199073314666748, 0.8362362384796143, -0.4448893368244171, 0.5587899684906006, -0.6092440485954285, 1.535415768623352, -1.123111367225647, -2.2828049659729004, -2.1719024181365967, -2.634094715118408, 0.9889134168624878, 1.251171588897705, 3.712174892425537, 1.6516200304031372, -3.904481887817383, 0.2781037986278534, 2.1443889141082764, -1.3478432893753052, 0.7281639575958252, 1.1832199096679688, -0.34957239031791687, 0.8706969618797302, -3.700490951538086, 1.0944039821624756, -3.4179835319519043, 0.3569762110710144, 0.1728631854057312, 1.2873197793960571, 0.8477293252944946, -2.301692008972168, 0.4066903293132782, 1.484687328338623, -1.4226890802383423, -0.26665547490119934, 1.4054574966430664, -0.5717473030090332, 0.23941251635551453, 2.498826265335083, 0.1203063353896141, 4.284322738647461, 0.12017900496721268, -0.9599831700325012, 3.0401456356048584, 2.8379101753234863, 2.9474360942840576, -0.11309150606393814, 1.4387352466583252, 2.07595157623291, 0.32165277004241943, -0.2605011761188507, 3.4589221477508545, 0.9564443230628967, 0.5799412727355957, 1.8785464763641357, 1.4576873779296875, 1.6073269844055176, 3.065817356109619, 2.364323616027832, 1.2024850845336914, 1.7193540334701538, 1.7539085149765015, -0.9564196467399597, -3.0833897590637207, 0.9614092707633972, 1.114922046661377, 2.352020502090454, -1.5480735301971436, 0.705679714679718, -2.7040579319000244, 1.045496940612793, -0.6203429698944092], [-0.5343469381332397, -1.4531844854354858, 0.6363284587860107, 0.4727519154548645, 0.47474223375320435, -2.0871729850769043, -2.0665364265441895, 0.1519199162721634, -2.8073127269744873, 0.7549576759338379, 2.075995445251465, -1.5337388515472412, 2.51112699508667, 2.489832639694214, -3.6240549087524414, 1.0530891418457031, -2.184544086456299, -1.7644680738449097, 1.1687477827072144, 2.144483804702759, -0.5132346153259277, 2.4177820682525635, -2.947175979614258, 0.007223222870379686, 0.7617972493171692, 0.0425335131585598, -4.4779052734375, 0.22791294753551483, 0.5489234328269958, 1.5348122119903564, 4.8947014808654785, -0.06974834203720093, -0.36824938654899597, 2.903831958770752, -0.19025491178035736, -3.1494364738464355, 0.5295306444168091, 3.2311277389526367, -0.19572053849697113, -1.7779792547225952, 0.9169113636016846, 0.9394722580909729, -0.6806237101554871, 0.6295472383499146, -3.342833995819092, -1.6025404930114746, 3.878377676010132, 0.45491451025009155, -0.8121422529220581, 1.6967554092407227, -1.2104990482330322, -0.7357749938964844, -0.5611209273338318, 0.39771342277526855, 1.3081949949264526, 1.8948453664779663, 1.089522123336792, 0.9715691804885864, -2.019930839538574, 0.4074327051639557, 0.43248963356018066, 4.118967056274414, -1.5330003499984741, 0.8528643250465393, -1.5396020412445068, -3.7170279026031494, 2.016541004180908, -1.3901395797729492, -0.9291269779205322, 0.4449910819530487, -1.8243451118469238, -0.4923224449157715, 1.2288503646850586, -2.752851963043213, -1.1818586587905884, -1.8583877086639404, -1.5166364908218384, -0.9121206402778625, -2.4243640899658203, 0.5069348812103271, 0.7538352608680725, -0.9558451175689697, 0.9835679531097412, 0.8154836893081665, 5.174417018890381, -0.1411144882440567, -0.0261259563267231, -0.12982425093650818, 1.4101812839508057, -1.3944365978240967, 2.207984447479248, -4.046441078186035, 0.32224369049072266, -2.0952773094177246, -1.561751127243042, -1.2420802116394043, -2.1353445053100586, 1.2191029787063599, -0.9824216961860657, 1.1167925596237183, -1.333945631980896, -1.181544303894043, 1.3001244068145752, 1.1147679090499878, -0.9601595401763916, 1.2139735221862793, -2.832810401916504, -2.5806164741516113, -1.2278614044189453, 0.25539523363113403, 2.148738384246826, 2.8026123046875, -2.8266384601593018, -0.5743148922920227, -1.0626059770584106, -0.023730555549263954, -2.86868953704834, -2.687795877456665, -2.0657570362091064, 2.0551085472106934, 0.4080556631088257, -3.869448184967041, 0.4458898901939392, 2.9215848445892334, -0.043091896921396255, -1.6692312955856323, 1.5731319189071655, -3.5526044368743896, -4.733147621154785, 4.136899948120117, 3.271728515625, -3.7421138286590576, -1.0312731266021729, -1.6779747009277344, -0.13212861120700836, 1.0874178409576416, -2.6227619647979736, -0.49662166833877563, 0.26069653034210205, 3.425269842147827, -1.5608174800872803, -5.720937728881836, 1.0512052774429321, 0.9001424908638, -2.3383631706237793, -1.696017861366272, 0.4400540590286255, 0.8466154932975769, 0.8246427178382874, 5.04933500289917, 0.8705621361732483, 0.11498606204986572, 0.9685959219932556, -0.19359898567199707, 1.528652310371399, -0.7904326915740967, 2.470527172088623, -2.399384021759033, 0.3298614025115967, 0.8517897129058838, -2.1179471015930176, 1.702021837234497, 1.9876532554626465, -0.39206522703170776, 2.346130609512329, -1.7703427076339722, -0.9528440833091736, -0.8380076289176941, 0.8495081067085266, -0.14199838042259216, 2.9453518390655518, -0.12469976395368576, 3.106126308441162, -1.2055226564407349, -0.1973298341035843, -1.6049076318740845, 0.37460944056510925, -1.6100112199783325, -1.0671356916427612, -1.0047699213027954, 1.287002682685852, -1.115404486656189, 1.5050246715545654, -0.5828360915184021, 0.6873443722724915, -0.5220709443092346, 1.9829002618789673, 2.341414213180542, 4.2163801193237305, -2.3168272972106934, 2.7478668689727783, -0.07018977403640747, 4.337636470794678, 3.7686047554016113, -2.7178573608398438, 0.33627453446388245, -0.5667291283607483, 0.5754753947257996, 0.6223013401031494, -0.030000736936926842, 0.7418542504310608, 3.0173728466033936, -3.9785945415496826, -2.599478006362915, 3.1151010990142822, 1.0421348810195923, 2.2390804290771484, 2.258842706680298, -4.833362579345703, -2.0500056743621826, 2.240480661392212, -1.5171598196029663, -3.2167179584503174, -1.5027031898498535, -0.5345572829246521, 0.8716442584991455, 0.24475382268428802, -3.3537564277648926, 3.0662119388580322, 1.0480148792266846, -0.38117843866348267, 2.144681692123413, 1.5074288845062256, 1.9013142585754395, -1.1858482360839844, 0.10834649950265884, -2.0798749923706055, -0.13119220733642578, 3.292726516723633, -5.166722297668457, -3.6056437492370605, 2.3234519958496094, -1.6233189105987549, 5.517948150634766, -3.446502685546875, 3.7296969890594482, -0.8028948903083801, 2.0290112495422363, -0.8735228180885315, -0.6436505317687988, 0.8431914448738098, 2.7396388053894043, -1.1298753023147583, -1.3740705251693726, 3.249377965927124, -0.5649875402450562, -0.06045038625597954, 3.1884231567382812, -1.5989539623260498, 1.553736925125122, 1.4938856363296509, 2.874450206756592, 0.5646270513534546, 4.61489725112915, -0.5791700482368469, -0.06004868820309639], [-14.87845230102539, 33.555423736572266, -30.842012405395508, 32.88612365722656, -25.044832229614258, 1.62095308303833, 1.5151493549346924, -18.52305793762207, 8.769450187683105, -15.847540855407715, -25.292144775390625, 3.4506614208221436, -2.3032455444335938, -28.543704986572266, -26.91242027282715, 15.017189025878906, -7.2729620933532715, 42.866455078125, 18.723602294921875, -10.654303550720215, 16.57862663269043, 8.273930549621582, -0.5424005389213562, 76.0066909790039, -22.973731994628906, -42.25116729736328, 10.273585319519043, 31.067493438720703, 63.998661041259766, -15.851277351379395, -23.963937759399414, 5.535635471343994, 10.01553726196289, -12.775634765625, -25.233667373657227, 28.948335647583008, -32.50315475463867, -0.39218148589134216, -10.244840621948242, 5.250010967254639, 51.16132354736328, -9.105813026428223, -2.9505271911621094, -9.00671100616455, -43.65515899658203, -18.00397491455078, 5.34318208694458, 32.86562728881836, 24.5127010345459, -14.675162315368652, -62.1013298034668, -7.863593101501465, -16.965463638305664, -7.402122497558594, 9.056595802307129, -15.538689613342285, 11.81218433380127, 19.445539474487305, -37.19664764404297, 11.269266128540039, -25.33501434326172, -48.86802291870117, 40.84884262084961, -12.741741180419922, 9.377873420715332, 6.423534393310547, -34.59628677368164, 66.36782836914062, 28.800823211669922, -4.50565242767334, -25.155805587768555, 12.526514053344727, -4.867837429046631, -23.02637481689453, 35.23333740234375, 23.033031463623047, 25.73719024658203, 18.0761661529541, -6.490243911743164, -55.36053466796875, 55.027488708496094, 13.384093284606934, 8.365117073059082, 49.30415344238281, -6.360340118408203, -21.334091186523438, -24.34292221069336, -21.684097290039062, -86.05391693115234, -27.556533813476562, 18.817346572875977, -33.51526641845703, 51.915733337402344, 11.784409523010254, -12.76445198059082, -13.303584098815918, -6.087443828582764, 32.636863708496094, -14.17845344543457, -8.648285865783691, 28.827024459838867, -0.3475166857242584, 11.891833305358887, 20.44976806640625, -30.06638526916504, -24.677837371826172, -6.311145305633545, 9.102134704589844, -31.804807662963867, 31.17731475830078, 41.293365478515625, -13.943426132202148, 3.016164541244507, 5.653855323791504, 47.12975311279297, -30.782711029052734, -3.797130823135376, -19.02541160583496, 42.70469284057617, 7.439806938171387, -59.003265380859375, 20.219202041625977, 46.437137603759766, -14.671432495117188, 24.21418571472168, -9.446516990661621, 4.0547871589660645, 20.356569290161133, -48.080867767333984, 22.106531143188477, 39.85202407836914, 5.362987995147705, 18.21843147277832, 31.34210968017578, -26.96548843383789, -8.0514554977417, 14.06351375579834, -25.33415985107422, 7.888382434844971, 53.010467529296875, -38.14231491088867, -29.71622657775879, 13.901963233947754, -17.405906677246094, -40.0761604309082, 1.544001817703247, -31.459436416625977, 40.47218322753906, -2.492955446243286, -9.820693969726562, 10.949217796325684, -9.63890552520752, 22.51937484741211, 15.46558952331543, -31.728673934936523, -49.644168853759766, 12.899093627929688, 18.80987548828125, 17.160852432250977, 30.565879821777344, -8.350931167602539, 11.780794143676758, -21.597515106201172, -26.7989559173584, 59.707942962646484, -27.877840042114258, 2.8938775062561035, 32.47684097290039, -5.0334577560424805, -0.37985682487487793, -11.542208671569824, 2.7388837337493896, 11.049591064453125, 22.398923873901367, -25.00520133972168, -30.33487892150879, 26.627717971801758, 33.38283920288086, 33.74879837036133, -29.256010055541992, -12.512094497680664, -32.51688766479492, 6.677788734436035, -6.8761701583862305, 13.196502685546875, -10.815056800842285, 60.099021911621094, -7.953339099884033, 15.91372299194336, -7.883316516876221, 4.486765384674072, 19.07730484008789, 21.253253936767578, 25.3946475982666, -33.2089729309082, -4.79277229309082, -26.095651626586914, 15.07762336730957, -8.454060554504395, 24.274394989013672, -4.028681755065918, -44.793025970458984, 21.17375946044922, 6.691036701202393, 50.9935417175293, 29.69011688232422, -14.193036079406738, 6.805765151977539, 35.35551834106445, -60.1536750793457, 25.35162925720215, 27.279329299926758, 40.67161178588867, 11.758291244506836, 55.20421600341797, -19.993579864501953, -25.124109268188477, 60.151161193847656, -23.577980041503906, 5.444805145263672, -5.8838677406311035, 4.237037181854248, 3.9752769470214844, -11.072834968566895, 20.133594512939453, -62.42247009277344, -47.40424728393555, 8.173996925354004, -23.22725486755371, -61.1710319519043, 6.258848667144775, -24.331693649291992, 61.731868743896484, 26.233352661132812, 15.754006385803223, -34.40700912475586, 2.252727746963501, 21.829410552978516, -7.067353248596191, 21.73693084716797, 9.229866981506348, 3.8139538764953613, 22.93273162841797, 41.71969223022461, -50.18594741821289, 8.679914474487305, -4.749755382537842, 13.911425590515137, 53.383419036865234, -31.422822952270508, -2.9942827224731445, 12.371354103088379, -13.747747421264648, -3.7117204666137695, -17.12788963317871, 12.079931259155273], [-0.7106910347938538, 0.49771183729171753, 0.7539867758750916, 0.4969470500946045, -0.5983113646507263, -0.23351457715034485, 1.4658222198486328, 0.26261332631111145, 0.040530238300561905, 0.5511714816093445, 0.3869425654411316, -1.2344458103179932, -0.7562173008918762, 0.5892274379730225, -0.6290828585624695, 0.7586781978607178, -1.2134556770324707, 0.12524330615997314, -0.6699303388595581, 0.14302004873752594, -0.29852449893951416, -0.6943694353103638, -0.2645788788795471, -0.27916431427001953, 0.45578065514564514, 0.9340652823448181, 1.0658230781555176, -0.9726139903068542, -0.04866713285446167, -0.22670452296733856, -0.6338363289833069, 0.5869283080101013, 0.5183522701263428, 1.0201328992843628, 0.00767933763563633, -0.15268658101558685, 1.1445375680923462, -0.9336547255516052, -0.34598788619041443, -0.39018991589546204, 0.3541988432407379, 1.1391818523406982, -0.07514388859272003, -0.952029287815094, 0.25653937458992004, 0.13277307152748108, 0.4210863411426544, -0.9645385146141052, -0.6075318455696106, 0.023473063483834267, -0.7405136823654175, -0.5167854428291321, -0.48798882961273193, -0.25623491406440735, 0.2018454670906067, 0.673271119594574, -0.21558254957199097, -0.8089354038238525, 0.9355643391609192, 0.08054208755493164, -1.9928926229476929, 0.04512753710150719, -0.6542220711708069, -0.11470440030097961, -1.5909171104431152, -0.06799370795488358, 0.026124099269509315, 0.5885216593742371, 0.7534998655319214, -0.1449945718050003, 1.4478542804718018, -0.6672808527946472, -0.8760138750076294, 0.9684633016586304, 0.9474537968635559, 0.2688058018684387, -0.023406503722071648, -0.5147671699523926, -0.31091341376304626, 0.8164732456207275, -0.07964903116226196, 0.4173535704612732, -0.9076523780822754, -0.4970252215862274, 0.2437361627817154, -0.9256317019462585, -0.6463049054145813, 0.6701808571815491, -0.14922568202018738, 0.47278618812561035, -0.33083251118659973, 0.3258715867996216, 0.3398002088069916, 0.007254152558743954, -0.5740089416503906, -0.9719836115837097, 0.5995500683784485, 0.6814492344856262, -0.1091877818107605, 0.32140323519706726, -0.08636976033449173, -0.35975411534309387, -0.748203456401825, -0.17818981409072876, -0.46849891543388367, -0.41833099722862244, 0.6680243015289307, -0.056971047073602676, 0.9915942549705505, -1.9448398351669312, 0.05022873356938362, 0.7856540083885193, 0.5711310505867004, 0.5108199119567871, 0.16076840460300446, 0.09387809783220291, 0.6173971891403198, -0.32297152280807495, -0.48819756507873535, -0.6346477270126343, 0.5941287875175476, 0.9153202176094055, 0.59850013256073, 0.8169275522232056, 0.7233553528785706, 0.28203102946281433, -0.11053293943405151, 0.17473796010017395, -0.9848232269287109, -0.3208739459514618, 0.5276901721954346, 1.4980223178863525, 0.5327326655387878, 0.03973562642931938, 1.1002888679504395, -0.38796380162239075, -0.1489846557378769, -0.5333249568939209, 0.6937925219535828, -0.3254167139530182, -1.030698299407959, -0.07499105483293533, 0.06950438767671585, -0.11691602319478989, 0.5312540531158447, 0.9192643165588379, 0.9465146064758301, 0.4784763753414154, 0.06267362833023071, -0.3650282323360443, 0.07156459987163544, -0.180576890707016, 0.2828138470649719, -0.3110501766204834, 0.6582016348838806, 1.008764624595642, -0.4090515971183777, -0.26337340474128723, 1.0905596017837524, -0.12931951880455017, 0.42575037479400635, -0.6775770783424377, -0.09041455388069153, 0.28182801604270935, -0.8582842350006104, -0.1982877254486084, 1.120535969734192, 0.40898436307907104, 0.029556602239608765, 0.48766353726387024, 0.3400355577468872, -0.2207619994878769, 1.3704599142074585, -0.49870002269744873, -0.04431474208831787, 0.8502610325813293, -0.4199797213077545, 0.09134075045585632, -0.3365637958049774, -0.2710665464401245, 0.6955165266990662, -0.0010581419337540865, 0.30359065532684326, -0.7546994090080261, -0.4778869152069092, -0.12929825484752655, -0.3463127315044403, -0.13521020114421844, -0.9393106698989868, -0.10372308641672134, -1.075175404548645, 0.46136948466300964, 0.5895141959190369, -0.34109801054000854, 0.4173508584499359, 0.2948348820209503, -0.3319075405597687, 0.437126100063324, 0.48007237911224365, -0.15827424824237823, -0.2645481824874878, -0.06411787122488022, -1.5703322887420654, 0.2237890213727951, -0.07641510665416718, 0.1982710361480713, -0.8240865468978882, -0.025621643289923668, 0.5188961029052734, -1.1655935049057007, 0.3160161077976227, -0.9298749566078186, 0.3250391185283661, -0.6023514270782471, 0.33139264583587646, 0.21328982710838318, 0.09291376918554306, -0.5146929025650024, -0.2053869515657425, 0.07227090001106262, -0.007971953600645065, -0.898028552532196, 0.5957274436950684, 0.5778263807296753, 0.34911397099494934, 0.21589982509613037, -0.37507325410842896, -0.4094524085521698, -0.1490604281425476, -0.9350099563598633, 0.7297664880752563, -0.21693269908428192, 0.737223744392395, -0.09008831530809402, 0.5136655569076538, 0.03476101532578468, -0.22858938574790955, -0.8060640096664429, 0.2915511727333069, -1.9485067129135132, 1.090177059173584, -0.3633905351161957, -0.7347409129142761, -0.45405787229537964, -1.600136637687683, -1.0913974046707153, -0.43126535415649414, 0.5829712152481079, -0.6244370341300964, -0.008460715413093567, 0.8336535692214966, -0.3697890043258667, -1.1330146789550781, 1.4285709857940674, 0.8707787394523621, 0.037295758724212646], [1.3687267303466797, -0.9488810896873474, -1.178052306175232, 0.9291293025016785, 0.775635302066803, -0.23739805817604065, -0.10218262672424316, -0.706117570400238, -0.16004101932048798, -0.4306609630584717, 0.7762677669525146, -0.1801578253507614, -0.6902235150337219, -0.4124268889427185, 0.26705580949783325, -0.23053038120269775, 1.829555630683899, -0.849094569683075, -0.4941287934780121, 1.0627397298812866, -0.08467333763837814, -0.34323230385780334, -0.15791617333889008, 0.14562757313251495, 0.09094881266355515, -0.047222863882780075, -0.6260354518890381, 1.3872202634811401, -0.3117317855358124, -0.43067365884780884, 0.9541776180267334, -0.651707112789154, 0.3687119781970978, -0.0421246774494648, -0.5530717968940735, 0.6654022336006165, 0.6651743054389954, 0.4832274615764618, 0.41599607467651367, 0.5726139545440674, 0.02600676752626896, 0.26112258434295654, 0.5215623378753662, -0.10988520085811615, -0.2699982225894928, -0.7136854529380798, -1.190364122390747, 0.5092175006866455, -0.6389058828353882, -1.3226087093353271, -0.6474100947380066, -0.7332401275634766, 0.552363932132721, -1.499026894569397, -0.028948256745934486, -0.8099024891853333, 1.2665905952453613, 0.7721983194351196, -0.34354692697525024, 0.9453585147857666, -1.0677207708358765, 1.9543613195419312, -0.027797603979706764, -0.573531448841095, -1.922061562538147, 0.0992293730378151, -0.7085093855857849, 0.9915409088134766, -0.7101036310195923, -0.3440825939178467, -0.3033510148525238, 0.8387212753295898, 0.5162291526794434, 0.9530968070030212, -0.7792763113975525, 0.9082005620002747, 0.9605031609535217, -1.5262845754623413, -0.3433203399181366, -0.9917821884155273, -1.241860032081604, 0.46545615792274475, 0.6339886784553528, 0.5817322731018066, -0.17109864950180054, 1.0945777893066406, 0.14535818994045258, 0.4279777407646179, 0.038591887801885605, -0.8977580070495605, -0.2627442479133606, -1.5718199014663696, 0.7270567417144775, -0.12472681701183319, 0.9024440050125122, -0.6844384074211121, -1.0499787330627441, -0.34155523777008057, -0.8476306200027466, 0.31541499495506287, 0.2120378017425537, 0.10772053152322769, -0.7213506698608398, -0.6247178912162781, 1.0312999486923218, 0.2345852255821228, -0.7952961921691895, -0.49239128828048706, -0.7366941571235657, -0.5962129831314087, -0.4173676669597626, 0.8742482662200928, 0.6154659986495972, -0.7313792109489441, -0.03190704435110092, 0.8673980832099915, -0.00617253826931119, 0.43949562311172485, -0.8148807883262634, -0.9218316078186035, 0.09566203504800797, 0.7443473935127258, 1.0792580842971802, 0.07787496596574783, -1.1021347045898438, -0.14368218183517456, -0.24366828799247742, 0.682585597038269, -1.2581349611282349, 0.5690699219703674, 1.541386604309082, -0.04829484596848488, -0.7375501990318298, -1.1957734823226929, 0.09388575702905655, 0.5518500208854675, -0.6761969327926636, 0.5189263820648193, 0.7283293008804321, -0.326877623796463, 2.0961103439331055, -0.5164161324501038, 0.8211257457733154, -0.2432287484407425, 0.9149158000946045, -1.6834512948989868, -0.43386054039001465, 0.7766594886779785, -0.10233031213283539, -0.537478506565094, 0.1744314581155777, 0.8289836049079895, -0.370745986700058, -0.8130658864974976, -0.589801013469696, -0.7751652002334595, -0.43040406703948975, -0.4397123456001282, -1.733903408050537, 0.49917083978652954, 0.33984941244125366, -1.1212857961654663, -0.32745426893234253, 0.836151123046875, 1.1263422966003418, 0.23839406669139862, 0.5404552817344666, 0.03880681097507477, 2.142731189727783, -0.7567092776298523, -0.2594006359577179, 0.49432286620140076, -0.24397212266921997, 0.32997259497642517, 0.22568629682064056, -0.705333948135376, 0.026268314570188522, -0.5438340902328491, -0.5661958456039429, -0.046502985060214996, 0.4087643325328827, 0.7230389714241028, -2.0076496601104736, 0.18088623881340027, 0.7299423813819885, 0.04270510748028755, 0.7701405882835388, -0.011882043443620205, 0.8603636026382446, 0.5307794809341431, -0.5671006441116333, -0.7469404935836792, -1.5715049505233765, -0.037874285131692886, 1.6273982524871826, -0.7418009042739868, -0.4435041546821594, 1.2312148809432983, 0.45291319489479065, -0.037672434002161026, -0.6757888793945312, -0.4885810911655426, -0.22941674292087555, -1.1485916376113892, -0.651422917842865, -1.4549493789672852, -0.171597421169281, 0.04332496598362923, 0.16232134401798248, 0.2719264328479767, -1.4209606647491455, -0.06265199929475784, -0.1749376803636551, -0.2883073091506958, 1.9093185663223267, 0.06638161092996597, 0.8065489530563354, 0.3322235345840454, -1.4407873153686523, 1.62274968624115, 0.8434743285179138, -0.10344956070184708, 0.010081467218697071, -1.4837461709976196, 0.5127226114273071, 0.12944132089614868, -0.9152597784996033, 1.1786952018737793, -0.9384831786155701, -0.7061881422996521, 0.7357253432273865, -0.6979342103004456, 0.6532185077667236, 0.8998578786849976, -0.5831000208854675, 0.04880401864647865, 0.41369661688804626, 1.2619884014129639, 0.6803902983665466, -0.17679572105407715, -1.2883050441741943, 0.8652054667472839, -1.4191683530807495, -0.3013940453529358, -0.14138269424438477, 0.7613576650619507, 0.006365469191223383, -0.2919098734855652, 0.13320153951644897, -0.5326710343360901, 0.12293747067451477, -0.7853652834892273, -0.6412409543991089, -0.5086098909378052, -0.5955293774604797, 0.05930700898170471], [-0.01858394220471382, -0.05669242516160011, -0.21469026803970337, 0.18009142577648163, -0.16572457551956177, -0.101843923330307, 0.06239278241991997, -0.3283871114253998, -0.0013576580677181482, -0.4328855574131012, -0.2658299207687378, 0.1982797384262085, 0.4031847417354584, -0.02497037872672081, 0.21229641139507294, 0.08569638431072235, -0.032352134585380554, 0.20048175752162933, 0.08127838373184204, 0.3221340477466583, -0.4227532148361206, -0.10322143137454987, -0.24260683357715607, 0.13569693267345428, -0.2051408290863037, 0.06183362752199173, 0.1677088588476181, -0.07448737323284149, 0.11904159933328629, -0.46350905299186707, 0.26396992802619934, 0.39015015959739685, -0.36894679069519043, 0.05116589367389679, -0.09407462924718857, -0.12190505117177963, 0.21586334705352783, -0.14725767076015472, 0.12321222573518753, -0.21862198412418365, 0.335995614528656, -0.27459916472435, -0.45667529106140137, 0.24653862416744232, -0.06558958441019058, -0.26593294739723206, -0.05623215436935425, -0.1066378578543663, 0.2299545556306839, 0.0354214645922184, 0.5560540556907654, -0.36845293641090393, 0.13821324706077576, -0.31621819734573364, -0.31724390387535095, -0.10846279561519623, -0.051481012254953384, 0.13205796480178833, 0.0004172943299636245, -0.3355730175971985, 0.17103256285190582, -0.3173060417175293, -0.11150062829256058, -0.0719638243317604, -0.07061693072319031, -0.09678611159324646, -0.18823938071727753, -0.005726097151637077, 0.20239706337451935, -0.06750591099262238, -0.08465012162923813, 0.05126935988664627, -0.02441355213522911, -0.026542609557509422, -0.04599938541650772, 0.12659810483455658, 0.018669750541448593, -0.21729324758052826, -0.31499600410461426, 0.1342192441225052, 0.31879737973213196, 0.25069451332092285, -0.15187343955039978, 0.02258918806910515, -0.09125493466854095, 0.16611354053020477, -0.65318363904953, 0.16601181030273438, 0.4177308976650238, 0.09281885623931885, 0.14467856287956238, -0.24172097444534302, -0.2230812907218933, 0.11326434463262558, -0.39140430092811584, 0.2811036705970764, -0.09663865715265274, 0.3145190179347992, -0.007578221149742603, 0.06685695797204971, -0.1095275729894638, 0.1822495311498642, -0.09118182957172394, -0.14472562074661255, 0.40738826990127563, -0.1149769276380539, 0.15343278646469116, 0.13612616062164307, 0.00653558736667037, 0.031723786145448685, -0.06905315071344376, 0.17317210137844086, 0.06999076157808304, -0.41471973061561584, 0.4823707938194275, -0.18348178267478943, -0.10093895345926285, 0.1415966898202896, -0.165277898311615, -0.058428723365068436, -0.15225794911384583, 0.022172164171934128, 0.004042679909616709, 0.030453674495220184, 0.08806420117616653, -0.05257096514105797, -0.0574025921523571, 0.20612980425357819, 0.17161080241203308, 0.19346609711647034, -0.33297836780548096, 0.052421920001506805, -0.3438066244125366, 0.23743924498558044, 0.15881972014904022, 0.4754433035850525, -0.46992865204811096, 0.14719729125499725, -0.12270577251911163, -0.09687898308038712, -0.03203148767352104, 0.2356683760881424, -0.010617216117680073, 0.28658485412597656, -0.16934645175933838, -0.07002232223749161, -0.22427552938461304, -0.03858185559511185, 0.19151006639003754, 0.37792015075683594, 0.24797320365905762, -0.22779642045497894, -0.30243992805480957, -0.00495853740721941, 0.5192312598228455, 0.3543820381164551, 0.3755711615085602, 0.29665011167526245, 0.0684816837310791, -0.052416086196899414, 0.0982888862490654, -0.1197502613067627, -0.5628496408462524, -0.29865631461143494, -0.3711278736591339, -0.0400804840028286, 0.07491938024759293, -0.2388489991426468, 0.07884597778320312, 0.08181196451187134, -0.2020345777273178, 0.3035735785961151, 0.23446567356586456, -0.3416699469089508, -0.006156559567898512, 0.13391676545143127, 0.08745503425598145, -0.015359753742814064, 0.45940300822257996, 0.21021315455436707, 0.17710483074188232, -0.0707460567355156, 0.05528346821665764, -0.05134293809533119, 0.0791533812880516, 0.3193417191505432, -0.2852571904659271, -0.24813996255397797, 0.33048194646835327, 0.18464824557304382, -0.4294712543487549, -0.33281317353248596, 0.03398078680038452, -0.19047540426254272, 0.1344437301158905, 0.24979835748672485, -0.1617724895477295, -0.11914560943841934, 0.06054742634296417, 0.2244652956724167, 0.16809679567813873, -0.08720283955335617, 0.048623330891132355, -0.10127417743206024, -0.2530972361564636, -0.19477635622024536, -0.29792675375938416, 0.19103547930717468, -0.4396388828754425, -0.0885453149676323, -0.10862617194652557, -0.1754312962293625, 0.01748695969581604, -0.2391781061887741, 0.053571898490190506, 0.38391080498695374, -0.050785131752491, 0.09604565054178238, -0.18873775005340576, 0.1691397875547409, -0.37644174695014954, 0.3134891092777252, 0.3132474720478058, 0.2921866774559021, -0.23764267563819885, 0.04809467867016792, 0.0937730222940445, 0.10665154457092285, 0.18302080035209656, -0.4509935975074768, -0.25589224696159363, 0.002771516563370824, 0.06557277590036392, 0.3184491991996765, -0.5424798130989075, -0.3454613983631134, -0.06665464490652084, 0.15610423684120178, 0.1206393837928772, 0.14274518191814423, 0.20094868540763855, 0.02276681922376156, -0.06077146530151367, 0.09804081171751022, -0.19664990901947021, -0.08315858244895935, -0.5381687879562378, -0.17290189862251282, 0.5275798439979553, -0.19837354123592377, -0.05723363161087036, 0.3750116229057312, -0.33617332577705383, -0.09624843299388885, 0.18336720764636993, -0.07187207043170929], [-21908.33203125, 132703.546875, -103680.5078125, 138876.46875, 53065.16015625, 96421.9609375, -33845.53125, 29018.5234375, -57595.15234375, -11381.7099609375, -57788.55078125, -37218.9453125, 100759.8671875, 8264.63671875, 56159.83203125, -61886.765625, -109359.8515625, 34254.18359375, 89838.421875, 23107.064453125, 329.12359619140625, 22083.767578125, 48338.7421875, -6520.7353515625, -49520.81640625, 83585.6640625, 92264.8046875, -88683.9140625, 67521.0625, -59269.8828125, -71498.109375, 76738.8359375, 107370.3828125, -20781.587890625, -49074.10546875, 58582.66015625, 71740.7265625, -109441.0, 19967.28125, 44928.67578125, -2336.626220703125, -130125.5078125, 24628.935546875, 67333.7578125, 12956.4375, 21966.1796875, 102464.296875, -130585.375, 79181.3828125, -8709.078125, 2325.820556640625, -69504.890625, 76840.859375, -52017.015625, -35864.45703125, -4892.8056640625, 1326.3365478515625, 13889.7802734375, -108103.578125, 91449.6640625, -21528.380859375, 77619.078125, -117993.5625, 87083.2734375, 97626.171875, -10703.6064453125, -95000.375, -12962.7353515625, -114925.6015625, 141479.171875, -23959.435546875, 66756.3046875, -34497.5859375, -102321.71875, -141408.015625, -87719.53125, -10849.103515625, -51828.46875, 89955.015625, 15235.7666015625, 116170.6875, 27814.111328125, 13770.5400390625, 136605.46875, 40125.55078125, 74243.1484375, -49407.8046875, -23518.607421875, 98113.8984375, -132789.4375, -114030.1796875, -110216.0078125, 34956.515625, 56499.76171875, 74842.6953125, 110673.96875, -33500.02734375, 79661.4765625, -27095.849609375, -13519.5673828125, 99419.0078125, 36943.5390625, 109482.953125, 63116.67578125, 43267.50390625, 67528.1875, -85187.75, -133747.75, 23087.173828125, 27542.595703125, -61545.08203125, 134370.78125, 133250.296875, 34793.328125, 140286.734375, 77867.2890625, -112809.1796875, -119316.9453125, -56822.34375, -55991.27734375, 70371.40625, -28897.287109375, -79958.3515625, -75278.53125, 82523.03125, 49923.89453125, -130151.046875, 110498.8828125, 38066.56640625, -86958.1796875, -53596.38671875, 4266.35595703125, -118021.5078125, 110929.8984375, 2609.794677734375, -125719.234375, -96616.5625, -1390.963623046875, 94922.015625, 132398.734375, 117312.9140625, -100763.6875, 141358.84375, -65897.578125, -69351.0625, 40538.60546875, 99774.2109375, -50139.59375, 81125.734375, -38401.64453125, -58666.3515625, -111194.0546875, -57275.59375, 81488.34375, 5922.33251953125, -58615.80078125, 87521.6875, -28210.751953125, 125799.2109375, -24445.583984375, -115658.21875, -29182.53515625, -46681.5625, 104828.5859375, -117220.0390625, 65856.8984375, -97358.3046875, -70119.7109375, -57483.2421875, 92029.3828125, 35901.109375, -94130.6953125, 93398.078125, -43742.67578125, 79398.3828125, -30565.650390625, 26480.6171875, -42957.82421875, -3553.013916015625, -85021.53125, -68816.90625, -60683.078125, 5859.08154296875, 46118.7734375, -127656.875, -30174.275390625, 113538.6953125, 49427.28125, 32777.4609375, -8917.583984375, -130530.953125, -71293.1796875, 113217.3828125, -70810.6171875, 74587.03125, -105786.328125, -69414.421875, 116726.25, -26210.236328125, -111495.1640625, -135807.46875, -136655.40625, 106602.6015625, 77622.2734375, 18413.373046875, -59152.26171875, -45919.07421875, 57312.65625, 99482.6328125, 58214.03125, -42499.75390625, -24903.650390625, -39853.2734375, -96011.7265625, 56681.25390625, -21213.537109375, 34581.86328125, 53524.19140625, -116737.2265625, -55285.296875, -19237.48828125, -85412.3203125, -58905.828125, -53359.04296875, 3828.9697265625, 78392.3671875, -27072.310546875, -25960.537109375, -124728.90625, -35633.37890625, 52120.359375, -135824.984375, -8097.66650390625, -35544.9375, 44456.875, -51792.8515625, 72928.6484375, 87264.453125, 87116.7578125, -106452.6328125, -33597.9296875, -10346.5390625, -59416.03515625, 35453.94921875, -44053.97265625, -133792.125, 58391.2578125, -42722.578125, 84893.453125, -531.7459106445312, -83534.25, -59152.8125, -143093.609375, -125804.5, -11617.298828125, -103224.40625], [34390.6640625, -86941.078125, -25074.9921875, -120570.875, 15739.15625, 93017.578125, -89828.3828125, 83181.7265625, 128118.6953125, 38589.43359375, 27995.330078125, -24163.0546875, 58770.86328125, -139138.0, -132366.640625, -49543.91015625, -4852.74951171875, -124180.3984375, -55102.56640625, 70250.75, -98028.0078125, -115626.484375, -1955.7113037109375, -73113.859375, -59688.16796875, 62630.15234375, 96034.171875, -53909.1328125, -70923.109375, -68024.9296875, 74369.3046875, -92481.359375, 12101.3154296875, -62820.25, 69005.671875, 138187.421875, -53854.76171875, 99452.3203125, -51033.0859375, -72483.078125, 86121.0234375, 487.80084228515625, -82955.1875, 23592.732421875, -81452.203125, -113706.4921875, -90052.6796875, 79369.0703125, 46582.96875, -1832.479248046875, -13922.4033203125, -52808.95703125, -81231.5546875, -142965.28125, -39435.67578125, -107760.6875, -64800.359375, 87777.7578125, -143065.28125, 138200.1875, 76300.6171875, 25074.580078125, 88720.390625, -64219.8828125, 22318.32421875, 24110.4375, 55492.359375, 72889.140625, -113180.703125, -59988.5234375, 73000.2265625, 24047.53125, 81438.0234375, 22094.228515625, 13737.021484375, -102268.0390625, -60821.140625, 139330.609375, -115436.2890625, 35302.46484375, 33343.3828125, 123638.875, -8270.0732421875, -127849.7890625, -54089.66015625, 65003.9453125, -69134.1640625, 30469.60546875, 9433.12109375, -94947.0, -62425.63671875, -52116.98828125, -140176.6875, -5957.9150390625, 98096.1484375, 37549.34375, 20962.32421875, 28055.724609375, 128719.2265625, -10871.2646484375, 59117.84765625, -33944.2265625, 133808.75, -46402.296875, 95604.1796875, 81566.4609375, 133742.8125, -69458.5, -36355.49609375, -90631.640625, 86393.0859375, 31350.1953125, -57779.77734375, 111225.8515625, 44435.71484375, -45099.296875, 142506.25, 78878.859375, -45797.046875, 137318.5625, 50247.06640625, 114565.296875, 38440.01171875, -114193.5078125, 51345.93359375, 29952.314453125, -72332.765625, -9874.052734375, 81304.09375, 136958.015625, -30483.439453125, -129520.984375, 63010.20703125, 96813.4765625, 142221.625, 13312.05859375, -63722.828125, -4673.28662109375, 13839.08984375, -21767.720703125, -44913.77734375, -9492.173828125, 8163.60107421875, -40980.5, 119061.9453125, 111672.21875, 102018.8203125, -94746.0625, -1309.5086669921875, 51279.0, 108556.625, 7895.765625, 130610.2421875, -101370.71875, -98081.8671875, 13479.6142578125, -134950.5625, 132970.59375, 85648.5703125, 122832.9296875, -83725.3125, -87924.6640625, -104101.453125, 40548.5859375, 94420.7265625, -93416.078125, 129994.1875, -135431.09375, 132592.375, -27008.6796875, 775.1129150390625, 26175.857421875, -22736.783203125, 21698.068359375, 55822.7578125, -50867.390625, -25371.630859375, -44290.52734375, -17332.36328125, 21613.96484375, -110867.265625, 41028.57421875, 21248.982421875, 38795.703125, 95292.0546875, 24952.44921875, -2451.0830078125, -80015.5078125, 31.76297378540039, 7259.8525390625, 116692.1796875, 90756.2421875, -35080.3671875, 89343.9765625, 1118.9652099609375, 61779.36328125, 70300.375, -104795.7890625, 15305.58984375, 78301.9921875, 122695.0390625, 103426.6484375, 133231.15625, 23916.796875, 83493.46875, 123839.53125, 124849.1015625, 26022.82421875, -25469.87890625, 8466.5703125, -106481.2265625, -37577.62890625, -32176.650390625, -18929.494140625, 18233.013671875, -105460.953125, 118408.0703125, -36170.3203125, -97851.9140625, -136426.625, 140752.203125, 91681.2265625, -21193.302734375, -48707.12890625, -41037.109375, 92033.34375, -12589.837890625, -43857.30078125, -95669.2890625, 134223.578125, 118546.1015625, 110219.765625, -104401.109375, -91072.640625, 50053.21484375, 30320.6328125, 81660.375, 78479.1875, -87544.125, 4241.44091796875, -136628.15625, -53465.55078125, 118758.28125, 42891.921875, 70256.0859375, -55233.5078125, 75067.609375, 92416.078125, 97916.609375, -21521.875, 31693.220703125, -140625.671875, 61365.86328125, -67442.4296875, 78159.015625, 122209.234375], [-135048.46875, 3824.083251953125, -72863.8515625, -67466.625, -58954.6640625, -90015.8984375, 92939.359375, -139364.953125, 52030.40234375, 88929.5859375, -15006.54296875, 1964.830810546875, -91821.046875, 139589.109375, -32496.03515625, 12967.173828125, 138471.734375, -8281.533203125, -85977.109375, -139000.21875, 58893.09765625, 35685.26953125, 139713.796875, -100697.09375, -38881.28515625, 127758.8046875, -129820.9609375, -131832.109375, 10716.8212890625, 46284.7109375, -16300.291015625, -58480.96875, -31305.25, 107255.0625, -137591.421875, 110344.5703125, 73900.9453125, 118354.4140625, 143909.046875, 72196.828125, -27198.19140625, 139667.0625, 22446.85546875, 115024.8515625, -47271.2890625, 1040.40087890625, 104594.375, 28888.85546875, -36583.13671875, -94316.9375, -133366.9375, -28878.7734375, 101617.4609375, -126780.4765625, 22551.09375, 23074.26953125, 33318.84375, 19369.013671875, 25513.82421875, 101782.78125, -133916.078125, 108409.1640625, -430.2626953125, -46815.80078125, 102237.921875, 27900.142578125, -100356.8515625, 14022.6484375, -109512.1015625, 84458.9921875, 26484.091796875, 54435.75390625, -92384.078125, 9531.439453125, 101439.890625, 33396.41015625, 11013.4931640625, 69863.5078125, 111968.03125, -139120.203125, 9637.0859375, -96322.375, 36414.33984375, -80894.828125, 35608.15234375, 130478.828125, 43920.0390625, -118373.1015625, -140602.40625, 51046.6796875, -69991.3125, -79437.34375, -32813.046875, -123029.8046875, -67805.5546875, 79464.875, -10468.4990234375, 23614.171875, 36125.7890625, 103366.9765625, -8303.7294921875, -1899.1368408203125, 93017.1328125, 49767.0390625, -73770.8359375, -5971.1982421875, -126498.640625, 32765.212890625, 32999.4921875, 114696.140625, -115252.109375, 59005.5234375, -59426.046875, -101174.5703125, 43799.48828125, -37225.62109375, -94281.421875, 125091.09375, 61034.296875, 131682.375, 1553.42626953125, -36457.32421875, -49123.3515625, -36697.453125, 72288.3671875, 22313.748046875, -132604.5625, -10401.806640625, -133493.21875, -130848.484375, 6590.0087890625, -120254.828125, 84278.875, -69312.1484375, -39757.1953125, 65342.94140625, 25770.681640625, -42808.64453125, 78762.8125, -139043.78125, 32796.59375, -60210.17578125, 78689.2734375, -21587.568359375, -31611.181640625, -2176.606689453125, 73302.1328125, -17877.048828125, -81443.84375, -95459.203125, -19435.53515625, 118824.5625, 20629.380859375, 21231.36328125, 48979.3359375, -77047.3046875, -109370.0078125, -108475.6171875, -79514.4609375, -112431.3359375, -64921.6640625, 95962.34375, 6365.77490234375, 130902.484375, -110576.453125, -21271.31640625, -119392.7265625, 68158.625, 78293.4921875, 31096.84765625, 99980.5546875, -59861.09375, -85285.859375, 134838.578125, 99027.5625, -87431.2890625, -114230.078125, 136179.5, 3589.80126953125, -17473.0078125, -62681.66796875, 143632.625, -51280.72265625, 109310.0625, 54390.29296875, -136281.0625, 105972.5703125, -91682.0546875, 50819.828125, 128413.3046875, 19140.203125, 137655.09375, 126999.3203125, -86053.5078125, -27627.97265625, -9169.0732421875, 136980.046875, -108806.671875, 4340.06787109375, 44899.83984375, 82718.3984375, 31847.458984375, -142946.59375, 29188.970703125, 134126.46875, 95655.1171875, 36374.3515625, -43638.47265625, 130710.84375, -133085.421875, -130512.8671875, 25716.30859375, -68041.5234375, 86005.8046875, -134210.296875, -27916.076171875, -61670.3125, 5689.39208984375, 59485.71875, -46883.18359375, 55640.75, -70444.8046875, -66276.3203125, -95101.2734375, 94917.3359375, 11879.5244140625, 28328.271484375, -117502.9765625, -88704.3828125, -59925.2734375, -92688.421875, -123175.8515625, -65040.28125, 23371.216796875, -104568.1171875, 115960.703125, -41929.7421875, -117589.1796875, 16934.484375, -87142.7734375, -7230.60205078125, 89512.296875, -36033.76953125, 23006.26953125, 27475.525390625, 6405.349609375, 2912.936767578125, -23394.720703125, 39034.25, -79482.9375, -67415.3828125, 124386.6328125, -15280.0556640625, 124543.828125, -142060.46875, 9271.3818359375], [0.4317969083786011, -1.4892268180847168, 0.9528257250785828, 0.9184359312057495, 2.468674421310425, 0.7865999341011047, -0.5416237115859985, -0.3089941442012787, -1.3058769702911377, 0.8551512956619263, 0.961737334728241, -0.8839719295501709, -0.19936151802539825, 0.19534099102020264, 0.27295178174972534, 0.2010500133037567, 0.3880898356437683, -0.2869358956813812, 0.5453046560287476, 0.8854796886444092, -0.3140929639339447, -0.5583437085151672, 1.4880601167678833, -0.7421203255653381, 0.20485830307006836, -1.1724272966384888, 0.6967378258705139, 0.47250548005104065, 0.1741316318511963, 0.7609648704528809, 0.7162956595420837, -0.13052648305892944, 0.42682918906211853, -0.6570800542831421, -0.3025915026664734, -0.673555850982666, 0.4886225461959839, -0.09776028990745544, -0.665573000907898, -0.6267961263656616, -0.27002325654029846, 0.08256086707115173, -0.6254879236221313, 0.23030471801757812, 0.5642634034156799, 0.8580735325813293, -0.8255944848060608, 0.9175813794136047, 0.2535039186477661, 0.7910727262496948, -0.48159274458885193, -0.23160003125667572, -0.4340030550956726, -0.44117122888565063, 0.7951592803001404, 0.18770286440849304, 0.22448275983333588, -0.29764440655708313, 1.176100492477417, 0.19171056151390076, 0.7349563241004944, 0.012521393597126007, -1.0170801877975464, -0.033290959894657135, 0.31355220079421997, 0.8221612572669983, -0.00032622404978610575, 0.8468728065490723, -1.009135127067566, 1.329728364944458, 0.31037959456443787, 0.7672997713088989, 0.17252087593078613, -1.3252475261688232, 0.2914520800113678, 1.0555505752563477, 0.4926040768623352, 0.04214613512158394, -0.027238784357905388, 1.262399673461914, -1.0753555297851562, -1.0815898180007935, 1.9210458993911743, 0.2124156802892685, 1.2433174848556519, 1.2582762241363525, 1.0129998922348022, -0.7824258804321289, -0.025371979922056198, -0.0970674380660057, 0.6176531910896301, -0.20637236535549164, 0.3258291482925415, 0.06834214180707932, 0.10615254938602448, -0.6662093997001648, -0.3764345645904541, 0.5336973667144775, 0.35963720083236694, 0.49478739500045776, -0.4238113462924957, 0.3944903612136841, 0.9596168398857117, -0.7230517268180847, 0.18770015239715576, -0.4236651360988617, 0.3556552827358246, -0.21176719665527344, 0.565602719783783, 0.23379284143447876, 0.7502996921539307, -0.26499295234680176, 1.050506353378296, 0.30213820934295654, 0.1482580304145813, 0.6718253493309021, 0.2687232494354248, -0.08955104649066925, 1.0374109745025635, -0.10217785090208054, 0.004673806484788656, 0.5846253633499146, 1.1274504661560059, -0.2606104910373688, 1.0208508968353271, 0.23865556716918945, -1.1668686866760254, -0.5078428387641907, 0.1112048551440239, 0.34680232405662537, -0.45054861903190613, -0.5352567434310913, -0.8494643568992615, -1.1287586688995361, 0.4730070233345032, -1.4167187213897705, -0.06814833730459213, -0.6666556596755981, 0.004112793132662773, 0.4011284112930298, 0.43351468443870544, -0.27390825748443604, 0.6033980846405029, -0.41484692692756653, -0.1796574741601944, 0.4797942340373993, 1.0418723821640015, 0.5895148515701294, 1.2465393543243408, 0.19385473430156708, -0.16702601313591003, 0.3190698027610779, -0.8835762143135071, -0.8007599115371704, -0.7859037518501282, 0.8354553580284119, -1.0761468410491943, -0.3180623948574066, -0.7098124623298645, -1.6083476543426514, -0.04950563609600067, -0.05647938698530197, 0.14932633936405182, 0.038078099489212036, 0.5299065113067627, -0.15755988657474518, -0.5967212319374084, 0.4041233956813812, 1.5801258087158203, -0.22685658931732178, 0.9353654384613037, 0.9779820442199707, -0.10690862685441971, 0.028024394065141678, 0.16046422719955444, -1.2426363229751587, 1.5917118787765503, -0.14671772718429565, -0.6501008868217468, 0.2165740430355072, -0.6357625722885132, 0.7572069764137268, 1.0006544589996338, -0.6215071678161621, -0.21966806054115295, -0.6480494737625122, 0.20556066930294037, -0.31009814143180847, 0.18611490726470947, -0.9333341717720032, 0.7866012454032898, 0.2653041481971741, 0.3692154884338379, 0.7135364413261414, -0.384093701839447, -0.666162371635437, 0.3477199673652649, -0.29145169258117676, 0.19690178334712982, 1.4630740880966187, 0.15477316081523895, -1.0857899188995361, -0.22584739327430725, -0.5808319449424744, 0.35836246609687805, 0.9591209888458252, -0.2971014678478241, 0.027844341471791267, 0.39015844464302063, 0.20645244419574738, 0.6660196185112, 0.20374123752117157, -0.1844426542520523, -0.10745900124311447, 0.5508728623390198, -0.22653475403785706, 0.007474338170140982, 0.1675623655319214, 0.705399215221405, 0.7472955584526062, -0.7363227605819702, -0.9857347011566162, -0.41503021121025085, 0.859083354473114, -0.06491297483444214, -0.6965469121932983, 0.31481698155403137, -0.8945956826210022, -0.8497117757797241, 0.004439951851963997, 0.13088838756084442, -1.5066596269607544, 1.382166862487793, 0.5937471985816956, 0.03934649005532265, -0.47117191553115845, 0.003702247515320778, 0.041133761405944824, 0.5490963459014893, -0.004495709668844938, -0.8452014327049255, 0.4142700135707855, -0.3339758515357971, 0.14760006964206696, 0.7046236991882324, -1.0906509160995483, 0.685632050037384, -0.18429578840732574, -0.5414386987686157, -0.07662537693977356, 0.14202117919921875, 0.9149173498153687, -0.6286299824714661, 0.12769532203674316, -0.6431453227996826, 0.5064389705657959], [-0.6664559245109558, 1.6809957027435303, -0.2279578000307083, -1.0361576080322266, -1.1351500749588013, 0.8748822808265686, -1.1743521690368652, 0.03010343573987484, 1.5655412673950195, 0.11002980917692184, 1.118801236152649, -0.9419448971748352, 1.0820062160491943, 0.7101434469223022, 1.0445178747177124, -1.1858839988708496, 0.8751010298728943, 2.4222252368927, 0.11929985135793686, 0.6458836793899536, 1.2846288681030273, 0.5547690987586975, 0.37355902791023254, -2.230316162109375, 0.16962194442749023, 0.8873796463012695, 0.21708905696868896, -1.4664973020553589, 0.864072859287262, 0.2582903504371643, 1.0399664640426636, -1.1069532632827759, -0.376966267824173, 1.41804039478302, 2.589341878890991, 1.0050281286239624, 2.0420737266540527, 0.5813657641410828, 0.7265142798423767, -0.2749793827533722, -0.7346735000610352, 0.514641523361206, -0.09895286709070206, 1.741593599319458, -0.1907065063714981, 0.565082848072052, -0.1372474879026413, 0.32617512345314026, 1.0755165815353394, -1.1189833879470825, -0.0728723481297493, -0.3275623321533203, 0.3759680986404419, -0.33162370324134827, -0.4603661894798279, -0.6506572365760803, 0.0708138644695282, 1.7160937786102295, 1.497611403465271, 0.08034457266330719, 0.3546683192253113, 1.0154167413711548, 1.0797531604766846, 0.4951125383377075, 0.7067786455154419, -0.85422283411026, 0.9378131628036499, -0.40048539638519287, -0.6214377284049988, -1.2023131847381592, 0.2790631949901581, -1.4913910627365112, -0.19894863665103912, 1.9363797903060913, -0.9959867000579834, 1.5737671852111816, 1.640306830406189, -2.8867177963256836, 2.3596699237823486, 0.9983522891998291, 0.7394406199455261, 0.06264887005090714, 0.009859406389296055, 1.5363515615463257, -0.01598525419831276, -0.6624738574028015, 0.04981549456715584, -0.30127209424972534, 0.25887876749038696, 0.15411949157714844, 1.2494595050811768, -0.005016135983169079, 0.7935757040977478, 2.081068277359009, 1.1435062885284424, 2.9296116828918457, -0.6797730326652527, 0.12049807608127594, 0.4774028956890106, -0.3829772174358368, -1.8441033363342285, 1.3191523551940918, -0.2309890240430832, 0.8947355151176453, 1.392632246017456, 1.2202134132385254, -0.16784648597240448, -1.1440492868423462, -0.8233916759490967, -0.10409136116504669, 1.3689086437225342, 0.4291630983352661, 0.556903064250946, -1.284919261932373, 0.5549201965332031, 0.7293772101402283, 0.43207523226737976, -0.010425531305372715, -1.2364981174468994, 2.1697397232055664, -0.1365753710269928, 0.4232485592365265, 1.15459144115448, 0.9144749045372009, -1.2891759872436523, -1.4159166812896729, -0.2546287178993225, 0.7460359334945679, 0.5370020270347595, -0.2914213240146637, 1.336690902709961, -0.519209623336792, 1.5169590711593628, 1.6524889469146729, -0.5138776302337646, 0.5222028493881226, -0.9969838857650757, -0.3635391891002655, 1.7170588970184326, -1.7680037021636963, -0.9701038002967834, 0.7502812743186951, -0.8570278286933899, -0.8824285864830017, -1.58326256275177, -0.7052759528160095, -0.8236153721809387, -0.6527579426765442, -0.9298959970474243, 2.065553665161133, 2.154587507247925, -0.06671836227178574, -1.1278235912322998, -0.0462791882455349, 0.14892829954624176, 0.2029668539762497, -0.8797192573547363, 0.3585157096385956, 0.680311381816864, -0.4975990355014801, -0.9980047345161438, 0.697390079498291, -1.670785903930664, 0.6606914401054382, 0.03727996349334717, -0.003766922978684306, 0.7492735981941223, -1.5016844272613525, -1.6431795358657837, -1.0713403224945068, 0.6245107054710388, -1.0020684003829956, -0.8120325207710266, -0.9448097348213196, -0.5734570026397705, -1.0091443061828613, 0.9701501131057739, -0.10817286372184753, 0.22504375874996185, 0.40464645624160767, -0.32651805877685547, 1.7876570224761963, 0.6806039810180664, 2.106297492980957, 1.3658223152160645, -0.6854987740516663, -0.7214871644973755, 1.8024059534072876, -1.1093212366104126, 0.1573973000049591, -1.123173713684082, -0.27609914541244507, 1.2796409130096436, 1.1910638809204102, 2.0877745151519775, 1.1561204195022583, -1.30485999584198, 0.43120554089546204, -1.711972951889038, 0.7708941698074341, -0.47822389006614685, 0.7916491031646729, -0.3938380479812622, -0.22867433726787567, 0.11460863053798676, -1.2618824243545532, 0.7634265422821045, 1.942102074623108, 0.8865272402763367, 0.7507035136222839, -1.484311580657959, -2.2682723999023438, 0.9580426812171936, 1.676154613494873, 1.8462790250778198, -0.6468297243118286, 0.42583510279655457, 0.3462541997432709, 0.7450129389762878, 0.26067057251930237, -0.9169265031814575, -0.4712616205215454, 0.04724957048892975, 0.8037329316139221, -0.3805042803287506, 1.7836449146270752, -1.6672558784484863, -1.4895533323287964, 0.40232282876968384, -2.205059051513672, -1.5037351846694946, 0.6131505370140076, 1.2740910053253174, 0.5339256525039673, -1.943076252937317, 0.11094845831394196, -0.022165076807141304, 1.1102813482284546, 0.3454781174659729, 0.5962913036346436, 0.43552640080451965, 0.088947594165802, 0.9259436130523682, 0.2213972508907318, 0.6658005714416504, 2.2767460346221924, -0.3171696960926056, -0.6465965509414673, 1.6711000204086304, -0.4181317389011383, -1.271071195602417, 0.3896269202232361, -0.24358980357646942, -0.11962993443012238, -0.7630003690719604, -0.022013207897543907], [0.3830941915512085, -1.7677083015441895, 2.2283592224121094, 1.8471002578735352, 0.5943698287010193, -1.7395955324172974, 1.103297233581543, 0.7832618355751038, -0.9545288681983948, 0.9740294218063354, 1.5761775970458984, -1.0292986631393433, -0.976349949836731, -1.929763674736023, -1.1993902921676636, -0.2175033837556839, 0.645149827003479, 1.6860483884811401, -1.4825021028518677, 1.6291097402572632, -2.0397443771362305, 0.6218239665031433, -0.09067769348621368, -0.7048455476760864, -1.8865774869918823, -1.8703023195266724, 1.2992690801620483, 1.4096251726150513, -0.9952114820480347, -1.9579674005508423, 0.8823147416114807, -0.3831840455532074, 1.2300931215286255, 1.4298069477081299, 0.8157200813293457, -0.8793797492980957, -1.5090932846069336, 1.8786208629608154, 0.21591651439666748, -2.0440285205841064, -1.890668511390686, -1.872408151626587, 0.7006297707557678, -0.2586434483528137, 0.8989603519439697, -0.25024789571762085, 1.1890934705734253, -0.22199882566928864, 0.15165719389915466, 0.19511787593364716, -1.1123813390731812, 0.25339311361312866, 0.05517495051026344, 1.0911836624145508, -0.9180270433425903, -0.563866376876831, -0.21031935513019562, -0.12630701065063477, -1.2649542093276978, -1.638451337814331, 2.0016579627990723, 0.7097271084785461, 1.0397981405258179, -0.6586591005325317, 0.34830570220947266, -0.6145556569099426, -1.001366138458252, 1.1472572088241577, -0.6403435468673706, 1.0840123891830444, 0.5006117224693298, 0.3709114193916321, 2.1761817932128906, -0.7583023309707642, -1.479177474975586, -2.0440003871917725, 0.6926555633544922, -0.34011733531951904, -0.725344717502594, 0.13217565417289734, 1.4484176635742188, -1.15146803855896, 2.2302515506744385, -0.826836347579956, -0.34915056824684143, 1.1989318132400513, -0.20195741951465607, -0.05653339624404907, -0.7777857184410095, -0.8831623792648315, 2.1109821796417236, -0.6695664525032043, -0.33612874150276184, 2.6488873958587646, -1.459923267364502, -1.2064450979232788, -2.8195605278015137, 1.3153655529022217, 0.8695561289787292, -0.6594770550727844, 1.269981026649475, -1.178960919380188, -0.20545735955238342, -1.836395025253296, 0.03670963644981384, 1.7842673063278198, -2.002561569213867, 0.7138485312461853, -2.1162760257720947, -0.20732904970645905, 0.35215744376182556, -0.4776126444339752, 0.2316136658191681, 0.7318737506866455, 0.8436073064804077, 0.9736515283584595, 1.4309649467468262, -0.9508552551269531, 1.1649243831634521, 0.561054527759552, -0.06781460344791412, 1.4941458702087402, 1.0897883176803589, 0.4110989272594452, -0.7916964292526245, -1.3406723737716675, 1.7451354265213013, 0.6348412036895752, 1.1174535751342773, -0.7464772462844849, 1.2065845727920532, 0.40013808012008667, 0.1449527144432068, 0.24444937705993652, -0.9913718104362488, -0.45560434460639954, 1.0120718479156494, -0.22958967089653015, -0.07127979397773743, -0.3511025607585907, -0.4609294533729553, 0.02177891507744789, 1.7330286502838135, -1.7364996671676636, -0.3202809691429138, 1.589498519897461, 1.3157333135604858, 0.4097413420677185, 0.3470059335231781, -0.07043171674013138, 1.4250681400299072, 0.05656738951802254, -0.6909731030464172, 0.3879493772983551, 0.3764283359050751, -0.26839539408683777, -0.2623966336250305, -0.44759657979011536, -2.2570436000823975, -0.45820072293281555, 1.0661628246307373, -0.3986499607563019, 0.48310181498527527, 2.3214826583862305, -0.3917804956436157, -0.1290050894021988, -0.7385831475257874, -2.0474915504455566, -0.7382552027702332, 0.0029462934471666813, 0.038630567491054535, 1.561362624168396, 0.4834432899951935, 2.0749049186706543, 1.512483835220337, -0.28653866052627563, -0.8846462965011597, 1.053390383720398, 0.36201295256614685, -1.1774147748947144, 3.1097257137298584, 0.7730312347412109, -0.0860845297574997, 1.1978341341018677, -0.3397558331489563, 1.5841975212097168, 1.5086690187454224, 2.286794424057007, -1.062988519668579, -0.6261693239212036, -1.536089301109314, -1.3603715896606445, 0.2575177848339081, -0.776883065700531, 1.7615013122558594, 2.335794448852539, 0.3711029291152954, -2.602177143096924, -0.46154412627220154, 0.24717311561107635, 1.0915615558624268, -0.6738852858543396, -0.42161718010902405, -0.36853912472724915, -0.1824626326560974, 3.0938830375671387, -0.6560103297233582, -1.471436619758606, -2.1204776763916016, 0.5362060070037842, 0.6077516078948975, 1.3791452646255493, 0.5331501364707947, -2.0317130088806152, -1.0054136514663696, 0.336203396320343, -0.20536784827709198, 0.48393991589546204, 0.3227214813232422, 2.353987455368042, -0.6435862183570862, 0.19112762808799744, -0.45424938201904297, 1.1685861349105835, -1.09834623336792, -0.6999818086624146, 2.608565330505371, 0.0261638592928648, -1.0106985569000244, -1.006356120109558, 0.4059707820415497, 0.32424232363700867, 0.30425551533699036, 0.4077078700065613, 0.37576526403427124, -0.9201799631118774, -0.47525161504745483, 0.2152145802974701, 2.234877824783325, -0.2627122104167938, 1.0526765584945679, -1.5936908721923828, -0.2801080644130707, 2.8975672721862793, -1.1616703271865845, -1.9049957990646362, -0.6342831254005432, 1.7932928800582886, -1.5938286781311035, 1.841400146484375, -1.0016437768936157, 0.3453245759010315, -0.5577434301376343, -1.6193177700042725, -0.2780461609363556, 0.23552586138248444], [0.4628688097000122, -0.21027177572250366, -0.5996841192245483, -0.3270743787288666, 0.4209115505218506, 0.06479700654745102, 0.423789381980896, -0.2499554306268692, 1.0746996402740479, -0.1750171184539795, 0.15108633041381836, -0.523698627948761, -1.375566840171814, -0.5955525636672974, 0.3095395863056183, -0.08053262531757355, -0.2447652369737625, -0.7134459614753723, -0.17587701976299286, 0.19173502922058105, 0.2392018586397171, -0.3731442391872406, -0.29174137115478516, -0.8713003993034363, 0.5737637281417847, -0.7729057669639587, 0.37435322999954224, 0.8827847242355347, -0.7415109276771545, 1.1071940660476685, 0.8238157629966736, -0.14327052235603333, 0.9370084404945374, -0.1960645318031311, 0.38030150532722473, 0.5679199695587158, -0.08574844896793365, 1.0078948736190796, 0.21223251521587372, -0.5580548644065857, -1.0081019401550293, -0.8144102692604065, 0.1246475875377655, -0.13819849491119385, -0.4743616580963135, -0.0822153240442276, -0.09584108740091324, 0.24082274734973907, 0.03725207597017288, 0.31206783652305603, -1.0119777917861938, 0.9426763653755188, 0.3929906487464905, 0.11491329967975616, 0.41472774744033813, -0.05459490045905113, -0.15181906521320343, -0.35701194405555725, -0.029759638011455536, -0.49232035875320435, 0.24573945999145508, -0.3312567472457886, -0.24770858883857727, -0.5237720012664795, -0.33941230177879333, -0.6729363203048706, 0.18360398709774017, 0.5483882427215576, 0.6947937607765198, 0.0867680162191391, -0.21919478476047516, -0.3981005847454071, 0.17148730158805847, -0.1541849821805954, 0.6933654546737671, 0.7935951948165894, -0.12806786596775055, 0.13323521614074707, 0.7668328285217285, -0.21445825695991516, -0.8580039143562317, 0.6953655481338501, 0.4951311945915222, -0.08731764554977417, 0.6317901015281677, 0.4307919144630432, 0.5733286738395691, -0.2250688076019287, -0.565204381942749, 0.3642052710056305, -0.34526047110557556, 0.1272645890712738, -0.08117593079805374, -0.3334921896457672, 0.47979557514190674, -0.299556702375412, 0.019936585798859596, 0.2417992800474167, -0.47681301832199097, 0.8692586421966553, 0.3538060784339905, -0.36349746584892273, 0.1599016934633255, -0.627109944820404, 0.1654193103313446, 0.29661837220191956, 0.06679213792085648, -0.4576529264450073, -0.08932196348905563, -0.8552513718605042, 0.8673009872436523, 0.1758585125207901, 0.4892581105232239, 0.8593654632568359, -0.12236988544464111, -0.2026686817407608, -0.22579579055309296, -0.088492251932621, 0.32926005125045776, -0.29464295506477356, 0.11519324034452438, -0.8094781041145325, -0.470619797706604, -0.1585852950811386, 0.25271570682525635, 0.1978147327899933, 0.17585277557373047, 0.3525376617908478, -0.1326959729194641, -0.6726425290107727, 0.02494881860911846, -0.14079904556274414, -0.5574352741241455, -0.6898478269577026, -1.2700973749160767, -0.8510571122169495, -0.46078094840049744, -0.5836554765701294, -0.026110846549272537, -0.45345842838287354, -0.500568151473999, 0.23287071287631989, -0.34226417541503906, 0.2225770652294159, -0.4997148811817169, -0.47051122784614563, 0.007688374258577824, -0.7227482199668884, 0.31260979175567627, -0.5903663635253906, -0.5224294066429138, 1.109862208366394, -0.27152568101882935, -0.7461271286010742, -0.42555296421051025, -0.21923747658729553, -0.1926202028989792, 0.046307411044836044, 0.4369391202926636, -0.658358633518219, 0.22925274074077606, -0.5619544982910156, 0.5230691432952881, -1.3185234069824219, 0.06844674795866013, 0.14957882463932037, 0.998988926410675, 0.5472264885902405, 0.41886040568351746, -0.2334628850221634, -0.4967190623283386, -0.22159038484096527, -0.9862741231918335, 0.04675181955099106, -0.39446312189102173, -0.026845844462513924, 0.6549794673919678, 0.3303142189979553, -1.0003323554992676, -0.13015064597129822, 0.6653576493263245, -0.1895516961812973, -0.22169655561447144, -0.42595174908638, -1.427664875984192, -0.2143278270959854, -0.1912968009710312, 0.9783199429512024, 0.32379260659217834, -1.4754230976104736, 0.2509256899356842, -0.18754605948925018, -0.4788183867931366, -0.15537719428539276, -0.6596004366874695, 0.11131633073091507, -0.049178119748830795, 0.909716784954071, -0.34932488203048706, -0.646007776260376, -0.19433653354644775, 0.12772256135940552, -0.3420153856277466, -0.546012282371521, 0.3898211419582367, 0.08246307820081711, 0.07357645779848099, -0.17791037261486053, 0.08646705001592636, -0.8580470681190491, 0.4861145615577698, 0.2573658525943756, 0.11442643404006958, 0.33487576246261597, -0.5728513598442078, -0.2624463438987732, 0.3963680565357208, -0.4155914783477783, -0.6844841837882996, -0.004129534587264061, 1.2387546300888062, -0.16044314205646515, -0.4734511375427246, 0.347094863653183, -0.4723639190196991, -0.5358456373214722, -0.08073335140943527, -0.29461145401000977, -0.5050348043441772, 0.9963923096656799, 0.33098965883255005, 0.8997056484222412, -0.07642778754234314, -0.9518046975135803, -0.6736389994621277, 0.585033655166626, 1.1677844524383545, 0.11745422333478928, -0.2749214470386505, -0.03906279429793358, 0.38542047142982483, 1.1506866216659546, 0.8828752636909485, -0.7856051921844482, -0.6180177330970764, -0.5295428037643433, 0.21966175734996796, 0.7306607961654663, -0.4506308138370514, -0.6898060441017151, -0.9085983633995056, -0.23426960408687592, 0.201588973402977, 0.66974937915802, -1.1702357530593872, 1.480981469154358], [-1.0564481019973755, -0.6336671113967896, 1.3869740962982178, -0.6113265752792358, -0.9815079569816589, 0.21376432478427887, -1.6147236824035645, -2.2548446655273438, -2.3948938846588135, -1.8425624370574951, 0.912145733833313, 1.2339658737182617, -0.2718329429626465, -0.9145485162734985, -1.1993646621704102, 1.7538299560546875, -1.046828031539917, 0.7719748020172119, 0.2132124900817871, 0.20988112688064575, -0.34263163805007935, 0.31228554248809814, -1.4869083166122437, 1.7665493488311768, -0.930188775062561, -1.2212438583374023, -1.1631160974502563, -1.639020323753357, 0.5720490217208862, -1.2255967855453491, 0.7681890726089478, 0.4748018682003021, 2.0830044746398926, -0.2853408455848694, -1.502397060394287, -1.0885114669799805, 0.9471970796585083, 0.32186058163642883, -0.8927056193351746, -1.306555151939392, 0.7709899544715881, -2.203066349029541, -1.9979153871536255, -0.1440606564283371, -1.3241627216339111, -0.3059898018836975, 1.6231398582458496, 0.04838057607412338, -0.8058478236198425, 1.6126775741577148, -0.6182544231414795, 0.915381133556366, -1.8097490072250366, -0.004531268496066332, -0.976027250289917, 1.2531580924987793, 1.251834750175476, 0.1817251592874527, -0.45228415727615356, 0.1020437553524971, -0.34664854407310486, 1.6121923923492432, -2.2372658252716064, -0.6191319823265076, 0.11305931955575943, 0.12869377434253693, -1.743576169013977, 0.41762346029281616, -0.9440485239028931, -0.05232211574912071, -0.4657427668571472, 0.22883939743041992, -1.6356359720230103, 0.5685921907424927, 1.2357085943222046, -0.6369534730911255, -1.7890362739562988, -0.7779778838157654, -2.9592833518981934, 0.14197145402431488, 0.47032979130744934, 0.10362854599952698, 0.5575796961784363, 1.115585446357727, 2.00866961479187, 2.465691089630127, 0.025341423228383064, -0.9087035059928894, 0.7211432456970215, -2.315916061401367, 1.5037130117416382, 1.1223397254943848, 0.005668521858751774, 0.7232035994529724, -0.5638120174407959, -0.039147280156612396, -0.2405911386013031, -1.2463124990463257, 0.16907387971878052, -0.8915022015571594, 1.4361903667449951, -0.08681301027536392, -0.364989310503006, 0.48199591040611267, -0.8331788778305054, -0.7317598462104797, -0.6990830898284912, -0.4864601790904999, -0.6173545718193054, 0.37733256816864014, -0.5510976910591125, -1.658284306526184, -1.2087030410766602, -0.8561856150627136, -1.24367094039917, -0.4789574444293976, 0.4683614671230316, 0.5546044707298279, 1.085030436515808, 0.29209044575691223, -1.576707124710083, -0.4439481198787689, 0.22711622714996338, -0.007807791233062744, -0.019465310499072075, -0.4234026372432709, 1.5982378721237183, 1.7027220726013184, -0.18811780214309692, 1.5421139001846313, 0.5303441882133484, 1.4873427152633667, -0.9429803490638733, -2.231004238128662, 2.014538049697876, 1.3860145807266235, -1.0844407081604004, 0.7845310568809509, -0.03221063315868378, 1.7022424936294556, 0.6138433218002319, -1.1124517917633057, 0.7019938826560974, 1.1664972305297852, 0.29622673988342285, 0.25989317893981934, -0.5077888369560242, 1.1844756603240967, 3.0250792503356934, 0.7519517540931702, -0.12581200897693634, -0.3242909908294678, 0.534451961517334, 2.0904178619384766, -0.384734183549881, 0.5986034274101257, 1.6376785039901733, 0.6179990768432617, -0.5729615688323975, -0.07448723167181015, -0.6085492968559265, 1.0915426015853882, 0.39422523975372314, -1.308334469795227, 0.33531349897384644, -0.8540571928024292, 0.6921764016151428, 0.0750114843249321, -0.8948375582695007, -1.2511804103851318, -1.4483925104141235, 0.39412859082221985, 0.42898479104042053, -0.3633457124233246, -0.35366278886795044, -0.5110359787940979, -0.9056544303894043, 1.4352002143859863, -0.2405397742986679, 1.5199366807937622, -1.3641762733459473, -2.2106189727783203, -0.9520822167396545, -0.06475930660963058, 0.13323092460632324, 1.0333740711212158, 0.7147417664527893, -0.14065441489219666, 0.03695934638381004, 0.25086697936058044, -0.24095872044563293, 0.935673713684082, -0.5019916296005249, -0.08698871731758118, 1.2263410091400146, -1.0377424955368042, 2.0455310344696045, -1.9160475730895996, -0.20148569345474243, -2.073148012161255, 0.5326328277587891, 0.8211315274238586, -0.8521272540092468, 1.318896770477295, 2.104814291000366, -1.0128804445266724, 0.3306582272052765, -0.37838807702064514, 0.5719361901283264, -1.7702502012252808, 2.2421770095825195, 0.0987594947218895, -1.897526741027832, 0.9201294779777527, -3.4844486713409424, 0.8381929397583008, 0.7474979758262634, 0.45913711190223694, -1.2850042581558228, -0.33734866976737976, -0.1506374329328537, -1.0217007398605347, -1.3281086683273315, -0.25865375995635986, 0.7333261370658875, -0.18984872102737427, -0.16056795418262482, 2.041719913482666, -0.7137199640274048, -0.2274649292230606, -2.208261251449585, -1.103117823600769, -0.7676412463188171, 2.8040060997009277, 0.8868119120597839, -1.326364278793335, 0.5403932929039001, -0.050586599856615067, -0.5205301642417908, 0.09916790574789047, -1.2766975164413452, 0.019388651475310326, -0.3831930458545685, 0.9470666646957397, -0.08222361654043198, -1.8636233806610107, -1.0727089643478394, -1.4998705387115479, 0.6205940246582031, 2.1551105976104736, 1.0363147258758545, -0.7411560416221619, -1.5457572937011719, -2.1126039028167725, -0.38927483558654785, -1.766190767288208], [0.4368138909339905, -0.5965267419815063, -0.35379692912101746, -1.895072102546692, -0.9818295836448669, -1.722252607345581, 0.6614568829536438, 1.4891042709350586, 1.5101202726364136, 0.06581849604845047, 1.0303694009780884, -0.86888188123703, 0.1497875601053238, -1.2398995161056519, -1.1049785614013672, -2.347379446029663, 0.3808373510837555, 0.5510407090187073, -2.036583423614502, 2.480522871017456, -2.033825159072876, 0.3214401304721832, -1.2451701164245605, -0.3678649365901947, -1.5761610269546509, -1.249157428741455, 1.0806095600128174, 1.319481611251831, 1.32180655002594, -1.0135042667388916, 1.7047377824783325, 1.6788301467895508, 3.3404529094696045, 1.8213127851486206, 2.980682373046875, -0.9018480777740479, -1.8861665725708008, 1.9054169654846191, -0.6915521621704102, -0.5597657561302185, -0.39208388328552246, -0.3141920864582062, -0.6348016858100891, -1.4461407661437988, -1.838832974433899, -0.5877189040184021, 0.7462612986564636, 0.2990865111351013, 1.2711665630340576, 0.8356038331985474, -0.6523934602737427, -0.6665413975715637, 1.0841416120529175, 0.5328251719474792, 1.0430516004562378, -1.8195130825042725, -0.953762412071228, -2.9492924213409424, 0.0887085422873497, -0.7598090767860413, 2.185757637023926, 0.058534011244773865, 1.4977613687515259, -0.6829268336296082, -0.04587600380182266, -0.550005316734314, 0.7315575480461121, 0.19794583320617676, 0.47195911407470703, -1.498365879058838, 2.219165802001953, 0.03377874568104744, 2.147355556488037, -1.5956847667694092, -1.7531988620758057, 0.36379867792129517, -1.2109076976776123, -1.0993696451187134, 1.0385686159133911, 0.3499114215373993, 0.2897697687149048, -0.5101099610328674, 1.274639368057251, -2.171149730682373, -1.1326615810394287, -0.018048878759145737, 0.8742668032646179, 0.14504684507846832, 1.2286622524261475, -0.1781141608953476, 0.7481948137283325, -2.3352200984954834, 0.40760982036590576, 1.4834716320037842, -1.664674162864685, -1.3066130876541138, 0.5538990497589111, 0.4901236295700073, -0.6785834431648254, -0.7236344814300537, -0.20662669837474823, -2.7240912914276123, 1.021640419960022, 0.0602041520178318, -0.6627561450004578, 0.19376689195632935, -2.196932077407837, -1.247436761856079, -2.8387646675109863, 0.11439211666584015, 2.4785592555999756, -2.063570737838745, 0.1811797022819519, -0.7873218655586243, -0.2677842974662781, 1.5193731784820557, 0.5343058705329895, 0.34475430846214294, -0.1536206603050232, -1.3922843933105469, -0.10483653098344803, -1.3030253648757935, 1.0728726387023926, 1.2773973941802979, -0.4679574966430664, -1.133863925933838, 0.34229373931884766, 0.05579611286520958, -0.7827613949775696, -0.2938991189002991, 1.4030722379684448, 0.918051540851593, 0.45960095524787903, -1.3652828931808472, -2.15527081489563, 1.0428484678268433, -0.5939162373542786, -1.405236005783081, -0.4701001048088074, 1.2374521493911743, -2.5118496417999268, -2.985018253326416, 1.5462490320205688, -0.2483920454978943, -2.4537999629974365, -0.688689112663269, 0.4233956038951874, -2.439896583557129, -0.3395438492298126, -0.4949275255203247, -1.5527570247650146, 0.437501460313797, -2.3434250354766846, -1.092605471611023, 0.48765647411346436, -1.1517372131347656, 1.1311150789260864, -0.4846884608268738, -0.2894887328147888, 0.005900878459215164, 1.600217342376709, 0.4387948513031006, 0.21841444075107574, -0.613538920879364, 0.6602137684822083, -3.6367619037628174, -1.8273847103118896, -1.1043392419815063, 1.1477774381637573, -0.11344267427921295, -0.9639073610305786, -0.22575050592422485, -0.3107239603996277, 1.0836453437805176, 0.8519400954246521, 0.6413415670394897, -1.2862656116485596, 1.2992486953735352, 0.26562052965164185, -1.8862863779067993, 2.0593762397766113, -0.778791069984436, -0.6017046570777893, 0.03713938221335411, -1.2833174467086792, 1.7241137027740479, -1.109107255935669, 0.6666419506072998, -0.11823824048042297, -0.43382692337036133, 0.7244796752929688, 1.0976239442825317, 2.1681838035583496, -0.8063839077949524, -0.2615831792354584, 2.295903444290161, 0.501690149307251, -1.9831253290176392, -0.8139118552207947, -0.354257732629776, -1.258270502090454, 0.910210132598877, 0.82745361328125, 0.5811843872070312, -0.950082004070282, 1.6351062059402466, 1.497780680656433, -3.159466028213501, -1.2240781784057617, -2.3929715156555176, -1.048129916191101, 1.7141304016113281, 1.157355785369873, -0.18528512120246887, -0.03592808172106743, -1.0031676292419434, -1.1518003940582275, 0.7868289351463318, -1.2164947986602783, 0.5372890830039978, -0.4632892608642578, 0.5211924910545349, -0.4895690679550171, 1.6135082244873047, -1.7486859560012817, -0.21406523883342743, -1.5106958150863647, 1.3352041244506836, -0.7835919260978699, -0.812837541103363, 0.47076305747032166, 1.0684113502502441, 0.39932936429977417, -0.6149185299873352, 0.0921606719493866, 1.8555800914764404, -0.21498046815395355, -0.3845975697040558, 1.165689468383789, 0.4473237693309784, -1.094833254814148, 0.3237244486808777, -1.2270793914794922, 0.10358165204524994, -0.23340527713298798, -0.47309911251068115, 0.3674778640270233, 0.2095789760351181, 1.1774845123291016, -0.32361167669296265, -2.816899299621582, 0.3975553512573242, -0.4157783091068268, -0.37503406405448914, -0.8308935165405273, 0.6773867011070251], [0.36344507336616516, 0.7818832993507385, 1.076643943786621, -0.5252277851104736, 0.2563612759113312, 0.28372982144355774, 0.738919198513031, 0.08010376244783401, 0.6940620541572571, -0.5286380052566528, 1.0883325338363647, 0.9311871528625488, -0.07845378667116165, -1.2755635976791382, -0.44306641817092896, -2.3646481037139893, 0.025294313207268715, -1.0025384426116943, -0.5504946708679199, 0.050505563616752625, 0.42887336015701294, 0.9219447374343872, 0.08278995752334595, -1.3320987224578857, -0.6710761785507202, 1.0233715772628784, 0.8773891925811768, -0.2731005847454071, 0.43678537011146545, -0.8870224952697754, -0.4732145369052887, 0.9189011454582214, 0.06730662286281586, 1.6224737167358398, 0.26193469762802124, -0.6259094476699829, 0.8460614681243896, -0.33767861127853394, 0.44560450315475464, -0.09102676808834076, -1.1993941068649292, 0.15941569209098816, -0.3774890601634979, -0.9270691871643066, 0.22024314105510712, -0.6157466173171997, 0.6777892708778381, 0.990386426448822, -0.271056205034256, 0.9888249039649963, -0.5961099863052368, 0.7191000580787659, -0.021395059302449226, -0.540989100933075, 1.8402825593948364, -0.8991931676864624, 0.2002643197774887, -0.3547435700893402, -0.08567048609256744, -1.0578651428222656, 0.9480993747711182, 1.000718116760254, 0.7303721308708191, -0.29993656277656555, -0.5220193862915039, 0.3277011811733246, -0.7068969011306763, -0.632114827632904, -0.9263051748275757, -0.355042040348053, 1.1088107824325562, 0.225926473736763, 0.6935810446739197, -0.1870589554309845, -0.46304234862327576, -1.3919850587844849, -0.03682980686426163, -0.37380456924438477, 0.24879203736782074, -0.32409006357192993, 0.417220801115036, 0.34711754322052, -0.05053911730647087, -0.5222955346107483, -0.12076766043901443, -1.0788967609405518, 0.5898364186286926, 0.1316504180431366, 0.1487950086593628, -1.119680404663086, 0.8859824538230896, -0.5826771855354309, -0.03426846116781235, 1.3040118217468262, -0.3285706043243408, -0.8062762022018433, -0.04278997331857681, 0.1818002462387085, 1.347914218902588, -0.7224360704421997, -0.2785625457763672, 0.13440006971359253, -0.5743427872657776, 0.2888694703578949, -0.6393285989761353, 2.2836036682128906, 0.3607558608055115, -0.03038926050066948, -1.8125760555267334, 1.0036834478378296, -0.24683639407157898, -0.4757576286792755, 0.7513622641563416, 0.9973697066307068, 0.9342581033706665, 0.404352068901062, 1.321816325187683, 0.8993602991104126, 0.0056350803934037685, -1.3999011516571045, 0.054273612797260284, 1.34785795211792, 0.27298763394355774, 1.8809888362884521, -0.19205918908119202, -0.8289710879325867, 0.44368210434913635, 0.29640868306159973, -0.9319494962692261, -1.3253822326660156, -0.10683005303144455, 2.8516926765441895, 2.26885724067688, 0.2804475426673889, 0.36541637778282166, 0.8406474590301514, 0.5696159601211548, 0.009656879119575024, -0.6941100358963013, 1.417700171470642, 0.20279169082641602, -1.2469592094421387, 0.969553530216217, -0.8802271485328674, -0.8473129868507385, -0.5401738286018372, -0.09462972730398178, -0.1597079187631607, -0.6619203090667725, 0.49852827191352844, -0.1891179233789444, -1.1395270824432373, -0.7712090611457825, 0.39622628688812256, -0.04502490535378456, -0.29948779940605164, 0.9157102704048157, -1.1516458988189697, 0.3577386438846588, 0.14135418832302094, 0.2993604838848114, 1.3662135601043701, -0.24922607839107513, -0.41072675585746765, 0.8775853514671326, -1.385908603668213, -1.1991804838180542, -1.3745659589767456, -0.26901012659072876, 0.38837873935699463, 0.6476470828056335, -0.5692829489707947, 0.7033674120903015, 1.5070124864578247, 0.6318041682243347, -0.753631591796875, -0.5866564512252808, 0.15504847466945648, 0.7549070119857788, 0.18498529493808746, -0.07796110212802887, 0.21777814626693726, 0.00847456231713295, 0.7648061513900757, -0.4275011718273163, 0.5184425115585327, -0.7969606518745422, 0.5881910920143127, -2.2290782928466797, 0.5233491063117981, -0.47954216599464417, 0.9232907891273499, -0.6752022504806519, -1.0862901210784912, 1.1833257675170898, 1.743884801864624, 0.0839499980211258, -1.47805917263031, -1.5008219480514526, -0.25660571455955505, -0.3601401746273041, 0.915536105632782, 1.4074944257736206, 0.6823908090591431, 0.02500084787607193, -1.024533987045288, 1.9232293367385864, -1.8285794258117676, 1.1630079746246338, -1.2874046564102173, -0.825495183467865, -0.30130764842033386, 0.06584484875202179, -0.4689767062664032, -0.5424311757087708, -1.3362091779708862, 0.21506482362747192, 1.0238765478134155, -0.24856053292751312, -0.17107845842838287, 1.315539836883545, -0.1111476942896843, -1.2586833238601685, 0.5705858469009399, -0.8175917863845825, -0.9843570590019226, -1.0099247694015503, 1.402929663658142, -0.5085446238517761, -0.9799293279647827, 0.16476042568683624, 1.0211304426193237, -0.6399092078208923, -0.14983393251895905, 0.8640874028205872, 1.134117841720581, -0.4943675398826599, 0.3649599850177765, -0.027797743678092957, 0.12239895015954971, 0.2723767161369324, -1.4265090227127075, -0.5643831491470337, 0.6139334440231323, -0.7159594297409058, 0.7898532748222351, 0.17954330146312714, 1.8894715309143066, -0.5086139440536499, 1.6676967144012451, -0.23155389726161957, -0.028682753443717957, 0.19452141225337982, -0.3627456724643707, -0.43165838718414307, -0.9034561514854431], [-0.17063000798225403, 1.061774730682373, 1.0252922773361206, 0.3824964761734009, -0.5287309885025024, 1.1746649742126465, 0.3693936765193939, -0.6363966464996338, -0.3059089183807373, -1.0405049324035645, 0.5761478543281555, 0.6962264776229858, -0.2220562845468521, 2.2146995067596436, -1.2163234949111938, 0.4722841680049896, 0.358210951089859, -0.8165727853775024, 0.4689244329929352, -1.1164193153381348, 0.5367985963821411, 1.6056528091430664, -0.2479184865951538, 1.7560030221939087, 0.7199615240097046, 0.3963647782802582, 0.00020942091941833496, -1.36416757106781, 1.4424409866333008, 0.488077849149704, -0.5194787383079529, -0.19483552873134613, 0.027887774631381035, -0.6697127819061279, -0.08289367705583572, -0.1168045774102211, -0.23347270488739014, 0.7829533815383911, -0.42780497670173645, 1.7468456029891968, -1.1149183511734009, 2.787684917449951, 0.2399328202009201, -0.3950622081756592, 0.6881584525108337, 0.09684719145298004, -0.35037747025489807, -0.562628448009491, 1.387490153312683, 0.4888409972190857, 0.17245854437351227, -0.5042169690132141, -0.8108646273612976, 0.1514601856470108, 1.1669049263000488, 0.9415266513824463, 1.2626898288726807, 1.1737197637557983, 0.023726463317871094, 0.31566178798675537, -0.9253748059272766, 1.7995377779006958, -0.9021090865135193, 0.3903368413448334, -0.7592731714248657, 0.13872019946575165, -0.5764751434326172, -1.0290149450302124, 0.9396700263023376, 2.141481876373291, 0.09748164564371109, 0.04266636446118355, -0.8523766398429871, 0.5554991364479065, 0.6048508286476135, -0.8952111005783081, -0.0823671743273735, 0.26176387071609497, -0.8335561752319336, 0.18316935002803802, -0.8768993616104126, -0.37089258432388306, -0.605582594871521, 0.6029965877532959, 1.731255054473877, -0.22791039943695068, 0.3317219316959381, -0.9161245822906494, -0.17456339299678802, -2.041029930114746, 0.5019052028656006, 0.3479411005973816, 1.8634936809539795, 0.07144772261381149, 0.5693420171737671, 0.6769042611122131, 0.1592438966035843, -0.5997034907341003, 