{"use_imu": true, "control_orientation": true, "observation_history": 4, "action_scale": 0.75, "kp": 5.0, "kd": 0.25, "default_joint_pos": [0.25999999046325684, 0.0, -0.5199999809265137, -0.25999999046325684, 0.0, 0.5199999809265137, 0.25999999046325684, 0.0, -0.5199999809265137, -0.25999999046325684, 0.0, 0.5199999809265137], "joint_upper_limits": [2.509999990463257, 3.140000104904175, 0.7099999785423279, 1.2200000286102295, 0.41999998688697815, 2.7899999618530273, 2.509999990463257, 3.140000104904175, 0.7099999785423279, 1.2200000286102295, 0.41999998688697815, 2.7899999618530273], "joint_lower_limits": [-1.2200000286102295, -0.41999998688697815, -2.7899999618530273, -2.509999990463257, -3.140000104904175, -0.7099999785423279, -1.2200000286102295, -0.41999998688697815, -2.7899999618530273, -2.509999990463257, -3.140000104904175, -0.7099999785423279], "maximum_pitch_command": 0.0, "maximum_roll_command": 0.0, "in_shape": [null, 144], "layers": [{"type": "dense", "activation": "elu", "shape": [null, 256], "weights": [[[0.12164466828107834, -0.27764639258384705, -0.2685141861438751, -0.1665777713060379, -0.09835142642259598, 0.06496589630842209, 0.37162432074546814, 0.09498751163482666, -0.2102811336517334, 0.16424472630023956, 0.040631987154483795, -0.09508097916841507, -0.014721031300723553, 0.14303070306777954, 0.556658923625946, -0.07415638118982315, 0.11240681260824203, -0.027818934991955757, 0.1478973627090454, -0.24580802023410797, 0.21711981296539307, -0.27651000022888184, -0.09753499925136566, 0.1312725991010666, -0.27600884437561035, 0.15325672924518585, -0.25806865096092224, -0.217171773314476, -0.19946224987506866, 0.13537383079528809, -0.10457931458950043, 0.3339676558971405, 0.1450687050819397, -0.28416523337364197, -0.158565491437912, 0.03155365213751793, 0.12964607775211334, -0.2975597679615021, -0.039613641798496246, -0.041190825402736664, -0.1729573756456375, -0.24934330582618713, -0.39157986640930176, 0.30928781628608704, -0.2504537105560303, -0.015613525174558163, -0.18120244145393372, -0.010984737426042557, 0.022048696875572205, 0.039517421275377274, 0.05056656897068024, -0.3284580409526825, -0.3953910171985626, 0.1395283043384552, -0.01654229126870632, 0.09191997349262238, 0.0010938477935269475, -0.2323743999004364, -0.5151305794715881, 0.3640836775302887, 0.25698548555374146, -0.24915632605552673, 0.12178517132997513, -0.04972726106643677, 0.042830467224121094, 0.01148289255797863, 0.11177869886159897, -0.002834057668223977, 0.0036635941360145807, -0.040427062660455704, -0.4232690930366516, 0.0051047308370471, 0.2726370394229889, -0.13452114164829254, 0.14212706685066223, -0.09436555951833725, 0.274742990732193, 0.20822294056415558, -0.4937129020690918, 0.3552401065826416, 0.04756264388561249, 0.16526390612125397, 0.10754363983869553, 0.16715575754642487, 0.08265005052089691, 0.2440657764673233, -0.2087707817554474, 0.27091071009635925, 0.16448259353637695, 0.047624021768569946, -0.29645124077796936, 0.18861626088619232, -0.02995097078382969, -0.11036016047000885, 0.11697041243314743, -0.11408909410238266, 0.3899223506450653, -0.17006565630435944, -0.13806332647800446, -0.10945871472358704, -0.011967366561293602, -0.19960737228393555, 0.20071746408939362, 0.047512415796518326, -0.04037933051586151, 0.08285430073738098, -0.14063630998134613, 0.07759564369916916, -0.0024833627976477146, -0.07809536159038544, 0.17799122631549835, -0.11667842417955399, 0.04186905920505524, 0.02410685457289219, 0.5073575973510742, -0.247251495718956, -0.025190547108650208, -0.20929460227489471, 0.1963055431842804, 0.20750777423381805, -0.19516301155090332, 0.10849461704492569, -0.13260766863822937, -0.06208416447043419, 0.012989372946321964, -0.03625396639108658, -0.4063858091831207, -0.05425608530640602, -0.016561955213546753, -0.036946531385183334, -0.05153100565075874, 0.001670573023147881, 0.16832904517650604, 0.22610586881637573, 0.14820809662342072, 0.26705268025398254, 0.07825689762830734, -0.21437861025333405, 0.05453488603234291, -0.05379291996359825, -0.12302066385746002, 0.349232941865921, 0.015955233946442604, -0.059369996190071106, 0.2087496817111969, -0.02770823985338211, -0.22736309468746185, -0.0422801598906517, 0.293746680021286, 0.06915915012359619, -0.12147071212530136, -0.11786562204360962, -0.2677854597568512, -0.11117955297231674, -0.0972166657447815, -0.3497321605682373, -0.10824264585971832, 0.027252597734332085, 0.14348313212394714, -0.043655671179294586, 0.057720717042684555, 0.08213170617818832, -0.21831867098808289, -0.05685434117913246, -0.03829237073659897, -0.10521194338798523, -0.3305947482585907, -0.22770756483078003, -0.0008786129765212536, -0.06181420385837555, -0.14929090440273285, -0.076340451836586, 0.1553834229707718, -0.0869222953915596, -0.08246351778507233, -0.18106728792190552, -0.04215850681066513, 0.008142068982124329, 0.11012841761112213, -0.09223636239767075, 0.02382444590330124, 0.10914678126573563, 0.0483933761715889, -0.07633580267429352, -0.04216025024652481, 0.019170157611370087, 0.2735825479030609, -0.1281723976135254, 0.2466132789850235, 0.11744490265846252, 0.12866903841495514, 0.1151452586054802, -0.11595020443201065, 0.03526025265455246, -0.3289685845375061, 0.17402665317058563, -0.08226330578327179, -0.11461281031370163, 0.24207593500614166, 0.0807175263762474, -0.07114379107952118, 0.25634127855300903, 0.38739749789237976, 0.06589573621749878, 0.292902410030365, 0.19268712401390076, 0.1340777575969696, 0.1294877976179123, 0.06889268755912781, -0.1185123547911644, -0.0685250461101532, 0.12649641931056976, 0.19293591380119324, -0.03472210839390755, -0.024596864357590675, 0.05245112255215645, -0.027142690494656563, -0.15496091544628143, -0.362435519695282, 0.08875869959592819, 0.14611999690532684, -0.07517894357442856, -0.17192229628562927, 0.27751782536506653, 0.1422523558139801, -0.11290711909532547, 0.17955617606639862, 0.16363297402858734, 0.07892026752233505, 0.055121950805187225, 0.0899173840880394, -0.04452310875058174, 0.08668200671672821, -0.04501836746931076, -0.22142218053340912, -0.34518638253211975, 0.011010700836777687, 0.24646902084350586, 0.3039841949939728, 0.17150363326072693, 0.027877597138285637, -0.04407564923167229, -0.22647343575954437, -0.12291888147592545, -0.2767559587955475, 0.04739835113286972, 0.08599015325307846, -0.4008325934410095, 0.20839284360408783, -0.09087518602609634, -0.09454590082168579, -0.07055693119764328, 0.01949423737823963, -0.007368653081357479, 0.13070490956306458, -0.34581923484802246], [-0.04213063046336174, -0.09010320901870728, 0.12755277752876282, -0.05636804923415184, -0.133565291762352, 0.2092619687318802, -0.09993050992488861, 0.3415793776512146, -0.22245369851589203, 0.2656594514846802, 0.2593965530395508, -0.16771550476551056, 0.11245747655630112, -0.3423084318637848, -0.18989329040050507, -0.32653507590293884, -0.02027798444032669, -0.3536514639854431, 0.20150594413280487, -0.20867237448692322, -0.2062952071428299, -0.2700338065624237, -0.037562593817710876, 0.15789297223091125, 0.04886813834309578, -0.11909504234790802, 0.24334344267845154, 0.15995289385318756, -0.3215028643608093, 0.01722411811351776, 0.3185722827911377, -0.028559211641550064, 0.3650733530521393, -0.2550828456878662, -0.22611241042613983, -0.2576112747192383, -0.32405605912208557, -0.1734812706708908, 0.04776421934366226, -0.18595749139785767, 0.02812899649143219, 0.005833548493683338, -0.20577289164066315, -0.24225032329559326, -0.0038364476058632135, 0.3591918647289276, 0.3056724965572357, -0.6607328653335571, 0.13359065353870392, -0.34454450011253357, 0.04216152802109718, -0.2535884976387024, 0.6187958121299744, -0.20524746179580688, -0.36087194085121155, 0.3722184896469116, -0.01759711094200611, -0.46633180975914, -0.045801419764757156, -0.0634993240237236, -0.12567010521888733, 0.01616143062710762, -0.04309578612446785, -0.13290849328041077, -0.057049740105867386, 0.3268948197364807, 0.07582452893257141, -0.30722400546073914, 0.1534486562013626, 0.22865387797355652, 0.2558961808681488, 0.05632408708333969, 0.05083158612251282, 0.1416957527399063, 0.008993900381028652, 0.15312671661376953, 0.0726061686873436, 0.057334598153829575, -0.031771957874298096, -0.1974969208240509, 0.052416954189538956, 0.12461299449205399, -0.34001296758651733, 0.4049989879131317, 0.025366725400090218, 0.4310416281223297, 0.248283252120018, 0.203452467918396, -0.08267433196306229, 0.12311793863773346, -0.2871209681034088, 0.04594184458255768, -0.0016993791796267033, 0.08165863901376724, 0.31010693311691284, -0.13807369768619537, -0.09296414256095886, 0.2869639992713928, 0.14220115542411804, -0.1432420164346695, 0.37564653158187866, 0.16994893550872803, 0.09648224711418152, -0.13325569033622742, -0.17769014835357666, -0.06706409156322479, 0.08943423628807068, -0.1747700273990631, -0.18177515268325806, -0.01935984380543232, -0.15199057757854462, -0.024231236428022385, -0.33650460839271545, -0.05221467837691307, -0.19925551116466522, -0.2938114404678345, -0.09343923628330231, -0.6650539040565491, -0.1946888118982315, 0.21825362741947174, -0.19974634051322937, -0.08057469874620438, 0.24444715678691864, 0.19116181135177612, 0.20124058425426483, 0.3051421344280243, 0.1351005733013153, 0.474996417760849, 0.33042189478874207, -0.001690543838776648, -0.2414652407169342, 0.1855064481496811, 0.12932850420475006, -0.2356845885515213, -0.5028975605964661, 0.39339420199394226, -0.14230996370315552, -0.4664909243583679, -0.21153829991817474, 0.09454755485057831, 0.21509411931037903, 0.13414335250854492, 0.12833641469478607, 0.42942890524864197, -0.03502003476023674, -0.22148533165454865, 0.2676005959510803, -0.2094828337430954, 0.15612156689167023, 0.10812416672706604, 0.4527193307876587, 0.10619808733463287, -0.08773834258317947, 0.15766161680221558, -0.009028404951095581, 0.017789116129279137, 0.5092628002166748, -0.059109169989824295, -0.147663876414299, 0.33277544379234314, 0.23969458043575287, 0.05213185399770737, -0.46346038579940796, -0.12204958498477936, -0.16028350591659546, -0.16425547003746033, 0.24236957728862762, 0.11164646595716476, -0.14652711153030396, 0.11883138865232468, -0.08999700099229813, 0.01375334057956934, -0.1990966647863388, 0.07370959222316742, -0.08159191161394119, 0.12207459658384323, 0.10041813552379608, -0.3061520457267761, -0.29839181900024414, 0.22812403738498688, 0.24348974227905273, -0.09295772761106491, 0.03662879765033722, -0.09456057846546173, -0.1223549097776413, -0.021257909014821053, -0.19057515263557434, 0.22468595206737518, -0.5364190936088562, -0.2095343917608261, 0.24620899558067322, 0.2349158227443695, -0.006559200584888458, -0.4662880301475525, 0.1874556541442871, -0.020766982808709145, 0.17565032839775085, -0.02952384762465954, -0.2098991721868515, 0.23395243287086487, 0.05845369026064873, 0.21993999183177948, -0.35153964161872864, 0.12019465118646622, -0.3149152994155884, 0.09679408371448517, -0.17010578513145447, 0.0032303277403116226, 0.1913459599018097, -0.0421534888446331, 0.016583243384957314, 0.012039377354085445, -0.08735328167676926, 0.10101621598005295, -0.23178303241729736, 0.0048080505803227425, 0.29119017720222473, -0.31155267357826233, 0.32707539200782776, 0.308443546295166, -0.08485079556703568, -0.16304905712604523, 0.07224856317043304, 0.5973158478736877, -0.2901640832424164, 0.3494367301464081, -0.037871651351451874, 0.14095492660999298, -0.029559018090367317, 0.14161419868469238, -0.2800041139125824, 0.15359242260456085, 0.2966441214084625, -0.008320407941937447, -0.13031885027885437, -0.2555020749568939, -0.1773865967988968, 0.05452900007367134, 0.0784226581454277, -0.34691357612609863, 0.2058396339416504, 0.14870363473892212, 0.12458296120166779, 0.38249340653419495, -0.14446453750133514, 0.08621736615896225, -0.12955205142498016, -0.21381670236587524, 0.11684573441743851, -0.33218520879745483, 0.12885065376758575, -0.47645309567451477, 0.22497713565826416, 0.06579780578613281, -0.028870156034827232, 0.2680412828922272], [0.3349184989929199, 0.14226609468460083, 0.3820854723453522, -0.302702397108078, -0.05158933624625206, -0.17916405200958252, -0.15342871844768524, -0.051514189690351486, -0.2797684073448181, 0.12417086958885193, 0.01864495873451233, 0.16171802580356598, -0.05066394805908203, -0.046016875654459, -0.06737193465232849, -0.00899430736899376, 0.023444993421435356, 0.3066496253013611, -0.4074594974517822, -0.40243247151374817, 0.04717126116156578, -0.05758116394281387, 0.25160089135169983, -0.12756074965000153, 0.05875856429338455, -0.20781704783439636, -0.07007300853729248, -0.017061688005924225, 0.19251085817813873, 0.2794813811779022, 0.031678006052970886, 0.14406231045722961, 0.03887966275215149, 0.11563178151845932, -0.2567997872829437, -0.0530705563724041, -0.26251843571662903, 0.19109827280044556, -0.09101102501153946, 0.039865583181381226, -0.43841221928596497, -0.025144366547465324, 0.42397183179855347, -0.31821492314338684, -0.34602484107017517, 0.2472803145647049, -0.07557743787765503, 0.35658252239227295, 0.0006402924773283303, -0.2834942936897278, -0.10256493091583252, 0.06470810621976852, -0.37830835580825806, 0.1683862805366516, 0.6088079214096069, -0.12698408961296082, 0.2609109878540039, -0.20409980416297913, -0.09098105877637863, 0.02571270428597927, -0.3337743282318115, -0.3875945806503296, 0.12250775843858719, -0.21431095898151398, 0.0008035936625674367, 0.12153281271457672, 0.06692841649055481, 0.5365987420082092, -0.008645733818411827, -0.24003152549266815, 0.4773104190826416, -0.21216809749603271, 0.008702759630978107, -0.09722661972045898, 0.03509543091058731, 0.16277989745140076, -0.15125657618045807, 0.16149093210697174, 0.37090471386909485, -0.12397450953722, -0.40158581733703613, -0.20244549214839935, 0.011173728853464127, 0.2714715600013733, 0.27604013681411743, 0.09913075715303421, 0.23216846585273743, -0.26198679208755493, -0.294592022895813, 0.18269094824790955, -0.5069271922111511, -0.002209221012890339, 0.27460014820098877, 0.041581761091947556, 0.26521745324134827, -0.302911639213562, -0.1160956472158432, -0.09184453636407852, 0.18985947966575623, -0.003999984823167324, 0.3166988492012024, -0.2660091519355774, -0.3132339119911194, 0.148027703166008, -0.31822940707206726, 0.16687066853046417, 0.034894783049821854, -0.07698027789592743, -0.007423218805342913, -0.27989187836647034, -0.10380026698112488, 0.1650296002626419, -0.2910991311073303, -0.027098696678876877, -0.3101973235607147, 0.2592107951641083, 0.08208220452070236, -0.0931776911020279, -0.06580774486064911, 0.3691351115703583, 0.3286355137825012, 0.055548280477523804, -0.06926560401916504, -0.2561894655227661, 0.29971131682395935, 0.34813201427459717, 0.13468500971794128, -0.3617854714393616, 0.024902716279029846, 0.08736182004213333, -0.09546172618865967, 0.15613864362239838, 0.19252820312976837, 0.18336822092533112, -0.279377818107605, -0.5497063994407654, 0.09836883842945099, 0.3130127787590027, -0.3037988841533661, 0.14769788086414337, -0.018531344830989838, 0.18278571963310242, -0.12650838494300842, -0.6786373853683472, 0.0704151913523674, 0.20602209866046906, 0.11195573210716248, 0.06028293818235397, 0.07829844206571579, -0.18145059049129486, -0.09220197051763535, 0.07276377081871033, 0.275539755821228, 0.201865553855896, -0.4678848683834076, 0.04552411288022995, 0.10871420800685883, 0.21700917184352875, -0.2783765494823456, -0.47354987263679504, -0.38762226700782776, 0.3407520353794098, 0.40093597769737244, -0.34286487102508545, 0.00757817504927516, 0.07221300899982452, 0.37775444984436035, 0.26413843035697937, -0.08149243146181107, -0.08790408074855804, 0.5632570385932922, 0.07662275433540344, -0.49004215002059937, 0.22729350626468658, -0.07679379731416702, -0.04190027341246605, 0.0954405814409256, 0.03473127633333206, -0.6703895330429077, 0.1640285700559616, 0.042364269495010376, -0.09898918867111206, 0.07728223502635956, 0.2690703868865967, -0.03391893580555916, -0.2553161680698395, 0.18499675393104553, 0.04752349853515625, -0.20275947451591492, 0.11564551293849945, 0.04229056462645531, 0.4471345543861389, -0.23890651762485504, 0.056169137358665466, 0.46187248826026917, -0.12122981250286102, -0.15607158839702606, -0.37911513447761536, -0.4394441843032837, -0.03491104394197464, 0.06759436428546906, 0.5319008827209473, 0.100395068526268, 0.03688691556453705, -0.46656152606010437, 0.4473845660686493, 0.2513278126716614, -0.10270955413579941, -0.28158149123191833, -0.0004344198387116194, 0.39402490854263306, -0.13235661387443542, -0.11226079612970352, -0.14622151851654053, -0.10489971935749054, -0.47670087218284607, -0.1461813598871231, 0.17169904708862305, -0.42609265446662903, -0.1083889976143837, 0.37114325165748596, -0.07352596521377563, -0.188446506857872, -0.1031678169965744, 0.4373530447483063, -0.13291147351264954, -0.15060684084892273, -0.503517746925354, 0.222955584526062, 0.412433922290802, 0.32853636145591736, 0.09605104476213455, 0.3580399751663208, 0.27200302481651306, -0.019632333889603615, 0.17004229128360748, -0.07822733372449875, 0.03930050879716873, -0.26326924562454224, -0.07003653049468994, -0.44695937633514404, 0.1366821974515915, -0.3135940730571747, -0.1953531950712204, 0.17949990928173065, -0.08711273223161697, -0.024551700800657272, 0.1535111665725708, -0.22977972030639648, -0.25978484749794006, -0.0874500572681427, 0.0813850685954094, 0.41242715716362, 0.11854923516511917, 0.13710269331932068, -0.1054849848151207], [-1.3572430610656738, -1.3721224069595337, -0.4430842399597168, 0.0031832256354391575, -0.18308641016483307, -0.9202880263328552, 0.3663364052772522, 0.6501867771148682, -0.21061278879642487, 2.0397918224334717, -0.8502417802810669, -1.1893823146820068, 1.789854884147644, -2.832427978515625, -3.1263978481292725, -0.8701147437095642, -2.2661542892456055, -0.6997858285903931, 0.31569984555244446, -1.8659127950668335, -2.113173246383667, -3.3168280124664307, 1.6128534078598022, 1.8153623342514038, 0.2038472294807434, 0.3214557468891144, 1.6178722381591797, 0.9126474857330322, -1.3365668058395386, -0.0477750338613987, 1.9131132364273071, -1.6420990228652954, 0.8750690221786499, -0.6969285607337952, 0.9242151379585266, -2.486621379852295, -2.4582464694976807, -0.2194078415632248, 2.3142521381378174, 1.0554025173187256, 0.7340483665466309, -3.0737087726593018, 0.3734053671360016, 1.4144484996795654, -2.2261383533477783, 1.397173523902893, 2.423332452774048, -1.833415150642395, 1.5982531309127808, -1.0356286764144897, 0.6969365477561951, 0.5762642621994019, 2.075329065322876, -0.7570494413375854, -0.13876047730445862, 0.6868656873703003, 0.9454826712608337, -0.5207357406616211, 0.4296856224536896, -2.176490068435669, -1.7949413061141968, 0.09056350588798523, 0.5591804385185242, -0.6116595268249512, -0.0011993255466222763, 2.6648788452148438, 0.6490685939788818, 1.0947428941726685, -0.9112436175346375, -0.19454088807106018, 1.2151795625686646, -0.08767499774694443, -0.5196936726570129, 0.6702109575271606, -2.4858944416046143, 3.736476421356201, -0.8227685689926147, 0.10250550508499146, 0.88996821641922, -0.8219441175460815, -2.214665651321411, 0.09918385744094849, -3.592167377471924, 1.5739309787750244, 0.7783219814300537, -0.8754184246063232, 3.446765184402466, 1.2829883098602295, 0.659565806388855, 0.179475337266922, -0.6369386911392212, 0.4472220242023468, -0.8449886441230774, 2.640437364578247, 3.691671133041382, 0.7632442712783813, 1.4750404357910156, 4.055747985839844, -2.0083413124084473, 2.3644235134124756, 1.5893690586090088, 3.4716577529907227, 1.4706960916519165, 0.9617889523506165, -0.5243967175483704, -1.8720496892929077, -1.9022120237350464, 0.04013877734541893, -1.5270318984985352, -1.3188103437423706, -2.161832332611084, -0.1596624106168747, 3.051060914993286, -1.9985237121582031, 1.0183649063110352, 2.3477795124053955, -2.972088098526001, 0.47158196568489075, 0.2803289294242859, 2.7197718620300293, -2.8433303833007812, -0.1730237454175949, -0.17976239323616028, 0.7847821116447449, 0.6199528574943542, 1.1580123901367188, 3.4285330772399902, 2.639835834503174, 2.872926712036133, 1.604758858680725, -0.6734418869018555, -3.2260701656341553, 2.463275194168091, -1.3219099044799805, -0.8824571371078491, 2.2072386741638184, -1.224234700202942, -1.4099026918411255, 0.3185252547264099, -0.17879939079284668, -1.3377717733383179, -0.539158046245575, 1.122047781944275, 3.41408634185791, -0.8564140796661377, -3.8017828464508057, 2.092974901199341, -0.821736216545105, -0.39239007234573364, -0.2867484390735626, 0.22570505738258362, 2.0247862339019775, 1.3470828533172607, 0.10499384999275208, -1.9594497680664062, -1.7333704233169556, 3.7044970989227295, 5.787496089935303, 0.7031267285346985, 1.3576903343200684, 1.1540641784667969, 0.28970867395401, 1.7076586484909058, -0.6436564326286316, -2.317410945892334, -4.163704872131348, 3.2314822673797607, 6.138830184936523, -2.4699370861053467, 1.3524715900421143, -1.8202842473983765, 1.2383573055267334, -1.1074546575546265, -2.5860812664031982, -0.7901182770729065, -0.44485247135162354, 0.7109525203704834, -1.6960912942886353, 0.22632066905498505, 0.5019449591636658, 1.0936990976333618, -2.1655702590942383, -1.453035831451416, 1.950932502746582, -2.1459732055664062, 0.9076526761054993, -1.268595814704895, 1.490980863571167, 2.860805034637451, 2.0400686264038086, 0.6852993965148926, -0.16958068311214447, -5.399239540100098, 0.36070966720581055, 1.3808568716049194, 0.7506952881813049, -0.12465623021125793, 1.3948317766189575, 1.0673664808273315, 0.24586597084999084, 1.5011136531829834, 0.5992335081100464, -2.0209572315216064, -0.10525556653738022, 1.099932312965393, 0.05469118431210518, -2.1113407611846924, 0.7991355061531067, 2.0695810317993164, -1.2054020166397095, 0.04768308252096176, -0.9527359008789062, 0.46967586874961853, 1.1035174131393433, -0.2790513038635254, -1.1906808614730835, 2.3054587841033936, 1.0213842391967773, -3.012725591659546, 0.09933964163064957, -2.5071115493774414, 1.1635377407073975, 1.4969298839569092, 2.7198679447174072, 1.8045724630355835, 2.1400198936462402, 1.447073221206665, 1.8823174238204956, 0.6672707200050354, 3.4133963584899902, -1.9770852327346802, 1.3883497714996338, 1.2330681085586548, 1.3567490577697754, 3.0000388622283936, -0.052955262362957, 0.3169240653514862, -2.3724849224090576, 0.4860045611858368, 0.34460726380348206, 1.2979377508163452, -0.3809097111225128, 2.477055788040161, 1.5191248655319214, -1.2881667613983154, 1.4933208227157593, -1.7474091053009033, -0.9406464099884033, 0.7959316372871399, -1.4790431261062622, 0.6850703358650208, -3.243180274963379, 0.3372160494327545, -2.5483906269073486, 1.9608207941055298, -2.3859622478485107], [-1.6958088874816895, 1.2325080633163452, 3.364328622817993, 1.6402232646942139, -1.454835057258606, -1.655448079109192, -2.3152406215667725, 0.6134067177772522, 1.4899177551269531, 2.602163314819336, 2.9615426063537598, -0.6861497163772583, 0.0665917694568634, -0.17422139644622803, -3.9614949226379395, 0.6291590929031372, -1.4426926374435425, -0.38188880681991577, 0.1742897927761078, -0.4195634126663208, 0.11027614772319794, 3.900851249694824, 2.487048625946045, -3.3269758224487305, -1.6229097843170166, -2.8293468952178955, -3.2406234741210938, 0.9560401439666748, 0.3403525948524475, 0.21834172308444977, 3.3324735164642334, 0.6791827082633972, -2.827721357345581, 2.6838395595550537, 2.3160927295684814, -0.6387559771537781, -0.8411505222320557, 1.3261644840240479, -0.7615209817886353, 0.9716525077819824, 2.7021563053131104, 2.380790948867798, 4.895902633666992, 1.1612106561660767, 0.44920456409454346, -1.2362624406814575, 1.0559906959533691, -1.403286099433899, 2.347010612487793, -1.0328106880187988, 0.5121785998344421, 0.49808841943740845, 0.8597463965415955, 0.9327126741409302, 0.4814997911453247, -1.7768194675445557, 2.8935303688049316, 1.2233374118804932, -1.4031522274017334, -3.11094069480896, -1.9537025690078735, 2.6008081436157227, -3.0855066776275635, 1.1714128255844116, -1.3747100830078125, 1.2084659337997437, -0.4491235315799713, 0.2941333055496216, -1.82269287109375, 1.559851884841919, 1.4734926223754883, 0.5632312893867493, 0.16052085161209106, 0.8569545745849609, 1.683815836906433, -1.7114882469177246, 1.815709114074707, -1.4468553066253662, 0.7728805541992188, -2.034844398498535, 1.3078556060791016, 1.056509256362915, 1.1810948848724365, 1.502945065498352, 0.7089271545410156, -1.3246990442276, -0.7720997929573059, 0.12931986153125763, 0.5956680178642273, -2.5716609954833984, 0.2940923571586609, -0.547454833984375, -1.0288362503051758, -0.6919501423835754, -0.7110236883163452, -1.3651787042617798, -1.5331263542175293, -2.577629566192627, 1.6727467775344849, 0.5119292140007019, -1.663151502609253, 2.7048468589782715, 4.204494476318359, 0.46335896849632263, 1.536708116531372, -0.8761699199676514, 0.4661848247051239, -0.2198922038078308, -1.6953421831130981, 0.6863914728164673, 2.0712051391601562, -0.9872134923934937, -4.393422603607178, -0.30570605397224426, 0.7243270874023438, 3.79123592376709, -0.8909798264503479, -1.909040927886963, -0.6288478374481201, -2.6353368759155273, -1.6985986232757568, -2.308206796646118, 1.6603800058364868, -0.33846035599708557, 0.5721532106399536, -1.2296092510223389, 3.7250099182128906, 0.40043291449546814, 0.45165491104125977, 0.36690855026245117, 1.350860834121704, -1.0916944742202759, -2.0665152072906494, 0.5164735317230225, 1.9246383905410767, -1.315662145614624, -1.324571967124939, 3.409233808517456, -0.6344022154808044, 1.010684847831726, -2.880918025970459, -2.1751060485839844, 1.7299257516860962, 0.47963690757751465, -0.7574303150177002, 1.6634632349014282, -0.21517398953437805, -0.059384193271398544, -1.1723307371139526, 3.013380527496338, 3.0226809978485107, -1.6247919797897339, -0.21533383429050446, 1.1080752611160278, 1.374659776687622, 0.8064792156219482, 3.272371292114258, 0.3500714600086212, 0.23313334584236145, 1.588775634765625, 0.09922411292791367, 1.1969150304794312, 0.989402174949646, 3.169062852859497, 2.1570301055908203, 1.8903721570968628, 1.4779584407806396, -1.2524216175079346, 1.886370301246643, -1.8800288438796997, 2.8431124687194824, 2.5486977100372314, 0.7666282653808594, 1.3314465284347534, 0.14012204110622406, -0.7876827120780945, 2.157822847366333, 0.49627014994621277, -1.8951940536499023, -1.2578991651535034, 0.038165755569934845, -0.6269023418426514, -0.8424209952354431, 1.6141573190689087, -2.0474555492401123, -0.8473690748214722, -2.165034294128418, 0.5396369695663452, 0.6757676601409912, -4.85083532333374, 0.11073293536901474, 1.2884095907211304, 1.9020423889160156, 0.12989677488803864, -1.0172829627990723, 1.9642246961593628, -0.4629519283771515, 4.263456344604492, -2.5470077991485596, 1.4951002597808838, 0.6441131234169006, 3.5245349407196045, -0.29903867840766907, -1.0487314462661743, 0.5869032740592957, 1.9826562404632568, -1.719010591506958, -0.7052065134048462, -0.3868718445301056, 1.6763345003128052, 1.6722862720489502, 1.2550206184387207, -1.9840946197509766, 1.2079304456710815, -1.665001392364502, 1.0664538145065308, -2.4528868198394775, 0.9103782773017883, 1.3831672668457031, 1.1597245931625366, -0.4535255432128906, 0.031107110902667046, 3.0866711139678955, 1.8478928804397583, -0.8931186199188232, 0.6189871430397034, -3.4830806255340576, 0.24388067424297333, -1.4017120599746704, -2.670567512512207, 0.15920192003250122, 1.3796181678771973, -1.4233497381210327, 0.0862179547548294, -0.4989231526851654, 0.26463502645492554, -0.12279247492551804, 1.2877787351608276, -0.27296358346939087, -2.033559799194336, 0.14813949167728424, 2.0049476623535156, -0.854203999042511, 3.8838605880737305, -1.6327688694000244, 2.715179204940796, -1.1354866027832031, 1.489732027053833, -3.846041679382324, 1.5528767108917236, 1.747502088546753, 2.135216236114502, -1.2712604999542236, 0.5089176297187805, -1.1844428777694702, 1.8537214994430542], [6.795140266418457, -10.238082885742188, -1.774496078491211, 6.346027851104736, -17.919260025024414, -27.0584774017334, -30.875322341918945, 0.8864794969558716, -30.965065002441406, 8.297754287719727, 13.911931991577148, -2.324824571609497, 14.206681251525879, -6.130599021911621, -14.684406280517578, 4.793254375457764, -0.23701529204845428, 25.698692321777344, 10.386490821838379, -24.765155792236328, 2.7839977741241455, -3.100644588470459, -0.38276728987693787, 15.851287841796875, -7.534825801849365, -3.611462354660034, -0.31596213579177856, 27.97136116027832, 0.5119562149047852, 3.886281967163086, -7.521896839141846, 11.926820755004883, 22.05502700805664, -3.7690844535827637, 8.625534057617188, 7.6518707275390625, 14.661954879760742, -16.459341049194336, -2.838228702545166, 1.9216735363006592, 22.821826934814453, -0.7205960750579834, 21.02797508239746, 2.3161211013793945, -8.06514835357666, -7.328217506408691, 16.011959075927734, 6.907511234283447, -8.200175285339355, 18.618000030517578, -12.543461799621582, -24.199634552001953, -3.86904239654541, 10.037315368652344, 25.225561141967773, -2.1363914012908936, -0.4304089844226837, 25.703575134277344, 29.35639762878418, -16.051393508911133, -8.405365943908691, 0.4201592206954956, -45.97520446777344, -15.442925453186035, 1.504610300064087, -16.17347526550293, -38.32342529296875, 38.12074661254883, -0.583799421787262, -4.499762535095215, -6.373271465301514, 19.244909286499023, -28.902050018310547, -8.672255516052246, 1.6608972549438477, -1.594421625137329, 21.820812225341797, 26.902803421020508, 1.6427959203720093, -27.250953674316406, 3.2764744758605957, 2.4500837326049805, -6.251445293426514, 6.817733287811279, 3.201777696609497, 15.487701416015625, 4.603065013885498, -12.269185066223145, -13.257909774780273, 3.7828493118286133, 21.123947143554688, 5.0678629875183105, 20.670372009277344, 1.7096964120864868, 4.690563678741455, 1.4486548900604248, 9.98039436340332, 4.34672737121582, -12.136065483093262, -5.189309597015381, 17.83078384399414, 23.767629623413086, -17.070423126220703, 28.177934646606445, -6.368081569671631, -15.781359672546387, -4.716678619384766, 23.103052139282227, -19.742027282714844, 5.951335430145264, -19.263154983520508, -26.86272430419922, -6.886378765106201, -4.582624912261963, 13.74470043182373, -19.355443954467773, 2.9059767723083496, -26.970046997070312, 16.902862548828125, 13.429109573364258, -42.406593322753906, -12.978073120117188, -4.233586311340332, -39.93954849243164, -8.107636451721191, 3.3175747394561768, -2.6709840297698975, 10.095792770385742, -3.131992816925049, 10.871687889099121, 10.564947128295898, 17.123905181884766, 0.7405015826225281, -19.228544235229492, -18.02827262878418, -2.0793330669403076, -2.9072721004486084, -26.034862518310547, -10.635231971740723, 30.67064094543457, 4.891779899597168, 5.3283562660217285, 14.689790725708008, 13.201725959777832, -9.157959938049316, 8.988077163696289, -9.796792984008789, 24.281085968017578, 11.111361503601074, -7.284614086151123, -4.69018030166626, -3.3773956298828125, 26.341846466064453, 14.899840354919434, -7.561751842498779, 24.492887496948242, -1.319665551185608, -16.165538787841797, 7.143433570861816, 0.11035648733377457, -9.842217445373535, 13.528482437133789, -6.168988227844238, 3.7682065963745117, 41.8243408203125, -31.986316680908203, -37.42393493652344, 35.62739562988281, -19.294044494628906, -22.99484634399414, 16.53053092956543, 13.861977577209473, 21.54597282409668, 14.22470474243164, -29.873882293701172, -23.953542709350586, 9.225911140441895, 12.377456665039062, 29.792587280273438, -37.13883972167969, 0.7123000621795654, 17.02396011352539, -1.1781032085418701, -16.637535095214844, 7.095493793487549, 25.850494384765625, 5.471728801727295, -10.598128318786621, 23.767169952392578, 2.011805534362793, -56.29777908325195, 18.538677215576172, 32.49492263793945, 18.984554290771484, 1.9851963520050049, 0.8347591161727905, -27.992795944213867, -5.370823860168457, 9.938404083251953, 11.519797325134277, 6.771183490753174, -16.781599044799805, 34.40605545043945, 35.81077194213867, -9.654521942138672, 19.430065155029297, -15.864177703857422, -24.606382369995117, 2.0637736320495605, 5.365994453430176, -6.426839351654053, -2.7490875720977783, 14.945712089538574, 20.283069610595703, 20.721559524536133, -7.0057597160339355, -26.825876235961914, 12.854804039001465, 13.273246765136719, -0.47431156039237976, -35.457210540771484, -4.772719860076904, 0.15656264126300812, -10.607070922851562, 24.185319900512695, 11.329540252685547, -3.2861053943634033, -7.309077262878418, -51.369712829589844, -34.776859283447266, 16.22273063659668, -23.986616134643555, 19.146251678466797, -1.4683997631072998, 20.198396682739258, -3.062808036804199, 0.6784520149230957, 7.409971714019775, -0.9408270716667175, -13.416377067565918, 4.9801506996154785, 17.51314353942871, 3.683220386505127, 24.15365219116211, -29.242494583129883, 2.4418067932128906, -8.022307395935059, -11.361427307128906, 7.708652019500732, -30.181957244873047, -7.843735218048096, 21.433958053588867, 12.501293182373047, -14.544476509094238, 16.53611946105957, 20.667449951171875], [-1.2944196462631226, 0.16149136424064636, 0.0475679375231266, 0.818069577217102, 0.38291603326797485, -0.9567803740501404, 2.0396127700805664, -0.2265089601278305, 0.18131759762763977, 1.0175098180770874, -0.4889734387397766, -0.4401855170726776, -1.1758637428283691, 0.79576575756073, 0.33631205558776855, 0.3320676386356354, -1.8835551738739014, -0.10207179188728333, 0.20295728743076324, -0.3064608871936798, 0.406782865524292, -0.911045491695404, 0.9826619029045105, 0.11695724725723267, 0.5713038444519043, 0.9551806449890137, 0.5616098642349243, 0.23480680584907532, -0.2070198655128479, -0.8635917901992798, -1.0571004152297974, 0.5240315198898315, -0.1928694248199463, 0.7369157671928406, -0.029923439025878906, -0.2890208959579468, 0.8376098871231079, 0.005123349372297525, -0.06515542417764664, -0.3942035436630249, 0.5662810206413269, 1.5368021726608276, -0.5168417096138, 0.05984828248620033, -0.41676855087280273, 0.03727950155735016, 0.31206104159355164, 0.11154165118932724, -0.4899961054325104, -0.21509675681591034, -1.433261752128601, -0.09421347081661224, -0.5924549102783203, -0.5602328777313232, 0.1268445998430252, 0.6586073637008667, 0.29862168431282043, -0.25930091738700867, 0.9222566485404968, 0.10517490655183792, -1.3457287549972534, 0.4447982609272003, -0.022952064871788025, -0.024485044181346893, -0.8129168152809143, -0.2845380902290344, -0.45871078968048096, 0.6109182834625244, 0.08643873780965805, -0.3675520718097687, 0.9679301381111145, -0.3960379362106323, -0.9266892075538635, 0.9913298487663269, 1.1021595001220703, 0.3876486122608185, 0.35932910442352295, -0.9067217707633972, -0.9706466794013977, -0.26507145166397095, 0.0336906872689724, 0.2593405544757843, -0.33343932032585144, -0.6855985522270203, -0.013200845569372177, -0.8264069557189941, -0.3948228359222412, 0.3369550108909607, -1.9370909929275513, 0.12350846827030182, -0.6958072781562805, 0.6663607358932495, 0.24065783619880676, 1.723160743713379, 0.8869976997375488, -1.4323261976242065, 0.14138758182525635, -0.21629837155342102, 0.06373381614685059, 0.9220673441886902, -0.26085057854652405, -1.2942084074020386, -0.2946144938468933, 0.29339107871055603, 0.05438319593667984, -0.2557472288608551, 0.6773650646209717, 0.049530357122421265, 1.2876574993133545, -0.1544790416955948, 0.49595561623573303, 0.528438150882721, 0.48733028769493103, 0.39404937624931335, 0.9093509316444397, -0.3603925406932831, 0.24199505150318146, 0.1813797801733017, -0.554780900478363, -1.33738112449646, 0.441081166267395, 0.6515538096427917, -0.43607693910598755, 1.3902769088745117, 0.5731329321861267, 0.3665805459022522, -0.3457868993282318, 0.25011610984802246, 0.13153614103794098, -0.2513488233089447, 0.3643941879272461, 0.6962337493896484, 0.5177704095840454, 0.015550551936030388, 0.4813188314437866, 0.00894228182733059, -0.30436500906944275, -0.46363136172294617, 0.6615597009658813, 0.04311554878950119, -0.4321572482585907, 0.8243231773376465, -0.4034727215766907, 0.4239732325077057, 0.4266030192375183, 0.37108850479125977, 0.8453817963600159, -0.8274952173233032, -0.5381264090538025, -0.8783897161483765, 0.30357059836387634, -0.24896079301834106, 1.0014246702194214, 0.7265559434890747, 0.3996870219707489, -0.2772933542728424, -0.6851423382759094, -0.6898709535598755, 0.82387375831604, 0.7209574580192566, 1.1836615800857544, -0.5789816379547119, -0.015904482454061508, 0.5976796746253967, -0.10864099115133286, 0.45574474334716797, 0.49635982513427734, -0.4839818775653839, 0.25437524914741516, 0.2710854113101959, 0.09659577906131744, -1.07468581199646, 0.5986567139625549, -1.6060874462127686, -0.10126877576112747, 0.39960768818855286, 0.08162066340446472, 0.2779271900653839, -0.19226785004138947, -0.3303877115249634, 2.243502616882324, -0.08990073204040527, -0.18984100222587585, -1.2153578996658325, -1.0877532958984375, -0.3005945682525635, -1.111687421798706, -1.3846443891525269, -0.27643510699272156, 0.853531002998352, -1.5949535369873047, 0.051738347858190536, -0.22692348062992096, 0.2028149962425232, 0.5085231065750122, -0.2025836557149887, -2.108503818511963, 0.7476742267608643, 0.26215824484825134, 0.07740253955125809, -1.1837888956069946, 0.28619763255119324, -0.6223363280296326, 0.6378965377807617, -0.3472473919391632, -0.23076622188091278, 0.11197597533464432, -0.6311519145965576, 1.1711344718933105, 0.3819267153739929, 0.07124732434749603, -1.1402353048324585, 0.5428802371025085, -0.27308401465415955, 0.8786104917526245, 0.12551173567771912, -1.8589636087417603, -1.0542365312576294, -0.259888231754303, 0.20060041546821594, 0.05709762126207352, -0.7875615954399109, 0.3763977587223053, 0.7519649267196655, 0.14027516543865204, 0.21778100728988647, -0.6940635442733765, -0.21811331808567047, 0.8833522200584412, -0.5766115188598633, 1.1045327186584473, -0.4271785616874695, 0.334537535905838, 0.2804984748363495, 1.0967700481414795, 0.37597644329071045, -0.793566882610321, -0.32677772641181946, 0.8886244297027588, -0.3870239853858948, 0.36735349893569946, -0.3505730926990509, -0.6116862893104553, -0.8345257639884949, -0.5671952366828918, -0.7974839806556702, -1.6193263530731201, 0.8841082453727722, -0.6579700112342834, -0.5158361792564392, 1.8247992992401123, 0.04480701684951782, -1.1106593608856201, 1.3561155796051025, 0.974312961101532, 0.004208861384540796], [1.443014144897461, -0.43156179785728455, 0.036920107901096344, 0.24976320564746857, 1.2916090488433838, 0.21865983307361603, -0.5990268588066101, -0.24349603056907654, -0.5794950127601624, -0.37220707535743713, 0.17053967714309692, -2.533824920654297, 0.5439793467521667, 0.8550050258636475, 0.7793641090393066, -0.9271899461746216, 1.4077380895614624, -0.13374939560890198, -0.6187601089477539, 0.32951247692108154, -0.6493698954582214, 0.3965691328048706, 0.29627591371536255, 0.0369587242603302, 0.4202169179916382, -0.15320134162902832, 0.453804075717926, 0.15864133834838867, 0.2422907054424286, 0.6665962934494019, 0.4670642912387848, -0.33283737301826477, 0.11762179434299469, -0.21342626214027405, 0.2608879506587982, 0.7196433544158936, 0.2738347351551056, 0.19736851751804352, 1.112578272819519, -0.4195430278778076, -0.43824106454849243, -0.6333141326904297, 0.13499554991722107, -0.22379355132579803, -0.11196479201316833, -0.5065234899520874, 0.2498360425233841, 0.24486565589904785, -0.3924975097179413, -1.0884003639221191, 0.2707926630973816, -0.3039039671421051, -0.25351887941360474, -0.832893431186676, 0.027064356952905655, 0.028461037203669548, 0.784729540348053, 0.5913600325584412, -0.1953245997428894, 0.972541093826294, -1.0836127996444702, -0.22369006276130676, -0.3109864592552185, 0.07658419013023376, -3.5483860969543457, 0.8987104892730713, -1.1739118099212646, 0.4491487741470337, -1.690403938293457, -1.424863576889038, -0.4271705150604248, 0.5031173229217529, -0.027161207050085068, 0.7019691467285156, -0.9544573426246643, 0.67802494764328, 1.5176047086715698, -0.47137248516082764, -0.7720062136650085, -0.4121309816837311, -0.24859842658042908, -0.27255070209503174, -0.7784439921379089, 0.008962815627455711, -0.03416061028838158, -0.01806240901350975, 0.705602765083313, -1.0300410985946655, 0.9514309167861938, -0.7439823746681213, -0.5196611881256104, -1.9856606721878052, 0.7318931818008423, -0.8364667296409607, -0.6345265507698059, 0.030959773808717728, 0.6336683034896851, 0.10973856598138809, -0.5294158458709717, -0.9210247993469238, 0.37698614597320557, 0.0907859057188034, -0.7931714057922363, -1.1801279783248901, 0.7523259520530701, 0.29904288053512573, -0.37267181277275085, -0.6987329721450806, -1.5248408317565918, -0.4045639932155609, -0.06848741322755814, 0.8165314793586731, 0.25638189911842346, -1.3825982809066772, 0.17352767288684845, 0.714063823223114, -0.024200472980737686, 0.14671462774276733, 0.12938173115253448, -1.2744203805923462, 0.23055680096149445, 0.4497581422328949, 1.1366389989852905, 0.7167272567749023, -0.8318008184432983, 0.3276210427284241, 0.955552339553833, 0.5068399906158447, 0.222551628947258, 0.3854740262031555, 1.4846315383911133, 0.11647919565439224, -0.7674095034599304, -0.7930303812026978, 0.24827320873737335, 0.3752519488334656, -0.8437668085098267, 0.6303806900978088, 0.8501744270324707, -0.32323890924453735, 1.4326838254928589, -0.4610391855239868, 0.5983477830886841, 0.4940442740917206, 1.2601902484893799, -0.5493714809417725, -0.3357223868370056, 2.0316269397735596, -0.902968168258667, 0.05588524788618088, -0.5605923533439636, 1.08566153049469, -0.1260724514722824, -2.4485976696014404, -0.2810758948326111, -0.7199239730834961, -0.6598876714706421, -0.5984216332435608, -1.0782610177993774, 0.9020634889602661, -0.9949610829353333, -0.36384356021881104, -0.6091998815536499, 0.2739543914794922, -0.03737039491534233, 0.638764500617981, 0.8835018277168274, 0.5229620933532715, 1.4106104373931885, -1.4787485599517822, -0.9102712273597717, -0.29362010955810547, -0.4095374345779419, 0.3844653069972992, -0.09230033308267593, -1.1015211343765259, -0.5706587433815002, -0.5825123190879822, -0.1569497436285019, -1.0568816661834717, 0.7589113116264343, 1.6958802938461304, -2.336561918258667, -0.12119558453559875, 1.1184154748916626, -0.3826954662799835, -0.08146460354328156, 0.28271913528442383, 0.4228021502494812, 0.06462044268846512, 0.12209498137235641, 0.08356709778308868, 0.19180497527122498, 0.06905384361743927, 0.9658486843109131, -0.9471681714057922, -1.6067702770233154, 0.979962170124054, 0.953326940536499, -0.6988585591316223, -2.029289722442627, -0.2405320554971695, 0.10876328498125076, -0.45585715770721436, -0.1555195450782776, -0.3378920257091522, -0.5448699593544006, -0.6709314584732056, -0.8710089325904846, -0.20166580379009247, -0.6816104650497437, -0.3808624744415283, -1.1513737440109253, -1.0585100650787354, 0.8018247485160828, -0.20915921032428741, 0.20695951581001282, 0.4108397662639618, -0.8929200172424316, 1.2052001953125, 0.38885927200317383, 0.004206416662782431, 0.6271098256111145, -0.5136764049530029, 0.3296888470649719, -0.5426992774009705, -0.2993239760398865, 0.6319068074226379, -0.421790212392807, -0.6983706951141357, 0.76065593957901, -1.3569862842559814, 0.0011953217908740044, 0.4774325489997864, -1.2758885622024536, -0.6059108376502991, 0.3688773810863495, 1.2026691436767578, 1.0814542770385742, -0.13737215101718903, -0.017908653244376183, -0.23250716924667358, -0.9206729531288147, -0.3141544759273529, 0.17974098026752472, 0.5676924586296082, -0.6759900450706482, -0.8413305282592773, 0.4992154836654663, 0.14610952138900757, 0.08620746433734894, -0.010374744422733784, 0.09125249087810516, 0.32267144322395325, -0.23338395357131958, 1.3444361686706543], [0.1033799946308136, 0.029690202325582504, -0.2954816222190857, 0.16433264315128326, 0.0004996508941985667, 0.05660277605056763, 0.11081402003765106, -0.4678937494754791, 0.2827301323413849, -0.15900616347789764, -0.0033416813239455223, 0.20772697031497955, 0.44595012068748474, 0.03481697291135788, 0.29098188877105713, 0.025596681982278824, 0.18932820856571198, -0.008551245555281639, 0.3113596439361572, 0.5854197144508362, -0.42425182461738586, 0.02154112420976162, -0.06256497651338577, 0.09279855340719223, -0.24937085807323456, 0.3130711019039154, 0.49521106481552124, -0.0658670961856842, -0.09025363624095917, -0.2774737477302551, 0.3765186071395874, 0.37685415148735046, -0.3137821853160858, -0.305389404296875, 0.24936650693416595, -0.2208855003118515, 0.19148100912570953, -0.6270883083343506, -0.08987359702587128, -0.26294535398483276, 0.376564085483551, -0.07665610313415527, -0.16429512202739716, 0.20511773228645325, 0.3400091528892517, -0.0024899637792259455, -0.04233090206980705, -0.3583550751209259, 0.1119246631860733, 0.21284647285938263, 0.49503082036972046, -0.20423723757266998, 0.30867671966552734, -0.06131090596318245, -0.361253559589386, -0.05083002150058746, -0.18873044848442078, 0.12037231028079987, 0.07015997171401978, -0.33130019903182983, 0.03815777599811554, -0.38168397545814514, 0.3462499976158142, 0.029555873945355415, 0.20199565589427948, -0.14402523636817932, 0.028458265587687492, -0.3205239176750183, 0.025623122230172157, -0.1563420295715332, 0.051405783742666245, 0.17322945594787598, -0.23249149322509766, -0.12133431434631348, -0.21677564084529877, 0.20576801896095276, 0.0816677138209343, -0.2771477997303009, -0.3147791922092438, 0.48399871587753296, 0.35856008529663086, 0.1539028137922287, 0.1270228624343872, -0.009244093671441078, -0.16550441086292267, -0.008718875236809254, -0.6298759579658508, -0.11789371818304062, 0.1959274858236313, -0.24821467697620392, 0.3117440342903137, -0.00729015888646245, -0.03743188455700874, -0.10481051355600357, -0.16835877299308777, 0.05332544818520546, -0.09611890465021133, 0.39955854415893555, 0.12638969719409943, -0.0765911266207695, -0.08971098065376282, 0.05383218079805374, 0.20926351845264435, 0.03477521985769272, 0.38919100165367126, -0.1076703891158104, 0.152430459856987, -0.03940567746758461, -0.15122747421264648, -0.0163914505392313, -0.31246134638786316, 0.04948275536298752, 0.14702898263931274, -0.4047538936138153, 0.1726040542125702, -0.3366878628730774, -0.014787876047194004, -0.07455004751682281, -0.2560286521911621, 0.18039382994174957, -0.13629499077796936, -0.05245848372578621, -0.0912683829665184, 0.20353281497955322, -0.03716382756829262, -0.1745312660932541, 0.19255845248699188, 0.19419629871845245, -0.08502919971942902, 0.2366742193698883, -0.17867954075336456, -0.21354050934314728, -0.027228137478232384, 0.04349735006690025, 0.3256506621837616, 0.22951529920101166, -0.6271625757217407, -0.14276207983493805, 0.016406632959842682, 0.05971518158912659, -0.18681122362613678, 0.04554011672735214, -0.08724422007799149, 0.39823633432388306, 0.08824192732572556, -0.3485393822193146, -0.17668643593788147, -0.17135511338710785, 0.009920992888510227, 0.20485171675682068, 0.26012828946113586, -0.24810166656970978, -0.41801711916923523, -0.041545234620571136, 0.471818208694458, 0.3698144555091858, 0.20626291632652283, 0.10463376343250275, 0.49348801374435425, -0.0162765271961689, 0.20231376588344574, -0.5832439661026001, -0.4364461898803711, -0.04685927554965019, 0.15302056074142456, -0.16714346408843994, -0.0018475349061191082, -0.13090533018112183, -0.10361721366643906, 0.1473141461610794, -0.3168792128562927, 0.3088054955005646, 0.3862922191619873, -0.3040260076522827, -0.06649429351091385, 0.010740513913333416, 0.00791882909834385, -0.043146323412656784, 0.5317375063896179, 0.2949528992176056, -0.006072992458939552, -0.03480495139956474, 0.0761542022228241, -0.14003610610961914, 0.04992949217557907, 0.08862319588661194, -0.02273106575012207, -0.15985198318958282, 0.3131055533885956, 0.20426055788993835, -0.02117714285850525, -0.28811129927635193, -0.036712098866701126, -0.3706831932067871, -0.14067606627941132, -0.07165303081274033, -0.12482941895723343, 0.0826776772737503, 0.09248258173465729, 0.3278542160987854, 0.09562225639820099, -0.04700043424963951, 0.16439545154571533, -0.07425332069396973, 0.08568783849477768, -0.5027794241905212, -0.09145601838827133, 0.3209848701953888, -0.21594344079494476, -0.12227291613817215, -0.14151570200920105, -0.02441728301346302, -0.10807285457849503, -0.17407529056072235, 0.19161570072174072, 0.3070828318595886, 0.25158536434173584, -0.033229101449251175, 0.3075491487979889, 0.253380686044693, -0.2845315635204315, 0.464328408241272, 0.17324207723140717, 0.16776873171329498, -0.5069616436958313, 0.12526187300682068, 0.2567710876464844, 0.3738420605659485, -0.09792357683181763, -0.774755597114563, -0.029452553018927574, -0.1727045178413391, -0.31552574038505554, 0.1017751395702362, -0.2923944890499115, -0.4540906846523285, 0.05949503183364868, 0.0843135342001915, 0.13049708306789398, 0.20927894115447998, 0.39475691318511963, -0.02034267596900463, -0.1504429280757904, 0.2888467013835907, -0.43936869502067566, 0.24392376840114594, -0.21850024163722992, -0.46799981594085693, 0.3128647208213806, 0.12372506409883499, 0.017744209617376328, 0.4650840759277344, -0.4451421797275543, -0.1813179850578308, -0.05171751230955124, 0.3863380551338196], [-21908.33203125, 132703.546875, -103680.5078125, 138876.46875, 53065.16015625, 96421.9609375, -33845.53125, 29018.5234375, -57595.15234375, -11381.7099609375, -57788.55078125, -37218.9453125, 100759.8671875, 8264.63671875, 56159.83203125, -61886.765625, -109359.8515625, 34254.18359375, 89838.421875, 23107.064453125, 329.12359619140625, 22083.767578125, 48338.7421875, -6520.7353515625, -49520.81640625, 83585.6640625, 92264.8046875, -88683.9140625, 67521.0625, -59269.8828125, -71498.109375, 76738.8359375, 107370.3828125, -20781.587890625, -49074.10546875, 58582.66015625, 71740.7265625, -109441.0, 19967.28125, 44928.67578125, -2336.626220703125, -130125.5078125, 24628.935546875, 67333.7578125, 12956.4375, 21966.1796875, 102464.296875, -130585.375, 79181.3828125, -8709.078125, 2325.820556640625, -69504.890625, 76840.859375, -52017.015625, -35864.45703125, -4892.8056640625, 1326.3365478515625, 13889.7802734375, -108103.578125, 91449.6640625, -21528.380859375, 77619.078125, -117993.5625, 87083.2734375, 97626.171875, -10703.6064453125, -95000.375, -12962.7353515625, -114925.6015625, 141479.171875, -23959.435546875, 66756.3046875, -34497.5859375, -102321.71875, -141408.015625, -87719.53125, -10849.103515625, -51828.46875, 89955.015625, 15235.7666015625, 116170.6875, 27814.111328125, 13770.5400390625, 136605.46875, 40125.55078125, 74243.1484375, -49407.8046875, -23518.607421875, 98113.8984375, -132789.4375, -114030.1796875, -110216.0078125, 34956.515625, 56499.76171875, 74842.6953125, 110673.96875, -33500.02734375, 79661.4765625, -27095.849609375, -13519.5673828125, 99419.0078125, 36943.5390625, 109482.953125, 63116.67578125, 43267.50390625, 67528.1875, -85187.75, -133747.75, 23087.173828125, 27542.595703125, -61545.08203125, 134370.78125, 133250.296875, 34793.328125, 140286.734375, 77867.2890625, -112809.1796875, -119316.9453125, -56822.34375, -55991.27734375, 70371.40625, -28897.287109375, -79958.3515625, -75278.53125, 82523.03125, 49923.89453125, -130151.046875, 110498.8828125, 38066.56640625, -86958.1796875, -53596.38671875, 4266.35595703125, -118021.5078125, 110929.8984375, 2609.794677734375, -125719.234375, -96616.5625, -1390.963623046875, 94922.015625, 132398.734375, 117312.9140625, -100763.6875, 141358.84375, -65897.578125, -69351.0625, 40538.60546875, 99774.2109375, -50139.59375, 81125.734375, -38401.64453125, -58666.3515625, -111194.0546875, -57275.59375, 81488.34375, 5922.33251953125, -58615.80078125, 87521.6875, -28210.751953125, 125799.2109375, -24445.583984375, -115658.21875, -29182.53515625, -46681.5625, 104828.5859375, -117220.0390625, 65856.8984375, -97358.3046875, -70119.7109375, -57483.2421875, 92029.3828125, 35901.109375, -94130.6953125, 93398.078125, -43742.67578125, 79398.3828125, -30565.650390625, 26480.6171875, -42957.82421875, -3553.013916015625, -85021.53125, -68816.90625, -60683.078125, 5859.08154296875, 46118.7734375, -127656.875, -30174.275390625, 113538.6953125, 49427.28125, 32777.4609375, -8917.583984375, -130530.953125, -71293.1796875, 113217.3828125, -70810.6171875, 74587.03125, -105786.328125, -69414.421875, 116726.25, -26210.236328125, -111495.1640625, -135807.46875, -136655.40625, 106602.6015625, 77622.2734375, 18413.373046875, -59152.26171875, -45919.07421875, 57312.65625, 99482.6328125, 58214.03125, -42499.75390625, -24903.650390625, -39853.2734375, -96011.7265625, 56681.25390625, -21213.537109375, 34581.86328125, 53524.19140625, -116737.2265625, -55285.296875, -19237.48828125, -85412.3203125, -58905.828125, -53359.04296875, 3828.9697265625, 78392.3671875, -27072.310546875, -25960.537109375, -124728.90625, -35633.37890625, 52120.359375, -135824.984375, -8097.66650390625, -35544.9375, 44456.875, -51792.8515625, 72928.6484375, 87264.453125, 87116.7578125, -106452.6328125, -33597.9296875, -10346.5390625, -59416.03515625, 35453.94921875, -44053.97265625, -133792.125, 58391.2578125, -42722.578125, 84893.453125, -531.7459106445312, -83534.25, -59152.8125, -143093.609375, -125804.5, -11617.298828125, -103224.40625], [34390.6640625, -86941.078125, -25074.9921875, -120570.875, 15739.15625, 93017.578125, -89828.3828125, 83181.7265625, 128118.6953125, 38589.43359375, 27995.330078125, -24163.0546875, 58770.86328125, -139138.0, -132366.640625, -49543.91015625, -4852.74951171875, -124180.3984375, -55102.56640625, 70250.75, -98028.0078125, -115626.484375, -1955.7113037109375, -73113.859375, -59688.16796875, 62630.15234375, 96034.171875, -53909.1328125, -70923.109375, -68024.9296875, 74369.3046875, -92481.359375, 12101.3154296875, -62820.25, 69005.671875, 138187.421875, -53854.76171875, 99452.3203125, -51033.0859375, -72483.078125, 86121.0234375, 487.80084228515625, -82955.1875, 23592.732421875, -81452.203125, -113706.4921875, -90052.6796875, 79369.0703125, 46582.96875, -1832.479248046875, -13922.4033203125, -52808.95703125, -81231.5546875, -142965.28125, -39435.67578125, -107760.6875, -64800.359375, 87777.7578125, -143065.28125, 138200.1875, 76300.6171875, 25074.580078125, 88720.390625, -64219.8828125, 22318.32421875, 24110.4375, 55492.359375, 72889.140625, -113180.703125, -59988.5234375, 73000.2265625, 24047.53125, 81438.0234375, 22094.228515625, 13737.021484375, -102268.0390625, -60821.140625, 139330.609375, -115436.2890625, 35302.46484375, 33343.3828125, 123638.875, -8270.0732421875, -127849.7890625, -54089.66015625, 65003.9453125, -69134.1640625, 30469.60546875, 9433.12109375, -94947.0, -62425.63671875, -52116.98828125, -140176.6875, -5957.9150390625, 98096.1484375, 37549.34375, 20962.32421875, 28055.724609375, 128719.2265625, -10871.2646484375, 59117.84765625, -33944.2265625, 133808.75, -46402.296875, 95604.1796875, 81566.4609375, 133742.8125, -69458.5, -36355.49609375, -90631.640625, 86393.0859375, 31350.1953125, -57779.77734375, 111225.8515625, 44435.71484375, -45099.296875, 142506.25, 78878.859375, -45797.046875, 137318.5625, 50247.06640625, 114565.296875, 38440.01171875, -114193.5078125, 51345.93359375, 29952.314453125, -72332.765625, -9874.052734375, 81304.09375, 136958.015625, -30483.439453125, -129520.984375, 63010.20703125, 96813.4765625, 142221.625, 13312.05859375, -63722.828125, -4673.28662109375, 13839.08984375, -21767.720703125, -44913.77734375, -9492.173828125, 8163.60107421875, -40980.5, 119061.9453125, 111672.21875, 102018.8203125, -94746.0625, -1309.5086669921875, 51279.0, 108556.625, 7895.765625, 130610.2421875, -101370.71875, -98081.8671875, 13479.6142578125, -134950.5625, 132970.59375, 85648.5703125, 122832.9296875, -83725.3125, -87924.6640625, -104101.453125, 40548.5859375, 94420.7265625, -93416.078125, 129994.1875, -135431.09375, 132592.375, -27008.6796875, 775.1129150390625, 26175.857421875, -22736.783203125, 21698.068359375, 55822.7578125, -50867.390625, -25371.630859375, -44290.52734375, -17332.36328125, 21613.96484375, -110867.265625, 41028.57421875, 21248.982421875, 38795.703125, 95292.0546875, 24952.44921875, -2451.0830078125, -80015.5078125, 31.76297378540039, 7259.8525390625, 116692.1796875, 90756.2421875, -35080.3671875, 89343.9765625, 1118.9652099609375, 61779.36328125, 70300.375, -104795.7890625, 15305.58984375, 78301.9921875, 122695.0390625, 103426.6484375, 133231.15625, 23916.796875, 83493.46875, 123839.53125, 124849.1015625, 26022.82421875, -25469.87890625, 8466.5703125, -106481.2265625, -37577.62890625, -32176.650390625, -18929.494140625, 18233.013671875, -105460.953125, 118408.0703125, -36170.3203125, -97851.9140625, -136426.625, 140752.203125, 91681.2265625, -21193.302734375, -48707.12890625, -41037.109375, 92033.34375, -12589.837890625, -43857.30078125, -95669.2890625, 134223.578125, 118546.1015625, 110219.765625, -104401.109375, -91072.640625, 50053.21484375, 30320.6328125, 81660.375, 78479.1875, -87544.125, 4241.44091796875, -136628.15625, -53465.55078125, 118758.28125, 42891.921875, 70256.0859375, -55233.5078125, 75067.609375, 92416.078125, 97916.609375, -21521.875, 31693.220703125, -140625.671875, 61365.86328125, -67442.4296875, 78159.015625, 122209.234375], [-135048.46875, 3824.083251953125, -72863.8515625, -67466.625, -58954.6640625, -90015.8984375, 92939.359375, -139364.953125, 52030.40234375, 88929.5859375, -15006.54296875, 1964.830810546875, -91821.046875, 139589.109375, -32496.03515625, 12967.173828125, 138471.734375, -8281.533203125, -85977.109375, -139000.21875, 58893.09765625, 35685.26953125, 139713.796875, -100697.09375, -38881.28515625, 127758.8046875, -129820.9609375, -131832.109375, 10716.8212890625, 46284.7109375, -16300.291015625, -58480.96875, -31305.25, 107255.0625, -137591.421875, 110344.5703125, 73900.9453125, 118354.4140625, 143909.046875, 72196.828125, -27198.19140625, 139667.0625, 22446.85546875, 115024.8515625, -47271.2890625, 1040.40087890625, 104594.375, 28888.85546875, -36583.13671875, -94316.9375, -133366.9375, -28878.7734375, 101617.4609375, -126780.4765625, 22551.09375, 23074.26953125, 33318.84375, 19369.013671875, 25513.82421875, 101782.78125, -133916.078125, 108409.1640625, -430.2626953125, -46815.80078125, 102237.921875, 27900.142578125, -100356.8515625, 14022.6484375, -109512.1015625, 84458.9921875, 26484.091796875, 54435.75390625, -92384.078125, 9531.439453125, 101439.890625, 33396.41015625, 11013.4931640625, 69863.5078125, 111968.03125, -139120.203125, 9637.0859375, -96322.375, 36414.33984375, -80894.828125, 35608.15234375, 130478.828125, 43920.0390625, -118373.1015625, -140602.40625, 51046.6796875, -69991.3125, -79437.34375, -32813.046875, -123029.8046875, -67805.5546875, 79464.875, -10468.4990234375, 23614.171875, 36125.7890625, 103366.9765625, -8303.7294921875, -1899.1368408203125, 93017.1328125, 49767.0390625, -73770.8359375, -5971.1982421875, -126498.640625, 32765.212890625, 32999.4921875, 114696.140625, -115252.109375, 59005.5234375, -59426.046875, -101174.5703125, 43799.48828125, -37225.62109375, -94281.421875, 125091.09375, 61034.296875, 131682.375, 1553.42626953125, -36457.32421875, -49123.3515625, -36697.453125, 72288.3671875, 22313.748046875, -132604.5625, -10401.806640625, -133493.21875, -130848.484375, 6590.0087890625, -120254.828125, 84278.875, -69312.1484375, -39757.1953125, 65342.94140625, 25770.681640625, -42808.64453125, 78762.8125, -139043.78125, 32796.59375, -60210.17578125, 78689.2734375, -21587.568359375, -31611.181640625, -2176.606689453125, 73302.1328125, -17877.048828125, -81443.84375, -95459.203125, -19435.53515625, 118824.5625, 20629.380859375, 21231.36328125, 48979.3359375, -77047.3046875, -109370.0078125, -108475.6171875, -79514.4609375, -112431.3359375, -64921.6640625, 95962.34375, 6365.77490234375, 130902.484375, -110576.453125, -21271.31640625, -119392.7265625, 68158.625, 78293.4921875, 31096.84765625, 99980.5546875, -59861.09375, -85285.859375, 134838.578125, 99027.5625, -87431.2890625, -114230.078125, 136179.5, 3589.80126953125, -17473.0078125, -62681.66796875, 143632.625, -51280.72265625, 109310.0625, 54390.29296875, -136281.0625, 105972.5703125, -91682.0546875, 50819.828125, 128413.3046875, 19140.203125, 137655.09375, 126999.3203125, -86053.5078125, -27627.97265625, -9169.0732421875, 136980.046875, -108806.671875, 4340.06787109375, 44899.83984375, 82718.3984375, 31847.458984375, -142946.59375, 29188.970703125, 134126.46875, 95655.1171875, 36374.3515625, -43638.47265625, 130710.84375, -133085.421875, -130512.8671875, 25716.30859375, -68041.5234375, 86005.8046875, -134210.296875, -27916.076171875, -61670.3125, 5689.39208984375, 59485.71875, -46883.18359375, 55640.75, -70444.8046875, -66276.3203125, -95101.2734375, 94917.3359375, 11879.5244140625, 28328.271484375, -117502.9765625, -88704.3828125, -59925.2734375, -92688.421875, -123175.8515625, -65040.28125, 23371.216796875, -104568.1171875, 115960.703125, -41929.7421875, -117589.1796875, 16934.484375, -87142.7734375, -7230.60205078125, 89512.296875, -36033.76953125, 23006.26953125, 27475.525390625, 6405.349609375, 2912.936767578125, -23394.720703125, 39034.25, -79482.9375, -67415.3828125, 124386.6328125, -15280.0556640625, 124543.828125, -142060.46875, 9271.3818359375], [0.7332051396369934, -0.6794182062149048, 0.20498085021972656, 0.12742213904857635, 0.3808126151561737, 1.1893894672393799, -0.589350700378418, -0.7557199597358704, -1.2612825632095337, 0.2288506180047989, 0.6071856021881104, -1.146651029586792, 0.029777290299534798, -0.02245771884918213, 0.7531986236572266, -0.11290957778692245, 0.43356871604919434, 0.35059234499931335, 0.18937422335147858, 0.211869016289711, 0.5471451878547668, -0.22229740023612976, 0.4483361542224884, -0.8112243413925171, -0.4256037175655365, -0.7174899578094482, 0.8417332172393799, -0.9912899732589722, 0.021588774397969246, 0.24525131285190582, 0.5760359168052673, 0.10192125290632248, 1.2722039222717285, 0.9818128943443298, -0.9140735268592834, 0.3134710192680359, -0.4120734632015228, 0.16739343106746674, 0.0653761774301529, -0.7304235100746155, -1.4157018661499023, -0.48318466544151306, -0.45030608773231506, -0.7905852794647217, 0.3216443955898285, 1.071097731590271, -1.0054171085357666, 0.19943489134311676, 0.06837937235832214, 0.1211877316236496, -0.31153979897499084, -0.268951416015625, -0.68309086561203, -0.10972166806459427, 0.5676385760307312, 0.5038108825683594, 1.057534098625183, -0.07864271849393845, 1.0874977111816406, -0.19236887991428375, 1.533811330795288, -0.14000143110752106, -0.7216353416442871, -0.8807198405265808, 0.5293657183647156, 0.5056784152984619, 0.5001114010810852, 0.5010018348693848, -0.07032431662082672, 1.3185104131698608, -0.4955783188343048, 0.648962140083313, 1.1304048299789429, 0.12290966510772705, -0.023327423259615898, -0.1497713029384613, 1.283333420753479, 0.5248816013336182, 0.3539264500141144, 1.084402322769165, -1.1847225427627563, 0.29313522577285767, 1.0527561902999878, -0.34242334961891174, 1.8636430501937866, 1.6456246376037598, 0.30928459763526917, -0.5616746544837952, 0.12327562272548676, -0.05329696834087372, 0.25186994671821594, -0.337332546710968, 0.11187878251075745, -0.23010875284671783, 0.04583179950714111, -0.08892813324928284, 0.8029362559318542, 0.15646250545978546, 0.5432175993919373, -0.028181729838252068, -0.7043707370758057, 0.1527145653963089, 1.0050280094146729, -1.3074818849563599, 0.49701815843582153, -0.24155639111995697, -0.21869568526744843, 0.9149197936058044, -0.021424585953354836, 0.5061233043670654, 0.8698033690452576, -0.3616026043891907, 0.5718276500701904, 1.0498478412628174, 0.8322588205337524, 0.8576409816741943, 0.4052623212337494, 0.10800722986459732, 1.164547324180603, -0.9829493165016174, -0.4689449071884155, -0.023728743195533752, 0.29748210310935974, -0.3790166676044464, 0.41009193658828735, 0.6425378322601318, -0.8639673590660095, -1.1060709953308105, 0.5140800476074219, 0.28904229402542114, -0.778109073638916, 0.3429012894630432, 0.3863737881183624, -0.768383264541626, 0.36585989594459534, -1.8989688158035278, 0.6156291365623474, -0.37634971737861633, -0.04437937214970589, 0.8058484196662903, 0.8727503418922424, 0.32004314661026, 0.9715663194656372, -0.8809828162193298, 0.632218599319458, 0.07715526223182678, 0.4956773519515991, -0.14398235082626343, -0.29904818534851074, 0.5639617443084717, -0.13786949217319489, 1.4132510423660278, 0.15850666165351868, -0.7175031304359436, -0.35409826040267944, -0.539101243019104, -0.5861409902572632, -1.1104744672775269, -1.1204410791397095, -0.34634530544281006, -0.9929805994033813, 0.33399856090545654, -0.6133936643600464, -0.01604207418859005, -0.483522891998291, -0.03381187841296196, -0.8945736289024353, 0.408084511756897, 1.1659547090530396, -0.11964372545480728, 0.8878897428512573, 0.38076403737068176, 0.0900803804397583, 0.6070504784584045, -0.023143189027905464, -0.8602880835533142, 1.3300957679748535, 0.18602381646633148, -0.5277679562568665, 0.45304006338119507, -0.6459100246429443, 0.7000874280929565, 1.3908052444458008, -0.05391807109117508, -0.07025425881147385, -0.12980185449123383, 0.08278163522481918, -0.1219651848077774, 0.6692200303077698, -1.1252809762954712, -0.25457602739334106, 0.40851274132728577, 0.8041959404945374, -0.39069706201553345, 0.5033847093582153, -0.049325380474328995, 0.47677963972091675, -0.2276659458875656, 0.36481574177742004, -0.15581673383712769, 0.2666935920715332, -0.49382853507995605, -0.11731874942779541, -0.3545198142528534, 0.9816277027130127, 0.7324872016906738, 0.07930228114128113, -0.4957914650440216, 0.27742254734039307, -0.19091901183128357, 0.38231950998306274, 0.47785595059394836, 0.34882035851478577, -0.7048230171203613, 0.7902581691741943, 0.4167558550834656, 0.3082630932331085, -0.0035510000307112932, -0.18313074111938477, 0.6466048955917358, 0.3561057448387146, -0.9323491454124451, 0.3736284673213959, 0.8206601142883301, -0.09338117390871048, -1.060954213142395, 1.3760186433792114, 0.07836797833442688, -0.5635423064231873, 0.014057970605790615, 0.08446654677391052, -0.762260913848877, 1.5901533365249634, 0.9527192115783691, -0.3168087899684906, 0.14171336591243744, 0.9137883186340332, 0.5396164059638977, 0.7367761731147766, 0.4635506570339203, -0.8952258229255676, 0.6347734928131104, -1.1631289720535278, -0.3495747447013855, 0.19351306557655334, -0.859218180179596, 1.229333758354187, -0.6994865536689758, 0.26329246163368225, 0.38821321725845337, 0.12295328825712204, 0.754335880279541, -0.39384952187538147, -0.013877693563699722, -0.23680463433265686, 0.142447367310524], [0.4166525900363922, -0.183273047208786, -0.4489307403564453, -1.1494784355163574, -0.34106573462486267, 1.0543080568313599, 0.13948994874954224, 0.763375997543335, 0.3581603467464447, 0.30101925134658813, 1.0328947305679321, -0.504741907119751, 0.7750283479690552, -0.10286595672369003, 0.5675864815711975, -1.2293548583984375, 0.296180784702301, 0.32236382365226746, -0.5068461894989014, 1.19527006149292, -0.4245835840702057, -0.04692501947283745, -0.08049212396144867, -1.514702320098877, -0.8703089952468872, 0.20719601213932037, 0.9116731286048889, 0.493581622838974, 0.41120827198028564, -0.5261433124542236, 0.2956642806529999, -0.05599430203437805, -1.0141345262527466, -0.4733886122703552, -0.26812389492988586, 0.38764819502830505, -0.3115772008895874, -0.016535820439457893, 0.8988099098205566, -0.16951067745685577, 0.08688408881425858, -0.03983021154999733, -0.5584031939506531, -0.18177010118961334, -0.30625176429748535, 0.22864066064357758, 0.4746288061141968, 0.025889325886964798, 0.23372110724449158, -0.1186821460723877, 0.5260502099990845, -1.1014937162399292, 0.3146188259124756, 0.6647289395332336, -0.9204386472702026, -0.41728103160858154, -0.5094993114471436, 0.1930670589208603, 0.9697537422180176, -0.5177261829376221, 0.3031752109527588, 1.3972498178482056, 0.5564191341400146, -0.2561529874801636, -0.07547994703054428, -1.4693365097045898, -0.11560025066137314, 0.1013324037194252, -1.5571614503860474, -0.6120709180831909, -0.6297270059585571, -0.19385956227779388, -0.45279115438461304, 1.218569040298462, -0.8627527952194214, 0.47539380192756653, 0.18267159163951874, -0.6039280295372009, 0.8964632749557495, 0.5962809324264526, 0.7074921727180481, 0.19327019155025482, -0.009867995046079159, 0.45771440863609314, -0.7546647787094116, 0.22892774641513824, 0.08543719351291656, -0.5579513907432556, 1.0301324129104614, 0.4522033929824829, 0.22433774173259735, -0.16829165816307068, 0.2547743022441864, 1.4855021238327026, -0.29439398646354675, 0.4811035990715027, -0.26046323776245117, -0.3255173861980438, 0.49440035223960876, 0.03346041962504387, -0.6811841726303101, 1.290725588798523, 0.279085248708725, -0.17706145346164703, 0.6702834963798523, 1.2218161821365356, -0.23650597035884857, -0.3279857039451599, -0.21743786334991455, 0.22312037646770477, -0.20517228543758392, -0.7308211922645569, 0.5427716374397278, -1.3597564697265625, -0.473827064037323, -0.24963445961475372, 0.2829945683479309, -0.24086534976959229, -0.22759734094142914, 0.4732717275619507, -0.022416945546865463, -0.9955133199691772, 0.5025255084037781, -0.2515915632247925, -1.3886793851852417, -1.6682552099227905, -0.30350154638290405, -0.4154285490512848, -0.007546588778495789, -0.6415666341781616, 1.4205410480499268, -0.10935988277196884, 0.8274536728858948, 0.614128589630127, -0.508971095085144, -0.5952350497245789, -0.8757941126823425, -0.5369374752044678, 0.13202396035194397, -0.4627420902252197, 0.24896417558193207, 0.2943185269832611, -0.6787776350975037, -0.058966152369976044, -0.5956655144691467, -0.2912575602531433, 0.7421287298202515, -0.2496093511581421, -0.4444078207015991, 0.30029425024986267, 0.5502541065216064, -0.5058605670928955, -0.47103387117385864, -0.06540451943874359, -0.5664441585540771, -0.4062368869781494, -0.16346284747123718, 0.3052006661891937, 0.4310685694217682, -0.5255457162857056, -1.0114620923995972, -0.49188509583473206, -0.5653063654899597, 1.7163012027740479, -0.714720606803894, -0.9050174355506897, 0.41365718841552734, -0.4635898470878601, -0.6140550374984741, 0.06588148325681686, -0.9087865352630615, 0.1193537712097168, -0.497834712266922, -0.8380134105682373, 0.3029214143753052, -0.2815703749656677, -0.09402637183666229, 0.23580962419509888, 0.5831384658813477, -0.008434204384684563, 0.303093284368515, 0.4432203471660614, -0.3870251476764679, -0.28572046756744385, 0.9799749255180359, -0.354496031999588, 0.5461596250534058, 0.062470123171806335, -0.2992441654205322, -0.8991016149520874, -0.5820792317390442, 0.1977020800113678, 0.2150762677192688, -0.4905586838722229, 0.850082516670227, -0.1775929182767868, -0.45176026225090027, 0.16565489768981934, -0.7851778864860535, -0.126313254237175, -0.4332977831363678, 0.39537593722343445, 0.2952879071235657, -0.47077491879463196, -0.6884283423423767, -0.4324648082256317, 0.041869599372148514, -0.017501413822174072, -0.18986032903194427, 0.5304691195487976, -1.1846212148666382, -1.036186695098877, -0.0025790282525122166, -0.6308327913284302, 0.8942394256591797, -0.16824205219745636, 0.4494744539260864, -0.03698163852095604, 0.6950550675392151, -0.10402911901473999, -0.33280396461486816, -0.06687313318252563, -0.23069903254508972, -0.033299218863248825, -0.8099668622016907, 0.051992785185575485, -1.0300824642181396, -0.685916006565094, -0.6937440633773804, -1.2474218606948853, -1.0329409837722778, -0.6406703591346741, 0.4164341688156128, 0.17343755066394806, -0.984951913356781, -0.1500907987356186, -0.002732981462031603, 0.20478413999080658, -0.35311946272850037, 0.8872008919715881, 0.7895234227180481, 0.03438038378953934, -0.13331156969070435, 1.16252601146698, 0.5221023559570312, 2.0648727416992188, 0.16685767471790314, -0.0031187343411147594, -0.04644585773348808, -0.1321396380662918, -0.978685200214386, 0.035176556557416916, 0.3985169231891632, -0.710964024066925, -0.20075175166130066, 0.5794917345046997], [0.5258285999298096, -1.1757044792175293, 0.910694420337677, -0.7972697019577026, 0.4544406235218048, -1.0700805187225342, 0.6931170225143433, 0.0003821677528321743, 0.3667636215686798, 0.8091191053390503, 0.09972014278173447, -0.0008323818910866976, -1.1425864696502686, -0.615949273109436, -0.07445301860570908, 0.7214316725730896, 0.39574405550956726, 1.2871812582015991, -0.23704944550991058, 0.4691983163356781, -1.3450888395309448, 0.8454692959785461, 0.739956796169281, -0.6606227159500122, -1.1225082874298096, -0.1911282241344452, -0.4155043661594391, 0.31774216890335083, 0.3710309863090515, -2.0767030715942383, -0.4487645626068115, -0.8173485398292542, 0.35165369510650635, 0.4597925543785095, -0.7913402915000916, 0.024798402562737465, 0.23317599296569824, 0.4625915288925171, 0.679117739200592, -0.9695348143577576, -0.7205482125282288, -0.8033244609832764, -0.8906517028808594, -0.37590155005455017, -0.5298819541931152, 0.16385072469711304, 0.34261414408683777, -0.06419423967599869, -0.6204231977462769, -0.2654912769794464, -0.7403647899627686, -0.2721305191516876, 0.3308952748775482, 1.326743721961975, -0.8430655002593994, -0.3410869240760803, 0.5673067569732666, 0.49152907729148865, 0.04915275424718857, -0.925768256187439, 1.4719599485397339, 0.6384617686271667, 0.5243979692459106, -1.2489829063415527, 0.7228102087974548, 0.13823965191841125, -0.5910593867301941, 1.2161046266555786, 0.06435585021972656, -0.2192392647266388, -0.49496808648109436, 0.23310232162475586, 0.13036757707595825, 1.079028606414795, 0.03818598762154579, -0.46773454546928406, 0.3218650817871094, -0.03275391831994057, -0.8942500948905945, 1.146199345588684, -0.028780650347471237, 0.3265969455242157, 1.0713170766830444, -2.2911643981933594, -0.0008097757818177342, 1.0012871026992798, 0.2075478583574295, -0.13947929441928864, -0.6924168467521667, -0.37294596433639526, -0.3281494379043579, 0.08071908354759216, 0.5773952603340149, 0.7483022809028625, -0.8545272350311279, -0.7688615322113037, -0.9828282594680786, 0.2585078179836273, 0.8865041732788086, -0.30904126167297363, -0.07128162682056427, -0.7773009538650513, -0.9805612564086914, 0.22910171747207642, 0.03864765912294388, 1.5096921920776367, -2.063372850418091, 0.5292220711708069, -1.334144115447998, 0.7788587212562561, 0.6371482014656067, -0.1367882937192917, -0.3445422947406769, -0.09757639467716217, -0.38752108812332153, -0.4550669193267822, 1.1802265644073486, -0.3745936155319214, 0.2063605636358261, -0.794555127620697, -0.1554654985666275, 0.40132638812065125, -0.04731375724077225, -0.6308175325393677, -1.0482429265975952, -1.2965095043182373, 0.17658649384975433, -0.9495550990104675, 1.5304148197174072, -0.5551637411117554, 0.3313397467136383, 0.22462812066078186, 0.3052865266799927, 1.3284837007522583, -1.0770820379257202, -1.2093812227249146, 0.6567553877830505, -0.9530088901519775, -0.7236950397491455, -0.3025088906288147, 0.3265276551246643, 0.18915648758411407, 1.3016774654388428, -0.2274668961763382, 0.046309541910886765, 0.24048297107219696, 0.915497899055481, -0.17598320543766022, -0.6250237822532654, -0.9223910570144653, 0.34421613812446594, -0.06960849463939667, 0.965961217880249, 0.6365392208099365, 0.7264478206634521, -0.4275994896888733, -0.09823010861873627, 0.5349810719490051, -0.2436036318540573, -1.62620210647583, -0.23486661911010742, 0.40488719940185547, -0.11892946064472198, 1.3804738521575928, 0.05928831547498703, 0.15750651061534882, -0.08392833918333054, -1.3527486324310303, -0.753997266292572, 0.4018751084804535, -0.004501175135374069, 0.48166388273239136, 0.2979218065738678, 0.11469724029302597, 1.299130916595459, 0.15483994781970978, 0.3450305163860321, 0.4047492444515228, 0.2030576914548874, -0.23361659049987793, 1.0646356344223022, 0.9175848364830017, 0.193351149559021, 1.6278307437896729, 0.9586415886878967, 0.9900416731834412, -0.004921542014926672, 0.34625184535980225, -0.3371538519859314, -1.4791340827941895, 0.5643869638442993, -0.21176545321941376, 0.46602416038513184, -0.2895655632019043, 0.17835596203804016, 0.6762760281562805, 0.2634424865245819, -0.7542009353637695, 0.2693586051464081, -0.6507415175437927, 0.2763020098209381, 0.23404067754745483, -0.1196667030453682, -0.2111467570066452, 0.004308060742914677, 0.525937557220459, -0.23416925966739655, -0.9499313235282898, 0.34707844257354736, 0.007798014208674431, 0.31936830282211304, -0.182209774851799, 0.7652830481529236, -1.1789394617080688, -0.14978696405887604, 1.0153744220733643, -0.18973545730113983, 0.11553199589252472, 0.3211265802383423, 0.5120497941970825, -0.584315299987793, -0.1753288209438324, 0.2640216052532196, 0.8025431036949158, -0.6939122676849365, 0.17669636011123657, 1.0740498304367065, -1.4591978788375854, -0.3338167369365692, 0.019717499613761902, 0.3696742057800293, 1.5244189500808716, 0.91130131483078, 0.8989402055740356, 0.6684653162956238, 0.3359428942203522, -0.039441436529159546, -0.30463242530822754, 0.7842605710029602, 0.14163008332252502, -0.1354997754096985, -0.0219157375395298, -0.08706419169902802, 0.860428512096405, -0.3079974055290222, -0.6551587581634521, -0.06304056197404861, 0.4824998378753662, -0.023775460198521614, 1.4214158058166504, 0.29410454630851746, -0.2773933410644531, -0.324961394071579, 0.2196146845817566, 0.15945984423160553, -0.10706225037574768], [0.4334143102169037, 0.8630244731903076, -0.1815197914838791, -0.36494016647338867, -0.3118935227394104, 0.032797280699014664, -0.05289115011692047, -0.29236477613449097, 0.6671566963195801, -0.3931552469730377, -0.025962434709072113, -0.31130728125572205, 0.19782064855098724, -0.5130338072776794, 0.5711321830749512, 0.14579913020133972, -0.33607739210128784, -0.09518519043922424, 0.5190656781196594, -0.8009348511695862, -0.08430910110473633, -0.06441321223974228, -0.3945724666118622, 0.4868972599506378, 0.32556775212287903, -0.09521724283695221, 0.465739905834198, 0.23200303316116333, -0.7420865893363953, 0.5894591212272644, 0.3667559325695038, -0.15140758454799652, 0.8179483413696289, 0.5579020977020264, 0.6803362965583801, 0.6267945170402527, 0.09687087684869766, 0.5422025918960571, 0.6062170267105103, -0.43757879734039307, -0.5571656823158264, -0.531511664390564, 0.0882074236869812, 0.4368000626564026, -1.1625022888183594, 0.10078518837690353, 0.47234591841697693, -0.1542815864086151, 0.07369881868362427, -0.18286612629890442, -0.9208053946495056, 0.7392522096633911, -0.20669402182102203, -0.41242316365242004, 0.23202553391456604, 0.011802100576460361, -0.005280577577650547, -0.6886604428291321, -0.7491623163223267, -0.5405920743942261, -0.0008448795415461063, -0.2439461350440979, -0.4712255299091339, -0.1973702758550644, -0.7801454067230225, -0.15060505270957947, -0.38360580801963806, 0.3645843267440796, 0.2710880935192108, 0.03762872517108917, -0.5060142874717712, -0.4524303078651428, 0.5436944961547852, -0.021492475643754005, 0.31535792350769043, 0.7234269976615906, -0.25849390029907227, 0.43846163153648376, 0.15622325241565704, -0.3529413640499115, -0.5137646198272705, 0.060076721012592316, -0.27072829008102417, 0.3961719870567322, 0.6562886238098145, 0.5179309844970703, 0.2354261726140976, -0.11288277804851532, 0.5971966981887817, 0.5286996960639954, -0.34982049465179443, 0.08475629985332489, 0.10458020865917206, 0.39415913820266724, 0.10422855615615845, -0.11211429536342621, -0.028996583074331284, 0.8719959855079651, -0.04707350581884384, 0.0817197859287262, -0.14978057146072388, 0.5129368901252747, 0.34482142329216003, -0.4579678773880005, 0.33449283242225647, 0.47082260251045227, -0.2596747577190399, -0.025916846469044685, 0.18259966373443604, -0.0034574747551232576, 0.2106470763683319, 0.558160662651062, -0.004811510909348726, 0.7991833090782166, 0.08702189475297928, -0.42189979553222656, -0.31411945819854736, -0.26436570286750793, 0.321617066860199, 0.12152282148599625, -0.02456241473555565, 0.053049370646476746, 0.4656439423561096, -0.13740071654319763, 0.8337026238441467, 0.6916934847831726, 0.5170246958732605, 0.08035026490688324, -0.3206150233745575, -0.4121980369091034, 0.5133872032165527, 0.6166359186172485, 0.36113274097442627, -0.5217448472976685, -0.40476125478744507, 0.0216514952480793, -0.41761985421180725, 0.4061603248119354, 0.05565313249826431, 0.30368292331695557, -0.1946960985660553, -0.232463538646698, -0.40225228667259216, -0.019414694979786873, -0.32732313871383667, -0.7451873421669006, 0.26750805974006653, -0.7436748147010803, 0.7644307613372803, -0.14128121733665466, -0.11414657533168793, 0.48971471190452576, -0.296670526266098, -0.5442710518836975, -0.25500592589378357, -0.4272550940513611, -0.34946486353874207, 0.0646350160241127, 0.05679716914892197, -0.4434392750263214, 0.03709747642278671, -0.29252368211746216, 0.3776237964630127, -0.41941264271736145, -0.8892133831977844, 0.5281087160110474, 1.076468586921692, -0.15088021755218506, 0.36305639147758484, 0.18554608523845673, 0.014019816182553768, -0.4540456235408783, -0.028156977146863937, -0.6004000902175903, -0.24490267038345337, -0.06592892110347748, 0.09533717483282089, 0.23806335031986237, -0.5863755941390991, -0.6905330419540405, 0.020273752510547638, -0.9932780861854553, -0.42698192596435547, 0.07763572782278061, -0.1857260763645172, 0.14071764051914215, 0.2315327674150467, 1.4057896137237549, 0.5179495215415955, -0.4803431034088135, -0.643022894859314, 0.30735698342323303, -0.5396894812583923, -0.061592958867549896, -0.2471064329147339, -0.08876568078994751, -0.15995275974273682, 0.2803185284137726, -0.7616456747055054, -0.902172863483429, -0.2418181598186493, -0.17271043360233307, -0.3932783603668213, -0.24563415348529816, 0.07857917249202728, -0.033032502979040146, 0.5592964291572571, 0.6152777075767517, 0.5894068479537964, -0.3849715292453766, 0.13236361742019653, 0.1079898476600647, -0.3962586224079132, -0.11928823590278625, 0.07223378866910934, 0.05237376689910889, 0.5034835934638977, -0.30197447538375854, -0.9342652559280396, -0.018471281975507736, 0.45857512950897217, 0.11201583594083786, -0.07286537438631058, 0.3239048421382904, 0.1815102994441986, -0.6034511923789978, 0.2695867121219635, 0.28007960319519043, 0.019780674949288368, 0.5160865783691406, 0.13700196146965027, 0.5872865915298462, 0.196958526968956, 0.2458057701587677, -0.10517491400241852, 0.22153253853321075, 0.42197197675704956, 0.007086179684847593, 0.05930480360984802, -0.01779898628592491, -0.08178792893886566, 0.6916609406471252, -0.007977642118930817, 0.10502424091100693, -0.5227097272872925, -0.30602338910102844, 0.07341591268777847, -0.009011474438011646, -0.4940899610519409, -0.2549322545528412, 0.06573803722858429, -0.34835439920425415, 0.2719927132129669, 0.1755675971508026, 0.11838481575250626, 0.8994836211204529], [-0.7214272618293762, -0.9507541656494141, 0.1620444357395172, -0.457628071308136, -0.12980422377586365, -0.18885928392410278, -0.18164591491222382, -0.8863421082496643, 0.08214040845632553, -0.7036113142967224, -0.39518284797668457, 0.00425583403557539, -0.35101380944252014, 0.24926914274692535, 0.3053482472896576, -0.1331302523612976, -1.0498803853988647, -0.47290366888046265, -0.026873189955949783, 0.6182527542114258, 0.023651940748095512, -0.05213231220841408, -1.0010628700256348, 1.148376226425171, -1.3279600143432617, -0.3929274082183838, -0.97328120470047, -0.6002325415611267, 0.2530550956726074, -1.2678217887878418, -1.3415120840072632, 0.41388872265815735, 0.03916272148489952, -0.45967185497283936, -0.42095765471458435, -0.9132100343704224, 0.7876679301261902, -0.6066677570343018, -0.036481823772192, -0.5212062001228333, -0.26168766617774963, -0.7751962542533875, -0.5726826190948486, -0.5124427676200867, 0.7188337445259094, -0.3331688642501831, -0.39466631412506104, 0.4750514626502991, -1.282119631767273, 1.1552199125289917, -0.40906617045402527, -0.5070591568946838, -0.9116256237030029, 0.3026147484779358, 0.15412752330303192, -0.13352106511592865, 0.27185630798339844, 1.1794930696487427, 0.3737647235393524, 0.6219006180763245, 0.003815166652202606, 0.6764345765113831, -0.5705315470695496, -1.0654999017715454, 0.36444976925849915, 2.0577328205108643, -0.3211239278316498, 0.24758818745613098, -1.0482759475708008, 0.3479202687740326, 1.0519508123397827, 0.6390696167945862, -0.46661868691444397, 0.49822163581848145, 0.6478682160377502, 0.12777060270309448, 0.3581864833831787, -0.9848970174789429, -1.1517237424850464, 0.18766352534294128, 1.060133695602417, 0.8388435244560242, -0.39308372139930725, -0.6310511827468872, 0.4008859694004059, 1.0054481029510498, -0.5492264628410339, 0.28744345903396606, 0.7918053865432739, -0.6800549030303955, 1.2114235162734985, 0.8713073134422302, 0.021517859771847725, -0.5717536211013794, -0.4449406564235687, -1.334352731704712, -0.8911185264587402, -0.4373493790626526, 1.3496662378311157, 0.11903974413871765, 0.3413786292076111, 1.2147777080535889, -0.9490487575531006, 0.8658052682876587, -0.12021726369857788, -0.8408005237579346, 0.5030103921890259, 0.18965788185596466, -0.6112245917320251, 0.24880680441856384, 0.02375957742333412, -0.5037395358085632, -1.1023995876312256, -0.026809411123394966, -0.933270275592804, -0.24216583371162415, 0.15129375457763672, 0.422553151845932, 1.0596147775650024, -0.3295744061470032, -0.828906774520874, -1.6418565511703491, -0.05782604590058327, 0.8225367069244385, -0.888976514339447, -1.3725208044052124, 1.5887243747711182, 0.8683711886405945, -0.3452371656894684, 0.1323709636926651, -0.04418165981769562, 0.25363337993621826, -0.2718607187271118, -0.44524529576301575, 0.2677042484283447, 0.9072484970092773, -0.8239895701408386, 0.00039599291631020606, 0.4312514364719391, 1.1140068769454956, 0.41507017612457275, 0.1279749721288681, 0.9913389086723328, 0.43209347128868103, 0.06214386224746704, 0.08536750823259354, -0.11460690945386887, 1.116333246231079, -0.1678251326084137, 0.2932237386703491, 0.29214203357696533, -0.9084396362304688, 0.21905174851417542, 0.8627690672874451, 0.31117168068885803, 0.6572361588478088, 0.8813016414642334, -0.09309569746255875, 0.11019030958414078, 0.8645616173744202, -0.8454121947288513, -0.09228479117155075, 0.617033839225769, -0.23715054988861084, 1.7358921766281128, 0.2545701563358307, 0.8076903820037842, -0.3048765957355499, 0.17640183866024017, -0.6659464836120605, -0.49596133828163147, -0.25875571370124817, -0.12985415756702423, -0.3529514670372009, -1.0248982906341553, 0.5106862187385559, 0.1766444742679596, 0.9091262817382812, -0.289531409740448, 0.6626200675964355, -0.21662752330303192, 0.5625203847885132, -0.8190237283706665, -1.215116262435913, 0.9954082369804382, 0.22174564003944397, -0.18605464696884155, -0.3485182225704193, 0.6753153204917908, 0.7807188034057617, 0.278617262840271, 0.4166029691696167, -0.189718097448349, -0.21905706822872162, -0.18632015585899353, 0.15155644714832306, 0.12414061278104782, -1.563206434249878, 1.1022230386734009, -0.11468275636434555, -1.6819876432418823, 0.11876911669969559, -1.306451678276062, 0.1721172034740448, 0.411758691072464, -0.40353938937187195, 0.3457976281642914, -1.7891404628753662, -0.0007685737800784409, 0.08437717705965042, 0.5079627633094788, -0.34364673495292664, -0.7985261082649231, 0.5376936793327332, -0.783989429473877, 0.22072364389896393, 0.23274192214012146, -0.30687031149864197, 0.296861469745636, 0.425386518239975, -1.118177890777588, -0.3280387222766876, -0.12900617718696594, -0.17996512353420258, 0.19591131806373596, 0.020965417847037315, -0.9103971123695374, 1.0204682350158691, -0.19430099427700043, -1.3756639957427979, -0.5650815367698669, -1.54298734664917, 0.07549400627613068, 0.43772435188293457, 1.2664096355438232, -0.1890689879655838, -0.3616824150085449, -0.0435677170753479, -0.9689279794692993, 0.03470364958047867, -1.380002737045288, -0.0013785349437966943, -0.7561424374580383, 0.32372185587882996, -0.13881243765354156, -0.7825222015380859, -0.659731388092041, -0.5773651003837585, 1.4764554500579834, 1.243553638458252, 0.8407419919967651, -0.4884420335292816, -0.8778637647628784, -0.4383002519607544, -0.054898135364055634, -1.1595263481140137], [0.1675056666135788, 0.22339333593845367, 0.08025860786437988, -0.9776221513748169, -0.893322765827179, -0.6865053772926331, -0.13624465465545654, 0.2374357432126999, 1.0441899299621582, 0.3252795934677124, 0.6046969890594482, -0.08632195740938187, 0.05304679274559021, -0.6688821315765381, 0.5379680395126343, -0.34258660674095154, -0.2548600435256958, 0.8921704888343811, -0.14308814704418182, 0.4490140974521637, -0.4646909236907959, -0.4045499563217163, -0.48820605874061584, -1.2506096363067627, -0.3802458643913269, -0.028727712109684944, -0.1297844648361206, 0.2808942198753357, 0.019757438451051712, -0.8046442270278931, -0.2671668827533722, -0.36107465624809265, 0.7592828869819641, 0.2768293023109436, -0.20117081701755524, -0.6095272302627563, -1.0182216167449951, -0.009205427020788193, -0.24814701080322266, 0.18389996886253357, -0.07384847104549408, 0.11030813306570053, -0.3861280083656311, -0.3984980881214142, -0.623894214630127, -0.31684595346450806, 0.31461548805236816, 0.10524265468120575, 0.45709675550460815, -0.23355306684970856, 0.08205463737249374, -0.6018688678741455, 0.5907214879989624, 0.025010649114847183, 0.7369512319564819, -1.0297846794128418, 0.13486655056476593, -0.8011588454246521, 0.6078739166259766, 0.06558966636657715, 0.38231703639030457, 0.20384660363197327, -0.5986297130584717, -0.872281014919281, 0.2340022325515747, -0.44384559988975525, 0.21274130046367645, 0.2281578630208969, 0.03401453420519829, -1.0054147243499756, 0.8395386934280396, 0.4404173195362091, 0.3200996518135071, 0.3153861165046692, -0.01017750333994627, -0.09049678593873978, -1.158889889717102, -1.480924367904663, 0.02571047656238079, 0.36451494693756104, -0.06550735235214233, -0.7653707265853882, 0.7161087989807129, -0.4160754382610321, -0.951834499835968, 0.33481070399284363, 0.10862468183040619, -0.36626341938972473, 0.10609299689531326, -0.154672309756279, 0.22399918735027313, -1.1783877611160278, 0.9183828234672546, 0.28734368085861206, -0.6591044664382935, -0.9837232232093811, 0.2026304006576538, -0.4320610761642456, 0.026755668222904205, -0.5981860756874084, 0.6043746471405029, -0.4525690972805023, 0.19093236327171326, 0.6103067398071289, -0.23927585780620575, 0.07442718744277954, -0.8721548318862915, -0.17190536856651306, -0.8810682892799377, 0.00021021069551352412, 0.9112186431884766, -0.7147459983825684, -0.05566541105508804, -0.20296551287174225, -1.0190279483795166, -0.17868885397911072, 0.5444711446762085, 0.6451631188392639, -0.1389133483171463, -0.7771512866020203, -0.8367610573768616, -0.66419917345047, 0.1205216571688652, -1.0241297483444214, 0.30697309970855713, -0.1380077600479126, 0.10664980858564377, -0.09078576415777206, 0.0634923055768013, 0.10632188618183136, 0.5623297095298767, 0.029271233826875687, 0.4940320551395416, 0.0016633333871141076, -0.9343045949935913, -0.6652868986129761, -0.2627648413181305, -0.6404702663421631, -0.7258654236793518, 0.13627450168132782, -0.5518492460250854, -0.7146456241607666, 0.2426142692565918, 0.2122115045785904, -0.5654093623161316, -0.9283022880554199, 0.7474952340126038, 0.14863221347332, 0.03689510002732277, -0.37781187891960144, -0.38322579860687256, 0.08134637027978897, -0.9708035588264465, 0.11507942527532578, 0.06850472092628479, -0.39458730816841125, -0.020941415801644325, 0.8279373049736023, 0.30897027254104614, -0.7574291825294495, -0.33435261249542236, -0.0360887348651886, 0.6596592664718628, 0.27347317337989807, -0.3053666949272156, -0.8133512735366821, 0.006080062128603458, -0.5786827802658081, -0.05660164728760719, -0.02863166108727455, -0.1462865024805069, 0.06418143957853317, -0.7571051120758057, -0.03867722675204277, -0.5715141892433167, -0.1901324987411499, -0.8064614534378052, 0.3746641278266907, -0.21591365337371826, -0.9974830150604248, 0.2936832010746002, 0.03284592926502228, -0.5501094460487366, -0.23561134934425354, 0.363292932510376, 0.4800545573234558, -0.2500966191291809, 0.49468597769737244, -0.5142936110496521, -0.5710790157318115, 0.3247552812099457, 0.4097907543182373, 0.175813227891922, -0.8477869629859924, -0.38292521238327026, -0.39472994208335876, 0.4608125686645508, -0.4648533761501312, -0.47473588585853577, -0.5079688429832458, -1.06768000125885, 0.5185025334358215, 0.7544241547584534, 0.8224040269851685, -1.0291635990142822, 0.25952285528182983, 0.665374219417572, -0.38960281014442444, 0.27234911918640137, -1.009845495223999, -1.4482495784759521, -0.06769208610057831, -0.023711085319519043, -0.6272972822189331, 0.33469918370246887, -0.14621156454086304, -0.3880949914455414, 0.3484747111797333, -0.3805064857006073, -0.09983835369348526, -1.0801730155944824, 0.40868914127349854, -0.13151884078979492, 0.7658360004425049, -0.4345617890357971, 0.363962322473526, -0.6038240790367126, -0.4339221715927124, -2.1286416053771973, -0.16419140994548798, 0.08431130647659302, -0.32223549485206604, 0.33535486459732056, -0.04260465130209923, -0.8336265683174133, -0.0776723101735115, -0.26216527819633484, -0.99550861120224, 0.2402210682630539, 0.729004979133606, -0.5161688923835754, 0.3529606759548187, -0.7586305737495422, 0.036903154104948044, -0.774797260761261, 0.650290310382843, 0.2912631332874298, -0.09035258740186691, -0.23741291463375092, -0.7034209370613098, -0.7782206535339355, -0.10215713083744049, -0.5864936113357544, -0.05336874723434448, -0.19500914216041565, -0.5778223872184753], [0.09395833313465118, -0.3533981442451477, 0.7787137627601624, -1.1588108539581299, -0.5623133778572083, 0.13545165956020355, -0.08699041604995728, 0.4683362543582916, 0.915794312953949, -0.7501134276390076, 0.3659583628177643, 0.5626074075698853, -0.3433971703052521, 0.055391907691955566, 0.47022199630737305, -0.8419724702835083, -0.37050652503967285, -0.24960267543792725, -0.2866950035095215, 0.24609023332595825, 0.03830818459391594, 0.2218886911869049, -0.44853076338768005, -0.2794513404369354, -0.10925935208797455, 0.4598299264907837, 0.31881269812583923, -0.08909443020820618, 0.42498964071273804, -0.2498953491449356, -0.7622795701026917, -0.2840195298194885, -1.9842876195907593, 0.21838967502117157, -0.5773858428001404, -0.2480548620223999, -0.08688469976186752, -0.1693572849035263, 0.6745824813842773, -0.20247061550617218, -0.8556380271911621, 0.9712707996368408, 0.23614273965358734, -0.7701964974403381, -0.2947663962841034, -0.6685936450958252, 0.5269153714179993, 1.1997488737106323, -0.5360662341117859, 0.988923966884613, -0.09270978718996048, -0.015303753316402435, 0.5057271718978882, 0.2575239837169647, 0.6236007213592529, -0.24273118376731873, 0.36162906885147095, 0.5978941917419434, 0.7208042740821838, -0.1698637455701828, 0.2546825706958771, 0.3877524137496948, -0.44145968556404114, 0.5331986546516418, -0.07597856223583221, 0.10904800146818161, 0.6410369873046875, -0.5012686252593994, -0.31352245807647705, -0.6552090644836426, 0.595888614654541, 0.11454916000366211, 0.09027276188135147, 0.26973846554756165, 0.5670893788337708, -0.39088359475135803, 0.7004595994949341, -0.48808956146240234, 0.37162649631500244, -0.7244886755943298, -0.1456238478422165, 0.8829566240310669, -0.6612472534179688, 0.5242515802383423, -0.2741239666938782, -0.2787564694881439, 0.07978346198797226, 0.5895345211029053, -0.262207955121994, 0.29599109292030334, -0.18291108310222626, -0.7309678196907043, 0.18059583008289337, 0.5238524675369263, -0.22300906479358673, -0.5062762498855591, -0.46485984325408936, -0.5106698274612427, 1.5548521280288696, -0.21597620844841003, 0.21848392486572266, 0.31523215770721436, -0.6385902762413025, 1.24966299533844, -0.8222429752349854, 1.0604296922683716, -0.30569350719451904, 0.21539026498794556, -0.8399360775947571, 1.434551477432251, 0.4766727387905121, -0.3417031466960907, 0.5659834146499634, 0.012952136807143688, 0.020083338022232056, 0.02599322237074375, -0.14496177434921265, 1.021579623222351, -0.4209209084510803, -1.0788764953613281, 0.1598379909992218, -0.4818822741508484, 0.5785013437271118, 0.7814727425575256, 0.2838786840438843, -1.2841970920562744, 0.09319716691970825, -0.4833187162876129, 0.5636423826217651, -0.16304700076580048, -0.6832624673843384, 1.3115794658660889, 1.0168583393096924, 0.15075579285621643, 0.021329063922166824, 0.35359564423561096, 0.9026383757591248, -0.872444748878479, -0.39779436588287354, 0.40531450510025024, 1.034593105316162, -1.1124546527862549, -0.3992241322994232, 0.9086943864822388, -0.5835162997245789, 0.036687418818473816, 0.15858468413352966, 0.6368318200111389, -0.407926470041275, -0.33354684710502625, -0.12736369669437408, -0.1840134859085083, -1.324367642402649, 0.5034989714622498, -0.40234604477882385, -0.1175599917769432, 0.6635932922363281, -0.7260777354240417, 0.3637476861476898, 0.05513233691453934, -0.200420081615448, 0.7792189121246338, 0.46639615297317505, 0.4726582467556, 0.7837616801261902, -0.790019154548645, -0.3220748007297516, -0.26951488852500916, 0.5616806149482727, 0.14190074801445007, 0.9491617679595947, -0.3240574896335602, -0.22887291014194489, 0.23702266812324524, 0.2987119257450104, -0.8081399202346802, 0.4049084484577179, -0.00957427453249693, 0.3404063284397125, -0.07294042408466339, -0.44380873441696167, 0.04218873009085655, -0.2955697178840637, 0.6069178581237793, 0.8505473732948303, 0.16941092908382416, -0.003205226268619299, 0.21265390515327454, -1.259735345840454, -0.024824371561408043, -0.5995186567306519, 1.034688949584961, -0.09258555620908737, -0.4467163681983948, -0.015489091165363789, 0.814100980758667, -0.47521740198135376, -0.40030398964881897, 0.427813857793808, 0.2460429072380066, 0.2708287537097931, -0.4351726770401001, 1.2606444358825684, 0.7358656525611877, -0.3994341790676117, 0.1551884263753891, 0.6008073091506958, 0.04236149042844772, 0.23055146634578705, -0.9030860662460327, -1.2099733352661133, 0.013625795021653175, -0.7816493511199951, -0.3125063180923462, -0.6077051162719727, -0.7114905118942261, 0.5048240423202515, 0.5140105485916138, -0.45265206694602966, 0.16164478659629822, 0.7572178840637207, -0.2487734854221344, -0.0732048898935318, 0.31141653656959534, -0.009223123081028461, -0.2891708016395569, -1.5418734550476074, -0.8267009258270264, -0.288370817899704, -0.31251630187034607, -0.29702550172805786, 0.7074695229530334, 0.46018800139427185, -0.894047200679779, 0.9423824548721313, 1.1285605430603027, -0.4581220746040344, 0.2549368739128113, -0.17869189381599426, 0.35288044810295105, -0.05110462009906769, 0.01859462447464466, -0.07054514437913895, -0.31073546409606934, -0.25153326988220215, 1.0190240144729614, -0.08485671877861023, 1.1566885709762573, -0.05232100561261177, -0.050419848412275314, -0.056950852274894714, 0.5788244009017944, 1.4336556196212769, -0.3322278559207916, 0.6100078821182251, -0.4583932161331177], [-0.8434684872627258, 0.06277533620595932, 0.6282838582992554, 1.2797917127609253, -0.13078497350215912, 0.17144878208637238, 0.5572835803031921, 0.31514906883239746, -0.24472618103027344, -0.803880512714386, -0.7395303249359131, 0.48056814074516296, -0.6413172483444214, 0.8512652516365051, -0.03698717802762985, 0.33186566829681396, 0.20097166299819946, -0.17416097223758698, 0.2531188726425171, -0.47985997796058655, 0.23979048430919647, 0.22775045037269592, 0.22573573887348175, 0.8377299904823303, -1.0852528810501099, -0.22457176446914673, 0.4684162139892578, -0.9038618803024292, 0.0348738394677639, 0.8506839275360107, 0.0976758524775505, -1.3490281105041504, -0.25267207622528076, 0.405050665140152, 1.2592272758483887, -0.16143250465393066, -0.44255080819129944, 1.2555291652679443, -0.37021881341934204, 0.6482586860656738, -1.2039545774459839, 1.4299376010894775, 0.37355539202690125, -0.7735505104064941, 0.35375580191612244, -0.006024856586009264, -1.1334573030471802, 0.4551245868206024, 0.26301971077919006, -0.942145586013794, 0.49964579939842224, -0.5918856263160706, -1.287431240081787, 0.2285299450159073, 0.5382212996482849, 0.8497651219367981, 0.6398202776908875, 0.9247350096702576, -0.16753609478473663, 0.03943736106157303, -0.41186726093292236, 0.11981843411922455, -0.7863691449165344, 0.3047718405723572, -0.14040836691856384, 1.1183611154556274, -1.2005714178085327, 0.07390906661748886, 0.6288847327232361, 1.0885257720947266, 0.30667778849601746, -1.0877922773361206, -0.46508336067199707, 0.47290608286857605, 0.3922489285469055, 